{"learner":{"attributes":{"scikit_learn":"{\"_estimator_type\": \"regressor\"}"},"feature_names":["ticker_prior_days_increase","ticker_weekly_return","sp500_daily_return","sp500_weekly_return","sp500_monthly_return","sp500_ytd_return","ndaq_weekly_return","dow30_daily_return","dow30_weekly_return","dow30_ytd_return","ticker_sp500_weekly_beta","ticker_ndaq_weekly_beta","ticker_dow_weekly_beta"],"feature_types":["float","float","float","float","float","float","float","float","float","float","float","float","float"],"gradient_booster":{"model":{"gbtree_model_param":{"num_parallel_tree":"1","num_trees":"4000"},"iteration_indptr":[0,1,2,3,4,5,6,7,8,9,10,11,12,13,14,15,16,17,18,19,20,21,22,23,24,25,26,27,28,29,30,31,32,33,34,35,36,37,38,39,40,41,42,43,44,45,46,47,48,49,50,51,52,53,54,55,56,57,58,59,60,61,62,63,64,65,66,67,68,69,70,71,72,73,74,75,76,77,78,79,80,81,82,83,84,85,86,87,88,89,90,91,92,93,94,95,96,97,98,99,100,101,102,103,104,105,106,107,108,109,110,111,112,113,114,115,116,117,118,119,120,121,122,123,124,125,126,127,128,129,130,131,132,133,134,135,136,137,138,139,140,141,142,143,144,145,146,147,148,149,150,151,152,153,154,155,156,157,158,159,160,161,162,163,164,165,166,167,168,169,170,171,172,173,174,175,176,177,178,179,180,181,182,183,184,185,186,187,188,189,190,191,192,193,194,195,196,197,198,199,200,201,202,203,204,205,206,207,208,209,210,211,212,213,214,215,216,217,218,219,220,221,222,223,224,225,226,227,228,229,230,231,232,233,234,235,236,237,238,239,240,241,242,243,244,245,246,247,248,249,250,251,252,253,254,255,256,257,258,259,260,261,262,263,264,265,266,267,268,269,270,271,272,273,274,275,276,277,278,279,280,281,282,283,284,285,286,287,288,289,290,291,292,293,294,295,296,297,298,299,300,301,302,303,304,305,306,307,308,309,310,311,312,313,314,315,316,317,318,319,320,321,322,323,324,325,326,327,328,329,330,331,332,333,334,335,336,337,338,339,340,341,342,343,344,345,346,347,348,349,350,351,352,353,354,355,356,357,358,359,360,361,362,363,364,365,366,367,368,369,370,371,372,373,374,375,376,377,378,379,380,381,382,383,384,385,386,387,388,389,390,391,392,393,394,395,396,397,398,399,400,401,402,403,404,405,406,407,408,409,410,411,412,413,414,415,416,417,418,419,420,421,422,423,424,425,426,427,428,429,430,431,432,433,434,435,436,437,438,439,440,441,442,443,444,445,446,447,448,449,450,451,452,453,454,455,456,457,458,459,460,461,462,463,464,465,466,467,468,469,470,471,472,473,474,475,476,477,478,479,480,481,482,483,484,485,486,487,488,489,490,491,492,493,494,495,496,497,498,499,500,501,502,503,504,505,506,507,508,509,510,511,512,513,514,515,516,517,518,519,520,521,522,523,524,525,526,527,528,529,530,531,532,533,534,535,536,537,538,539,540,541,542,543,544,545,546,547,548,549,550,551,552,553,554,555,556,557,558,559,560,561,562,563,564,565,566,567,568,569,570,571,572,573,574,575,576,577,578,579,580,581,582,583,584,585,586,587,588,589,590,591,592,593,594,595,596,597,598,599,600,601,602,603,604,605,606,607,608,609,610,611,612,613,614,615,616,617,618,619,620,621,622,623,624,625,626,627,628,629,630,631,632,633,634,635,636,637,638,639,640,641,642,643,644,645,646,647,648,649,650,651,652,653,654,655,656,657,658,659,660,661,662,663,664,665,666,667,668,669,670,671,672,673,674,675,676,677,678,679,680,681,682,683,684,685,686,687,688,689,690,691,692,693,694,695,696,697,698,699,700,701,702,703,704,705,706,707,708,709,710,711,712,713,714,715,716,717,718,719,720,721,722,723,724,725,726,727,728,729,730,731,732,733,734,735,736,737,738,739,740,741,742,743,744,745,746,747,748,749,750,751,752,753,754,755,756,757,758,759,760,761,762,763,764,765,766,767,768,769,770,771,772,773,774,775,776,777,778,779,780,781,782,783,784,785,786,787,788,789,790,791,792,793,794,795,796,797,798,799,800,801,802,803,804,805,806,807,808,809,810,811,812,813,814,815,816,817,818,819,820,821,822,823,824,825,826,827,828,829,830,831,832,833,834,835,836,837,838,839,840,841,842,843,844,845,846,847,848,849,850,851,852,853,854,855,856,857,858,859,860,861,862,863,864,865,866,867,868,869,870,871,872,873,874,875,876,877,878,879,880,881,882,883,884,885,886,887,888,889,890,891,892,893,894,895,896,897,898,899,900,901,902,903,904,905,906,907,908,909,910,911,912,913,914,915,916,917,918,919,920,921,922,923,924,925,926,927,928,929,930,931,932,933,934,935,936,937,938,939,940,941,942,943,944,945,946,947,948,949,950,951,952,953,954,955,956,957,958,959,960,961,962,963,964,965,966,967,968,969,970,971,972,973,974,975,976,977,978,979,980,981,982,983,984,985,986,987,988,989,990,991,992,993,994,995,996,997,998,999,1000,1001,1002,1003,1004,1005,1006,1007,1008,1009,1010,1011,1012,1013,1014,1015,1016,1017,1018,1019,1020,1021,1022,1023,1024,1025,1026,1027,1028,1029,1030,1031,1032,1033,1034,1035,1036,1037,1038,1039,1040,1041,1042,1043,1044,1045,1046,1047,1048,1049,1050,1051,1052,1053,1054,1055,1056,1057,1058,1059,1060,1061,1062,1063,1064,1065,1066,1067,1068,1069,1070,1071,1072,1073,1074,1075,1076,1077,1078,1079,1080,1081,1082,1083,1084,1085,1086,1087,1088,1089,1090,1091,1092,1093,1094,1095,1096,1097,1098,1099,1100,1101,1102,1103,1104,1105,1106,1107,1108,1109,1110,1111,1112,1113,1114,1115,1116,1117,1118,1119,1120,1121,1122,1123,1124,1125,1126,1127,1128,1129,1130,1131,1132,1133,1134,1135,1136,1137,1138,1139,1140,1141,1142,1143,1144,1145,1146,1147,1148,1149,1150,1151,1152,1153,1154,1155,1156,1157,1158,1159,1160,1161,1162,1163,1164,1165,1166,1167,1168,1169,1170,1171,1172,1173,1174,1175,1176,1177,1178,1179,1180,1181,1182,1183,1184,1185,1186,1187,1188,1189,1190,1191,1192,1193,1194,1195,1196,1197,1198,1199,1200,1201,1202,1203,1204,1205,1206,1207,1208,1209,1210,1211,1212,1213,1214,1215,1216,1217,1218,1219,1220,1221,1222,1223,1224,1225,1226,1227,1228,1229,1230,1231,1232,1233,1234,1235,1236,1237,1238,1239,1240,1241,1242,1243,1244,1245,1246,1247,1248,1249,1250,1251,1252,1253,1254,1255,1256,1257,1258,1259,1260,1261,1262,1263,1264,1265,1266,1267,1268,1269,1270,1271,1272,1273,1274,1275,1276,1277,1278,1279,1280,1281,1282,1283,1284,1285,1286,1287,1288,1289,1290,1291,1292,1293,1294,1295,1296,1297,1298,1299,1300,1301,1302,1303,1304,1305,1306,1307,1308,1309,1310,1311,1312,1313,1314,1315,1316,1317,1318,1319,1320,1321,1322,1323,1324,1325,1326,1327,1328,1329,1330,1331,1332,1333,1334,1335,1336,1337,1338,1339,1340,1341,1342,1343,1344,1345,1346,1347,1348,1349,1350,1351,1352,1353,1354,1355,1356,1357,1358,1359,1360,1361,1362,1363,1364,1365,1366,1367,1368,1369,1370,1371,1372,1373,1374,1375,1376,1377,1378,1379,1380,1381,1382,1383,1384,1385,1386,1387,1388,1389,1390,1391,1392,1393,1394,1395,1396,1397,1398,1399,1400,1401,1402,1403,1404,1405,1406,1407,1408,1409,1410,1411,1412,1413,1414,1415,1416,1417,1418,1419,1420,1421,1422,1423,1424,1425,1426,1427,1428,1429,1430,1431,1432,1433,1434,1435,1436,1437,1438,1439,1440,1441,1442,1443,1444,1445,1446,1447,1448,1449,1450,1451,1452,1453,1454,1455,1456,1457,1458,1459,1460,1461,1462,1463,1464,1465,1466,1467,1468,1469,1470,1471,1472,1473,1474,1475,1476,1477,1478,1479,1480,1481,1482,1483,1484,1485,1486,1487,1488,1489,1490,1491,1492,1493,1494,1495,1496,1497,1498,1499,1500,1501,1502,1503,1504,1505,1506,1507,1508,1509,1510,1511,1512,1513,1514,1515,1516,1517,1518,1519,1520,1521,1522,1523,1524,1525,1526,1527,1528,1529,1530,1531,1532,1533,1534,1535,1536,1537,1538,1539,1540,1541,1542,1543,1544,1545,1546,1547,1548,1549,1550,1551,1552,1553,1554,1555,1556,1557,1558,1559,1560,1561,1562,1563,1564,1565,1566,1567,1568,1569,1570,1571,1572,1573,1574,1575,1576,1577,1578,1579,1580,1581,1582,1583,1584,1585,1586,1587,1588,1589,1590,1591,1592,1593,1594,1595,1596,1597,1598,1599,1600,1601,1602,1603,1604,1605,1606,1607,1608,1609,1610,1611,1612,1613,1614,1615,1616,1617,1618,1619,1620,1621,1622,1623,1624,1625,1626,1627,1628,1629,1630,1631,1632,1633,1634,1635,1636,1637,1638,1639,1640,1641,1642,1643,1644,1645,1646,1647,1648,1649,1650,1651,1652,1653,1654,1655,1656,1657,1658,1659,1660,1661,1662,1663,1664,1665,1666,1667,1668,1669,1670,1671,1672,1673,1674,1675,1676,1677,1678,1679,1680,1681,1682,1683,1684,1685,1686,1687,1688,1689,1690,1691,1692,1693,1694,1695,1696,1697,1698,1699,1700,1701,1702,1703,1704,1705,1706,1707,1708,1709,1710,1711,1712,1713,1714,1715,1716,1717,1718,1719,1720,1721,1722,1723,1724,1725,1726,1727,1728,1729,1730,1731,1732,1733,1734,1735,1736,1737,1738,1739,1740,1741,1742,1743,1744,1745,1746,1747,1748,1749,1750,1751,1752,1753,1754,1755,1756,1757,1758,1759,1760,1761,1762,1763,1764,1765,1766,1767,1768,1769,1770,1771,1772,1773,1774,1775,1776,1777,1778,1779,1780,1781,1782,1783,1784,1785,1786,1787,1788,1789,1790,1791,1792,1793,1794,1795,1796,1797,1798,1799,1800,1801,1802,1803,1804,1805,1806,1807,1808,1809,1810,1811,1812,1813,1814,1815,1816,1817,1818,1819,1820,1821,1822,1823,1824,1825,1826,1827,1828,1829,1830,1831,1832,1833,1834,1835,1836,1837,1838,1839,1840,1841,1842,1843,1844,1845,1846,1847,1848,1849,1850,1851,1852,1853,1854,1855,1856,1857,1858,1859,1860,1861,1862,1863,1864,1865,1866,1867,1868,1869,1870,1871,1872,1873,1874,1875,1876,1877,1878,1879,1880,1881,1882,1883,1884,1885,1886,1887,1888,1889,1890,1891,1892,1893,1894,1895,1896,1897,1898,1899,1900,1901,1902,1903,1904,1905,1906,1907,1908,1909,1910,1911,1912,1913,1914,1915,1916,1917,1918,1919,1920,1921,1922,1923,1924,1925,1926,1927,1928,1929,1930,1931,1932,1933,1934,1935,1936,1937,1938,1939,1940,1941,1942,1943,1944,1945,1946,1947,1948,1949,1950,1951,1952,1953,1954,1955,1956,1957,1958,1959,1960,1961,1962,1963,1964,1965,1966,1967,1968,1969,1970,1971,1972,1973,1974,1975,1976,1977,1978,1979,1980,1981,1982,1983,1984,1985,1986,1987,1988,1989,1990,1991,1992,1993,1994,1995,1996,1997,1998,1999,2000,2001,2002,2003,2004,2005,2006,2007,2008,2009,2010,2011,2012,2013,2014,2015,2016,2017,2018,2019,2020,2021,2022,2023,2024,2025,2026,2027,2028,2029,2030,2031,2032,2033,2034,2035,2036,2037,2038,2039,2040,2041,2042,2043,2044,2045,2046,2047,2048,2049,2050,2051,2052,2053,2054,2055,2056,2057,2058,2059,2060,2061,2062,2063,2064,2065,2066,2067,2068,2069,2070,2071,2072,2073,2074,2075,2076,2077,2078,2079,2080,2081,2082,2083,2084,2085,2086,2087,2088,2089,2090,2091,2092,2093,2094,2095,2096,2097,2098,2099,2100,2101,2102,2103,2104,2105,2106,2107,2108,2109,2110,2111,2112,2113,2114,2115,2116,2117,2118,2119,2120,2121,2122,2123,2124,2125,2126,2127,2128,2129,2130,2131,2132,2133,2134,2135,2136,2137,2138,2139,2140,2141,2142,2143,2144,2145,2146,2147,2148,2149,2150,2151,2152,2153,2154,2155,2156,2157,2158,2159,2160,2161,2162,2163,2164,2165,2166,2167,2168,2169,2170,2171,2172,2173,2174,2175,2176,2177,2178,2179,2180,2181,2182,2183,2184,2185,2186,2187,2188,2189,2190,2191,2192,2193,2194,2195,2196,2197,2198,2199,2200,2201,2202,2203,2204,2205,2206,2207,2208,2209,2210,2211,2212,2213,2214,2215,2216,2217,2218,2219,2220,2221,2222,2223,2224,2225,2226,2227,2228,2229,2230,2231,2232,2233,2234,2235,2236,2237,2238,2239,2240,2241,2242,2243,2244,2245,2246,2247,2248,2249,2250,2251,2252,2253,2254,2255,2256,2257,2258,2259,2260,2261,2262,2263,2264,2265,2266,2267,2268,2269,2270,2271,2272,2273,2274,2275,2276,2277,2278,2279,2280,2281,2282,2283,2284,2285,2286,2287,2288,2289,2290,2291,2292,2293,2294,2295,2296,2297,2298,2299,2300,2301,2302,2303,2304,2305,2306,2307,2308,2309,2310,2311,2312,2313,2314,2315,2316,2317,2318,2319,2320,2321,2322,2323,2324,2325,2326,2327,2328,2329,2330,2331,2332,2333,2334,2335,2336,2337,2338,2339,2340,2341,2342,2343,2344,2345,2346,2347,2348,2349,2350,2351,2352,2353,2354,2355,2356,2357,2358,2359,2360,2361,2362,2363,2364,2365,2366,2367,2368,2369,2370,2371,2372,2373,2374,2375,2376,2377,2378,2379,2380,2381,2382,2383,2384,2385,2386,2387,2388,2389,2390,2391,2392,2393,2394,2395,2396,2397,2398,2399,2400,2401,2402,2403,2404,2405,2406,2407,2408,2409,2410,2411,2412,2413,2414,2415,2416,2417,2418,2419,2420,2421,2422,2423,2424,2425,2426,2427,2428,2429,2430,2431,2432,2433,2434,2435,2436,2437,2438,2439,2440,2441,2442,2443,2444,2445,2446,2447,2448,2449,2450,2451,2452,2453,2454,2455,2456,2457,2458,2459,2460,2461,2462,2463,2464,2465,2466,2467,2468,2469,2470,2471,2472,2473,2474,2475,2476,2477,2478,2479,2480,2481,2482,2483,2484,2485,2486,2487,2488,2489,2490,2491,2492,2493,2494,2495,2496,2497,2498,2499,2500,2501,2502,2503,2504,2505,2506,2507,2508,2509,2510,2511,2512,2513,2514,2515,2516,2517,2518,2519,2520,2521,2522,2523,2524,2525,2526,2527,2528,2529,2530,2531,2532,2533,2534,2535,2536,2537,2538,2539,2540,2541,2542,2543,2544,2545,2546,2547,2548,2549,2550,2551,2552,2553,2554,2555,2556,2557,2558,2559,2560,2561,2562,2563,2564,2565,2566,2567,2568,2569,2570,2571,2572,2573,2574,2575,2576,2577,2578,2579,2580,2581,2582,2583,2584,2585,2586,2587,2588,2589,2590,2591,2592,2593,2594,2595,2596,2597,2598,2599,2600,2601,2602,2603,2604,2605,2606,2607,2608,2609,2610,2611,2612,2613,2614,2615,2616,2617,2618,2619,2620,2621,2622,2623,2624,2625,2626,2627,2628,2629,2630,2631,2632,2633,2634,2635,2636,2637,2638,2639,2640,2641,2642,2643,2644,2645,2646,2647,2648,2649,2650,2651,2652,2653,2654,2655,2656,2657,2658,2659,2660,2661,2662,2663,2664,2665,2666,2667,2668,2669,2670,2671,2672,2673,2674,2675,2676,2677,2678,2679,2680,2681,2682,2683,2684,2685,2686,2687,2688,2689,2690,2691,2692,2693,2694,2695,2696,2697,2698,2699,2700,2701,2702,2703,2704,2705,2706,2707,2708,2709,2710,2711,2712,2713,2714,2715,2716,2717,2718,2719,2720,2721,2722,2723,2724,2725,2726,2727,2728,2729,2730,2731,2732,2733,2734,2735,2736,2737,2738,2739,2740,2741,2742,2743,2744,2745,2746,2747,2748,2749,2750,2751,2752,2753,2754,2755,2756,2757,2758,2759,2760,2761,2762,2763,2764,2765,2766,2767,2768,2769,2770,2771,2772,2773,2774,2775,2776,2777,2778,2779,2780,2781,2782,2783,2784,2785,2786,2787,2788,2789,2790,2791,2792,2793,2794,2795,2796,2797,2798,2799,2800,2801,2802,2803,2804,2805,2806,2807,2808,2809,2810,2811,2812,2813,2814,2815,2816,2817,2818,2819,2820,2821,2822,2823,2824,2825,2826,2827,2828,2829,2830,2831,2832,2833,2834,2835,2836,2837,2838,2839,2840,2841,2842,2843,2844,2845,2846,2847,2848,2849,2850,2851,2852,2853,2854,2855,2856,2857,2858,2859,2860,2861,2862,2863,2864,2865,2866,2867,2868,2869,2870,2871,2872,2873,2874,2875,2876,2877,2878,2879,2880,2881,2882,2883,2884,2885,2886,2887,2888,2889,2890,2891,2892,2893,2894,2895,2896,2897,2898,2899,2900,2901,2902,2903,2904,2905,2906,2907,2908,2909,2910,2911,2912,2913,2914,2915,2916,2917,2918,2919,2920,2921,2922,2923,2924,2925,2926,2927,2928,2929,2930,2931,2932,2933,2934,2935,2936,2937,2938,2939,2940,2941,2942,2943,2944,2945,2946,2947,2948,2949,2950,2951,2952,2953,2954,2955,2956,2957,2958,2959,2960,2961,2962,2963,2964,2965,2966,2967,2968,2969,2970,2971,2972,2973,2974,2975,2976,2977,2978,2979,2980,2981,2982,2983,2984,2985,2986,2987,2988,2989,2990,2991,2992,2993,2994,2995,2996,2997,2998,2999,3000,3001,3002,3003,3004,3005,3006,3007,3008,3009,3010,3011,3012,3013,3014,3015,3016,3017,3018,3019,3020,3021,3022,3023,3024,3025,3026,3027,3028,3029,3030,3031,3032,3033,3034,3035,3036,3037,3038,3039,3040,3041,3042,3043,3044,3045,3046,3047,3048,3049,3050,3051,3052,3053,3054,3055,3056,3057,3058,3059,3060,3061,3062,3063,3064,3065,3066,3067,3068,3069,3070,3071,3072,3073,3074,3075,3076,3077,3078,3079,3080,3081,3082,3083,3084,3085,3086,3087,3088,3089,3090,3091,3092,3093,3094,3095,3096,3097,3098,3099,3100,3101,3102,3103,3104,3105,3106,3107,3108,3109,3110,3111,3112,3113,3114,3115,3116,3117,3118,3119,3120,3121,3122,3123,3124,3125,3126,3127,3128,3129,3130,3131,3132,3133,3134,3135,3136,3137,3138,3139,3140,3141,3142,3143,3144,3145,3146,3147,3148,3149,3150,3151,3152,3153,3154,3155,3156,3157,3158,3159,3160,3161,3162,3163,3164,3165,3166,3167,3168,3169,3170,3171,3172,3173,3174,3175,3176,3177,3178,3179,3180,3181,3182,3183,3184,3185,3186,3187,3188,3189,3190,3191,3192,3193,3194,3195,3196,3197,3198,3199,3200,3201,3202,3203,3204,3205,3206,3207,3208,3209,3210,3211,3212,3213,3214,3215,3216,3217,3218,3219,3220,3221,3222,3223,3224,3225,3226,3227,3228,3229,3230,3231,3232,3233,3234,3235,3236,3237,3238,3239,3240,3241,3242,3243,3244,3245,3246,3247,3248,3249,3250,3251,3252,3253,3254,3255,3256,3257,3258,3259,3260,3261,3262,3263,3264,3265,3266,3267,3268,3269,3270,3271,3272,3273,3274,3275,3276,3277,3278,3279,3280,3281,3282,3283,3284,3285,3286,3287,3288,3289,3290,3291,3292,3293,3294,3295,3296,3297,3298,3299,3300,3301,3302,3303,3304,3305,3306,3307,3308,3309,3310,3311,3312,3313,3314,3315,3316,3317,3318,3319,3320,3321,3322,3323,3324,3325,3326,3327,3328,3329,3330,3331,3332,3333,3334,3335,3336,3337,3338,3339,3340,3341,3342,3343,3344,3345,3346,3347,3348,3349,3350,3351,3352,3353,3354,3355,3356,3357,3358,3359,3360,3361,3362,3363,3364,3365,3366,3367,3368,3369,3370,3371,3372,3373,3374,3375,3376,3377,3378,3379,3380,3381,3382,3383,3384,3385,3386,3387,3388,3389,3390,3391,3392,3393,3394,3395,3396,3397,3398,3399,3400,3401,3402,3403,3404,3405,3406,3407,3408,3409,3410,3411,3412,3413,3414,3415,3416,3417,3418,3419,3420,3421,3422,3423,3424,3425,3426,3427,3428,3429,3430,3431,3432,3433,3434,3435,3436,3437,3438,3439,3440,3441,3442,3443,3444,3445,3446,3447,3448,3449,3450,3451,3452,3453,3454,3455,3456,3457,3458,3459,3460,3461,3462,3463,3464,3465,3466,3467,3468,3469,3470,3471,3472,3473,3474,3475,3476,3477,3478,3479,3480,3481,3482,3483,3484,3485,3486,3487,3488,3489,3490,3491,3492,3493,3494,3495,3496,3497,3498,3499,3500,3501,3502,3503,3504,3505,3506,3507,3508,3509,3510,3511,3512,3513,3514,3515,3516,3517,3518,3519,3520,3521,3522,3523,3524,3525,3526,3527,3528,3529,3530,3531,3532,3533,3534,3535,3536,3537,3538,3539,3540,3541,3542,3543,3544,3545,3546,3547,3548,3549,3550,3551,3552,3553,3554,3555,3556,3557,3558,3559,3560,3561,3562,3563,3564,3565,3566,3567,3568,3569,3570,3571,3572,3573,3574,3575,3576,3577,3578,3579,3580,3581,3582,3583,3584,3585,3586,3587,3588,3589,3590,3591,3592,3593,3594,3595,3596,3597,3598,3599,3600,3601,3602,3603,3604,3605,3606,3607,3608,3609,3610,3611,3612,3613,3614,3615,3616,3617,3618,3619,3620,3621,3622,3623,3624,3625,3626,3627,3628,3629,3630,3631,3632,3633,3634,3635,3636,3637,3638,3639,3640,3641,3642,3643,3644,3645,3646,3647,3648,3649,3650,3651,3652,3653,3654,3655,3656,3657,3658,3659,3660,3661,3662,3663,3664,3665,3666,3667,3668,3669,3670,3671,3672,3673,3674,3675,3676,3677,3678,3679,3680,3681,3682,3683,3684,3685,3686,3687,3688,3689,3690,3691,3692,3693,3694,3695,3696,3697,3698,3699,3700,3701,3702,3703,3704,3705,3706,3707,3708,3709,3710,3711,3712,3713,3714,3715,3716,3717,3718,3719,3720,3721,3722,3723,3724,3725,3726,3727,3728,3729,3730,3731,3732,3733,3734,3735,3736,3737,3738,3739,3740,3741,3742,3743,3744,3745,3746,3747,3748,3749,3750,3751,3752,3753,3754,3755,3756,3757,3758,3759,3760,3761,3762,3763,3764,3765,3766,3767,3768,3769,3770,3771,3772,3773,3774,3775,3776,3777,3778,3779,3780,3781,3782,3783,3784,3785,3786,3787,3788,3789,3790,3791,3792,3793,3794,3795,3796,3797,3798,3799,3800,3801,3802,3803,3804,3805,3806,3807,3808,3809,3810,3811,3812,3813,3814,3815,3816,3817,3818,3819,3820,3821,3822,3823,3824,3825,3826,3827,3828,3829,3830,3831,3832,3833,3834,3835,3836,3837,3838,3839,3840,3841,3842,3843,3844,3845,3846,3847,3848,3849,3850,3851,3852,3853,3854,3855,3856,3857,3858,3859,3860,3861,3862,3863,3864,3865,3866,3867,3868,3869,3870,3871,3872,3873,3874,3875,3876,3877,3878,3879,3880,3881,3882,3883,3884,3885,3886,3887,3888,3889,3890,3891,3892,3893,3894,3895,3896,3897,3898,3899,3900,3901,3902,3903,3904,3905,3906,3907,3908,3909,3910,3911,3912,3913,3914,3915,3916,3917,3918,3919,3920,3921,3922,3923,3924,3925,3926,3927,3928,3929,3930,3931,3932,3933,3934,3935,3936,3937,3938,3939,3940,3941,3942,3943,3944,3945,3946,3947,3948,3949,3950,3951,3952,3953,3954,3955,3956,3957,3958,3959,3960,3961,3962,3963,3964,3965,3966,3967,3968,3969,3970,3971,3972,3973,3974,3975,3976,3977,3978,3979,3980,3981,3982,3983,3984,3985,3986,3987,3988,3989,3990,3991,3992,3993,3994,3995,3996,3997,3998,3999,4000],"tree_info":[0,0,0,0,0,0,0,0,0,0,0,0,0,0,0,0,0,0,0,0,0,0,0,0,0,0,0,0,0,0,0,0,0,0,0,0,0,0,0,0,0,0,0,0,0,0,0,0,0,0,0,0,0,0,0,0,0,0,0,0,0,0,0,0,0,0,0,0,0,0,0,0,0,0,0,0,0,0,0,0,0,0,0,0,0,0,0,0,0,0,0,0,0,0,0,0,0,0,0,0,0,0,0,0,0,0,0,0,0,0,0,0,0,0,0,0,0,0,0,0,0,0,0,0,0,0,0,0,0,0,0,0,0,0,0,0,0,0,0,0,0,0,0,0,0,0,0,0,0,0,0,0,0,0,0,0,0,0,0,0,0,0,0,0,0,0,0,0,0,0,0,0,0,0,0,0,0,0,0,0,0,0,0,0,0,0,0,0,0,0,0,0,0,0,0,0,0,0,0,0,0,0,0,0,0,0,0,0,0,0,0,0,0,0,0,0,0,0,0,0,0,0,0,0,0,0,0,0,0,0,0,0,0,0,0,0,0,0,0,0,0,0,0,0,0,0,0,0,0,0,0,0,0,0,0,0,0,0,0,0,0,0,0,0,0,0,0,0,0,0,0,0,0,0,0,0,0,0,0,0,0,0,0,0,0,0,0,0,0,0,0,0,0,0,0,0,0,0,0,0,0,0,0,0,0,0,0,0,0,0,0,0,0,0,0,0,0,0,0,0,0,0,0,0,0,0,0,0,0,0,0,0,0,0,0,0,0,0,0,0,0,0,0,0,0,0,0,0,0,0,0,0,0,0,0,0,0,0,0,0,0,0,0,0,0,0,0,0,0,0,0,0,0,0,0,0,0,0,0,0,0,0,0,0,0,0,0,0,0,0,0,0,0,0,0,0,0,0,0,0,0,0,0,0,0,0,0,0,0,0,0,0,0,0,0,0,0,0,0,0,0,0,0,0,0,0,0,0,0,0,0,0,0,0,0,0,0,0,0,0,0,0,0,0,0,0,0,0,0,0,0,0,0,0,0,0,0,0,0,0,0,0,0,0,0,0,0,0,0,0,0,0,0,0,0,0,0,0,0,0,0,0,0,0,0,0,0,0,0,0,0,0,0,0,0,0,0,0,0,0,0,0,0,0,0,0,0,0,0,0,0,0,0,0,0,0,0,0,0,0,0,0,0,0,0,0,0,0,0,0,0,0,0,0,0,0,0,0,0,0,0,0,0,0,0,0,0,0,0,0,0,0,0,0,0,0,0,0,0,0,0,0,0,0,0,0,0,0,0,0,0,0,0,0,0,0,0,0,0,0,0,0,0,0,0,0,0,0,0,0,0,0,0,0,0,0,0,0,0,0,0,0,0,0,0,0,0,0,0,0,0,0,0,0,0,0,0,0,0,0,0,0,0,0,0,0,0,0,0,0,0,0,0,0,0,0,0,0,0,0,0,0,0,0,0,0,0,0,0,0,0,0,0,0,0,0,0,0,0,0,0,0,0,0,0,0,0,0,0,0,0,0,0,0,0,0,0,0,0,0,0,0,0,0,0,0,0,0,0,0,0,0,0,0,0,0,0,0,0,0,0,0,0,0,0,0,0,0,0,0,0,0,0,0,0,0,0,0,0,0,0,0,0,0,0,0,0,0,0,0,0,0,0,0,0,0,0,0,0,0,0,0,0,0,0,0,0,0,0,0,0,0,0,0,0,0,0,0,0,0,0,0,0,0,0,0,0,0,0,0,0,0,0,0,0,0,0,0,0,0,0,0,0,0,0,0,0,0,0,0,0,0,0,0,0,0,0,0,0,0,0,0,0,0,0,0,0,0,0,0,0,0,0,0,0,0,0,0,0,0,0,0,0,0,0,0,0,0,0,0,0,0,0,0,0,0,0,0,0,0,0,0,0,0,0,0,0,0,0,0,0,0,0,0,0,0,0,0,0,0,0,0,0,0,0,0,0,0,0,0,0,0,0,0,0,0,0,0,0,0,0,0,0,0,0,0,0,0,0,0,0,0,0,0,0,0,0,0,0,0,0,0,0,0,0,0,0,0,0,0,0,0,0,0,0,0,0,0,0,0,0,0,0,0,0,0,0,0,0,0,0,0,0,0,0,0,0,0,0,0,0,0,0,0,0,0,0,0,0,0,0,0,0,0,0,0,0,0,0,0,0,0,0,0,0,0,0,0,0,0,0,0,0,0,0,0,0,0,0,0,0,0,0,0,0,0,0,0,0,0,0,0,0,0,0,0,0,0,0,0,0,0,0,0,0,0,0,0,0,0,0,0,0,0,0,0,0,0,0,0,0,0,0,0,0,0,0,0,0,0,0,0,0,0,0,0,0,0,0,0,0,0,0,0,0,0,0,0,0,0,0,0,0,0,0,0,0,0,0,0,0,0,0,0,0,0,0,0,0,0,0,0,0,0,0,0,0,0,0,0,0,0,0,0,0,0,0,0,0,0,0,0,0,0,0,0,0,0,0,0,0,0,0,0,0,0,0,0,0,0,0,0,0,0,0,0,0,0,0,0,0,0,0,0,0,0,0,0,0,0,0,0,0,0,0,0,0,0,0,0,0,0,0,0,0,0,0,0,0,0,0,0,0,0,0,0,0,0,0,0,0,0,0,0,0,0,0,0,0,0,0,0,0,0,0,0,0,0,0,0,0,0,0,0,0,0,0,0,0,0,0,0,0,0,0,0,0,0,0,0,0,0,0,0,0,0,0,0,0,0,0,0,0,0,0,0,0,0,0,0,0,0,0,0,0,0,0,0,0,0,0,0,0,0,0,0,0,0,0,0,0,0,0,0,0,0,0,0,0,0,0,0,0,0,0,0,0,0,0,0,0,0,0,0,0,0,0,0,0,0,0,0,0,0,0,0,0,0,0,0,0,0,0,0,0,0,0,0,0,0,0,0,0,0,0,0,0,0,0,0,0,0,0,0,0,0,0,0,0,0,0,0,0,0,0,0,0,0,0,0,0,0,0,0,0,0,0,0,0,0,0,0,0,0,0,0,0,0,0,0,0,0,0,0,0,0,0,0,0,0,0,0,0,0,0,0,0,0,0,0,0,0,0,0,0,0,0,0,0,0,0,0,0,0,0,0,0,0,0,0,0,0,0,0,0,0,0,0,0,0,0,0,0,0,0,0,0,0,0,0,0,0,0,0,0,0,0,0,0,0,0,0,0,0,0,0,0,0,0,0,0,0,0,0,0,0,0,0,0,0,0,0,0,0,0,0,0,0,0,0,0,0,0,0,0,0,0,0,0,0,0,0,0,0,0,0,0,0,0,0,0,0,0,0,0,0,0,0,0,0,0,0,0,0,0,0,0,0,0,0,0,0,0,0,0,0,0,0,0,0,0,0,0,0,0,0,0,0,0,0,0,0,0,0,0,0,0,0,0,0,0,0,0,0,0,0,0,0,0,0,0,0,0,0,0,0,0,0,0,0,0,0,0,0,0,0,0,0,0,0,0,0,0,0,0,0,0,0,0,0,0,0,0,0,0,0,0,0,0,0,0,0,0,0,0,0,0,0,0,0,0,0,0,0,0,0,0,0,0,0,0,0,0,0,0,0,0,0,0,0,0,0,0,0,0,0,0,0,0,0,0,0,0,0,0,0,0,0,0,0,0,0,0,0,0,0,0,0,0,0,0,0,0,0,0,0,0,0,0,0,0,0,0,0,0,0,0,0,0,0,0,0,0,0,0,0,0,0,0,0,0,0,0,0,0,0,0,0,0,0,0,0,0,0,0,0,0,0,0,0,0,0,0,0,0,0,0,0,0,0,0,0,0,0,0,0,0,0,0,0,0,0,0,0,0,0,0,0,0,0,0,0,0,0,0,0,0,0,0,0,0,0,0,0,0,0,0,0,0,0,0,0,0,0,0,0,0,0,0,0,0,0,0,0,0,0,0,0,0,0,0,0,0,0,0,0,0,0,0,0,0,0,0,0,0,0,0,0,0,0,0,0,0,0,0,0,0,0,0,0,0,0,0,0,0,0,0,0,0,0,0,0,0,0,0,0,0,0,0,0,0,0,0,0,0,0,0,0,0,0,0,0,0,0,0,0,0,0,0,0,0,0,0,0,0,0,0,0,0,0,0,0,0,0,0,0,0,0,0,0,0,0,0,0,0,0,0,0,0,0,0,0,0,0,0,0,0,0,0,0,0,0,0,0,0,0,0,0,0,0,0,0,0,0,0,0,0,0,0,0,0,0,0,0,0,0,0,0,0,0,0,0,0,0,0,0,0,0,0,0,0,0,0,0,0,0,0,0,0,0,0,0,0,0,0,0,0,0,0,0,0,0,0,0,0,0,0,0,0,0,0,0,0,0,0,0,0,0,0,0,0,0,0,0,0,0,0,0,0,0,0,0,0,0,0,0,0,0,0,0,0,0,0,0,0,0,0,0,0,0,0,0,0,0,0,0,0,0,0,0,0,0,0,0,0,0,0,0,0,0,0,0,0,0,0,0,0,0,0,0,0,0,0,0,0,0,0,0,0,0,0,0,0,0,0,0,0,0,0,0,0,0,0,0,0,0,0,0,0,0,0,0,0,0,0,0,0,0,0,0,0,0,0,0,0,0,0,0,0,0,0,0,0,0,0,0,0,0,0,0,0,0,0,0,0,0,0,0,0,0,0,0,0,0,0,0,0,0,0,0,0,0,0,0,0,0,0,0,0,0,0,0,0,0,0,0,0,0,0,0,0,0,0,0,0,0,0,0,0,0,0,0,0,0,0,0,0,0,0,0,0,0,0,0,0,0,0,0,0,0,0,0,0,0,0,0,0,0,0,0,0,0,0,0,0,0,0,0,0,0,0,0,0,0,0,0,0,0,0,0,0,0,0,0,0,0,0,0,0,0,0,0,0,0,0,0,0,0,0,0,0,0,0,0,0,0,0,0,0,0,0,0,0,0,0,0,0,0,0,0,0,0,0,0,0,0,0,0,0,0,0,0,0,0,0,0,0,0,0,0,0,0,0,0,0,0,0,0,0,0,0,0,0,0,0,0,0,0,0,0,0,0,0,0,0,0,0,0,0,0,0,0,0,0,0,0,0,0,0,0,0,0,0,0,0,0,0,0,0,0,0,0,0,0,0,0,0,0,0,0,0,0,0,0,0,0,0,0,0,0,0,0,0,0,0,0,0,0,0,0,0,0,0,0,0,0,0,0,0,0,0,0,0,0,0,0,0,0,0,0,0,0,0,0,0,0,0,0,0,0,0,0,0,0,0,0,0,0,0,0,0,0,0,0,0,0,0,0,0,0,0,0,0,0,0,0,0,0,0,0,0,0,0,0,0,0,0,0,0,0,0,0,0,0,0,0,0,0,0,0,0,0,0,0,0,0,0,0,0,0,0,0,0,0,0,0,0,0,0,0,0,0,0,0,0,0,0,0,0,0,0,0,0,0,0,0,0,0,0,0,0,0,0,0,0,0,0,0,0,0,0,0,0,0,0,0,0,0,0,0,0,0,0,0,0,0,0,0,0,0,0,0,0,0,0,0,0,0,0,0,0,0,0,0,0,0,0,0,0,0,0,0,0,0,0,0,0,0,0,0,0,0,0,0,0,0,0,0,0,0,0,0,0,0,0,0,0,0,0,0,0,0,0,0,0,0,0,0,0,0,0,0,0,0,0,0,0,0,0,0,0,0,0,0,0,0,0,0,0,0,0,0,0,0,0,0,0,0,0,0,0,0,0,0,0,0,0,0,0,0,0,0,0,0,0,0,0,0,0,0,0,0,0,0,0,0,0,0,0,0,0,0,0,0,0,0,0,0,0,0,0,0,0,0,0,0,0,0,0,0,0,0,0,0,0,0,0,0,0,0,0,0,0,0,0,0,0,0,0,0,0,0,0,0,0,0,0,0,0,0,0,0,0,0,0,0,0,0,0,0,0,0,0,0,0,0,0,0,0,0,0,0,0,0,0,0,0,0,0,0,0,0,0,0,0,0,0,0,0,0,0,0,0,0,0,0,0,0,0,0,0,0,0,0,0,0,0,0,0,0,0,0,0,0,0,0,0,0,0,0,0,0,0,0,0,0,0,0,0,0,0,0,0,0,0,0,0,0,0,0,0,0,0,0,0,0,0,0,0,0,0,0,0,0,0,0,0,0,0,0,0,0,0,0,0,0,0,0,0,0,0,0,0,0,0,0,0,0,0,0,0,0,0,0,0,0,0,0,0,0,0,0,0,0,0,0,0,0,0,0,0,0,0,0,0,0,0,0,0,0,0,0,0,0,0,0,0,0,0,0,0,0,0,0,0,0,0,0,0,0,0,0,0,0,0,0,0,0,0,0,0,0,0,0,0,0,0,0,0,0,0,0,0,0,0,0,0,0,0,0,0,0,0,0,0,0,0,0,0,0,0,0,0,0,0,0,0,0,0,0,0,0,0,0,0,0,0,0,0,0,0,0,0,0,0,0,0,0,0,0,0,0,0,0,0,0,0,0,0,0,0,0,0,0,0,0,0,0,0,0,0,0,0,0,0,0,0,0,0,0,0,0,0,0,0,0,0,0,0,0,0,0,0,0,0,0,0,0,0,0,0,0,0,0,0,0,0,0,0,0,0,0,0,0,0,0,0,0,0,0,0,0,0,0,0,0,0,0,0,0,0,0,0,0,0,0,0,0,0,0,0,0,0,0,0,0,0,0,0,0,0,0,0,0,0,0,0,0,0,0,0,0,0,0,0,0,0,0,0,0,0,0,0,0,0,0,0,0,0,0,0,0,0,0,0,0,0,0,0,0,0,0,0,0,0,0,0,0,0,0,0,0,0,0,0,0,0,0,0,0,0,0,0,0,0,0,0,0,0,0,0,0,0,0,0,0,0,0,0,0,0,0,0,0,0,0,0,0,0,0,0,0,0,0,0,0,0,0,0,0,0,0,0,0,0,0,0,0,0,0,0,0,0,0,0,0,0,0,0,0,0,0,0,0,0,0,0,0,0,0,0,0,0,0,0,0,0,0,0,0,0,0,0,0,0,0,0,0,0,0,0,0,0,0,0,0,0,0,0,0,0,0,0,0,0,0,0,0,0,0,0,0,0,0,0,0,0,0,0,0,0,0,0,0,0,0,0,0,0,0,0,0,0,0,0,0,0,0,0,0,0,0,0,0,0,0,0,0,0,0,0,0,0,0,0,0,0,0,0,0,0,0,0,0,0,0,0,0,0,0,0,0,0,0,0,0,0,0,0,0,0,0,0,0,0,0,0,0,0,0,0,0,0,0,0,0,0,0,0,0,0,0,0,0,0,0,0,0,0,0,0,0,0,0,0,0,0,0,0,0,0,0,0,0,0,0,0,0,0,0,0,0,0,0,0,0,0,0,0,0,0,0,0,0,0,0,0,0,0,0,0,0,0,0,0,0,0,0,0,0,0,0,0,0,0,0,0,0,0,0,0,0,0,0,0,0,0,0,0,0,0,0,0,0,0,0,0,0,0,0,0,0,0,0,0,0,0,0,0,0,0,0,0,0,0,0,0,0,0,0,0,0,0,0,0,0,0,0,0,0,0,0,0,0,0,0,0,0,0,0,0,0,0,0,0,0,0,0,0,0,0,0,0,0,0,0,0,0,0,0,0,0,0,0,0,0,0,0,0,0,0,0,0,0,0,0,0,0,0,0,0,0,0,0,0,0,0,0,0,0,0,0,0,0,0,0,0,0,0,0,0,0,0,0,0,0,0,0,0,0,0,0,0,0,0,0,0,0,0,0,0,0,0,0,0,0,0,0,0,0,0,0,0,0,0,0,0,0,0,0,0,0,0,0,0,0,0,0,0,0,0,0,0,0,0,0,0,0,0,0,0,0,0,0,0,0,0,0,0,0,0,0,0,0,0,0,0,0,0,0,0,0,0,0,0,0,0,0,0,0,0,0,0,0,0,0,0,0,0,0,0,0,0,0,0,0,0,0,0,0,0,0,0,0,0,0,0,0,0,0,0,0,0,0,0,0,0,0,0,0,0,0,0,0,0,0,0,0,0,0,0,0,0,0,0,0,0,0,0,0,0,0,0,0,0,0,0,0,0,0,0,0,0,0,0,0,0,0,0,0,0,0,0,0,0,0,0,0,0,0,0,0,0,0,0,0,0,0,0,0,0,0,0,0,0,0,0,0,0,0,0,0,0,0,0,0,0,0,0,0,0,0,0,0,0,0,0,0,0,0,0,0,0,0,0,0,0,0,0,0,0,0,0,0,0,0,0,0,0,0,0,0,0,0,0,0,0,0,0,0,0,0,0,0,0,0,0,0,0,0,0,0,0,0,0,0,0,0,0,0,0,0,0,0,0,0,0,0,0,0,0,0,0,0,0,0,0,0,0,0,0,0,0,0,0,0,0,0,0,0,0,0,0,0,0,0,0,0,0,0,0,0,0,0,0,0,0,0,0,0,0,0,0,0,0,0,0,0,0,0,0,0,0,0,0,0,0,0,0,0,0,0,0,0,0,0,0,0,0,0,0,0,0,0,0,0,0,0,0,0,0,0,0,0,0,0,0,0,0,0,0,0,0,0,0,0,0,0,0,0,0,0,0,0,0,0,0,0,0,0,0,0,0,0,0,0,0,0,0,0,0,0,0,0,0,0,0,0,0,0,0,0,0,0,0,0,0,0,0,0,0,0,0,0,0,0,0,0,0,0,0,0,0,0,0,0,0,0,0,0,0,0,0,0,0,0,0,0,0,0,0,0,0,0,0,0,0,0,0,0,0,0,0,0,0,0,0,0,0,0,0,0,0,0,0,0,0,0,0,0,0,0,0,0,0,0,0,0,0,0,0,0,0,0,0,0,0,0,0,0,0,0,0,0,0,0,0,0,0,0,0,0,0,0,0,0,0,0,0,0,0,0,0,0,0,0,0,0,0,0,0,0,0,0,0,0,0,0,0,0,0,0,0,0,0,0,0,0,0,0,0,0,0,0,0,0,0,0,0,0,0,0,0,0,0,0,0,0,0,0,0,0,0,0,0,0,0,0,0,0,0,0,0,0,0,0,0,0,0,0],"trees":[{"base_weights":[-6.447933E-5,-3.946604E-1,1.9382754E-1,-6.6606044E-3,-8.075177E-1,-4.887196E-1,-2.3726901E-1,1.5499346E-1,-0E0,1.3506226E-1,-1.9745468E-1,-8.646363E-2,3.1538974E-2,-1.629826E-1,5.6058742E-2,-5.514341E-4,-1.389399E-1],"categories":[],"categories_nodes":[],"categories_segments":[],"categories_sizes":[],"default_left":[0,0,0,0,0,0,0,0,0,0,0,0,0,0,0,0,0],"id":0,"left_children":[1,3,7,-1,5,-1,9,-1,11,-1,-1,13,-1,15,-1,-1,-1],"loss_changes":[6.893525E1,4.5424E1,2.2429483E1,0E0,2.7229538E1,0E0,1.4517818E1,0E0,2.2637012E0,0E0,0E0,3.0983467E0,0E0,3.4483411E0,0E0,0E0,0E0],"parents":[2147483647,0,0,1,1,4,4,2,2,6,6,8,8,11,11,13,13],"right_children":[2,4,8,-1,6,-1,10,-1,12,-1,-1,14,-1,16,-1,-1,-1],"split_conditions":[-5.705815E-3,8.358402E-1,5.157261E-1,-6.6606044E-3,7.3394805E-1,-4.887196E-1,-8.959006E-3,1.5499346E-1,9.114019E-3,1.3506226E-1,-1.9745468E-1,1.1356824E-2,3.1538974E-2,-9.416434E-5,5.6058742E-2,-5.514341E-4,-1.389399E-1],"split_indices":[8,10,12,0,11,0,0,0,6,0,0,0,0,0,0,0,0],"split_type":[0,0,0,0,0,0,0,0,0,0,0,0,0,0,0,0,0],"sum_hessian":[8.67E2,2.82E2,5.85E2,1.57E2,1.25E2,6.1E1,6.4E1,2.84E2,3.01E2,1.7E1,4.7E1,1.41E2,1.6E2,1.12E2,2.9E1,7.1E1,4.1E1],"tree_param":{"num_deleted":"0","num_feature":"13","num_nodes":"17","size_leaf_vector":"1"}},{"base_weights":[-3.4918457E-2,-2.6537663E-1,1.8293595E-1],"categories":[],"categories_nodes":[],"categories_segments":[],"categories_sizes":[],"default_left":[0,0,0],"id":1,"left_children":[1,-1,-1],"loss_changes":[2.8209128E2,0E0,0E0],"parents":[2147483647,0,0],"right_children":[2,-1,-1],"split_conditions":[-1.03424005E-2,-2.6537663E-1,1.8293595E-1],"split_indices":[1,0,0],"split_type":[0,0,0],"sum_hessian":[8.8E2,3.85E2,4.95E2],"tree_param":{"num_deleted":"0","num_feature":"13","num_nodes":"3","size_leaf_vector":"1"}},{"base_weights":[-2.9474765E-2,-3.2137847E-1,3.014438E-1,-3.2589737E-2,4.5866176E-1,1.0869346E-1,-1.367217E-1,2.0077203E-1,-1.9131175E-1,6.727472E-2,5.054781E-1,5.465713E-1,-5.279677E-2,3.7068076E-2,3.3940208E-1,-2.3892474E-1,-1.8697579E-1,-2.798917E-1,2.3244953E-2,-1.10932626E-1,-6.259031E-1,-3.340907E-1,-4.257415E-2,-6.74108E-2,8.977654E-2,-6.790707E-2,-1.4689247E-2,-6.1392743E-2,1.6134964E-2,-5.757231E-3,7.085342E-2,-0E0,4.008313E-2,-0E0,-6.9409157E-3],"categories":[],"categories_nodes":[],"categories_segments":[],"categories_sizes":[],"default_left":[0,0,0,0,0,0,0,0,0,0,0,0,0,0,0,0,0,0,0,0,0,0,0,0,0,0,0,0,0,0,0,0,0,0,0],"id":2,"left_children":[1,15,3,5,9,-1,7,-1,-1,23,11,13,27,-1,-1,17,-1,19,29,25,21,-1,-1,-1,-1,-1,-1,-1,-1,33,31,-1,-1,-1,-1],"loss_changes":[8.5259636E1,3.1976967E0,2.2333633E1,5.0333257E0,4.091835E0,0E0,3.007125E1,0E0,0E0,2.528187E0,6.6519394E0,2.9989204E1,4.8872927E-1,0E0,0E0,3.9749012E0,0E0,1.5460363E1,1.4977022E-1,6.548991E-1,7.633774E0,0E0,0E0,0E0,0E0,0E0,0E0,0E0,0E0,7.724437E-3,5.873017E-2,0E0,0E0,0E0,0E0],"parents":[2147483647,0,0,2,2,3,3,6,6,4,4,10,10,11,11,1,1,15,15,17,17,20,20,9,9,19,19,12,12,18,18,30,30,29,29],"right_children":[2,16,4,6,10,-1,8,-1,-1,24,12,14,28,-1,-1,18,-1,20,30,26,22,-1,-1,-1,-1,-1,-1,-1,-1,34,32,-1,-1,-1,-1],"split_conditions":[3.3341292E-1,3.746172E-3,3.4568213E-2,-8.3721075E-3,4.6696973E-1,1.0869346E-1,8.2414836E-1,2.0077203E-1,-1.9131175E-1,-1.3267292E-2,2.8788836E0,3.746172E-3,6.791211E-3,3.7068076E-2,3.3940208E-1,2.1615963E-1,-1.8697579E-1,1.510142E0,2.9875442E-1,-5.705815E-3,2.9902123E-3,-3.340907E-1,-4.257415E-2,-6.74108E-2,8.977654E-2,-6.790707E-2,-1.4689247E-2,-6.1392743E-2,1.6134964E-2,2.9902123E-3,-5.705815E-3,-0E0,4.008313E-2,-0E0,-6.9409157E-3],"split_indices":[11,7,5,0,11,0,10,0,0,0,12,7,2,0,0,11,0,12,12,8,7,0,0,0,0,0,0,0,0,7,8,0,0,0,0],"split_type":[0,0,0,0,0,0,0,0,0,0,0,0,0,0,0,0,0,0,0,0,0,0,0,0,0,0,0,0,0,0,0,0,0,0,0],"sum_hessian":[8.51E2,4.54E2,3.97E2,1.29E2,2.68E2,2.4E1,1.05E2,3.3E1,7.2E1,3.5E1,2.33E2,2.19E2,1.4E1,9.7E1,1.22E2,3.21E2,1.33E2,2.8E2,4.1E1,2.04E2,7.6E1,4.6E1,3E1,1.1E1,2.4E1,9.5E1,1.09E2,7E0,7E0,2.1E1,2E1,1.2E1,8E0,7E0,1.4E1],"tree_param":{"num_deleted":"0","num_feature":"13","num_nodes":"35","size_leaf_vector":"1"}},{"base_weights":[4.6017073E-2,-2.9219167E-2,8.526249E-2,-2.2295263E-1,4.2181846E-2,1.0309286E-1,-7.739034E-2,-9.652969E-2,1.6055761E-1,1.1942786E-1,-2.2634964E-2,5.88314E-2,2.0737683E-2],"categories":[],"categories_nodes":[],"categories_segments":[],"categories_sizes":[],"default_left":[0,0,0,0,0,0,0,0,0,0,0,0,0],"id":3,"left_children":[1,3,5,-1,-1,11,7,-1,9,-1,-1,-1,-1],"loss_changes":[2.6423883E0,2.2620232E1,1.8321085E0,0E0,0E0,8.867426E-1,3.0563123E0,0E0,1.4568973E0,0E0,0E0,0E0,0E0],"parents":[2147483647,0,0,1,1,2,2,6,6,8,8,5,5],"right_children":[2,4,6,-1,-1,12,8,-1,10,-1,-1,-1,-1],"split_conditions":[2.1638316E-3,-3.8525704E-2,3.0476296E0,-2.2295263E-1,4.2181846E-2,-1.6833884E-3,4.219859E0,-9.652969E-2,4.1142747E-2,1.1942786E-1,-2.2634964E-2,5.88314E-2,2.0737683E-2],"split_indices":[6,1,12,0,0,8,12,0,4,0,0,0,0],"split_type":[0,0,0,0,0,0,0,0,0,0,0,0,0],"sum_hessian":[8.47E2,2.83E2,5.64E2,4.9E1,2.34E2,5.19E2,4.5E1,2.9E1,1.6E1,9E0,7E0,2.53E2,2.66E2],"tree_param":{"num_deleted":"0","num_feature":"13","num_nodes":"13","size_leaf_vector":"1"}},{"base_weights":[-1.0662715E-2,-1.677743E-2,5.2036652E-3,2.1128971E-2,-2.382579E-3,1.3064611E-1,-3.8155027E-2],"categories":[],"categories_nodes":[],"categories_segments":[],"categories_sizes":[],"default_left":[0,0,0,0,0,0,0],"id":4,"left_children":[1,-1,3,5,-1,-1,-1],"loss_changes":[4.837138E-1,0E0,1.2124024E-1,1.0746767E1,0E0,0E0,0E0],"parents":[2147483647,0,0,2,2,3,3],"right_children":[2,-1,4,6,-1,-1,-1],"split_conditions":[2.9902123E-3,-1.677743E-2,5.101443E-3,-9.9958815E-3,-2.382579E-3,1.3064611E-1,-3.8155027E-2],"split_indices":[7,0,3,0,0,0,0],"split_type":[0,0,0,0,0,0,0],"sum_hessian":[8.78E2,3.08E2,5.7E2,2.66E2,3.04E2,6.8E1,1.98E2],"tree_param":{"num_deleted":"0","num_feature":"13","num_nodes":"7","size_leaf_vector":"1"}},{"base_weights":[1.5472908E-3,-4.6281084E-2,5.9623957E-2,3.5112765E-2,3.0784948E-2,-1.898105E-1,1.1009896E-1],"categories":[],"categories_nodes":[],"categories_segments":[],"categories_sizes":[],"default_left":[0,0,0,0,0,0,0],"id":5,"left_children":[1,-1,3,5,-1,-1,-1],"loss_changes":[6.056068E0,0E0,1.02938175E-1,3.9017017E1,0E0,0E0,0E0],"parents":[2147483647,0,0,2,2,3,3],"right_children":[2,-1,4,6,-1,-1,-1],"split_conditions":[4.0351503E-2,-4.6281084E-2,3.746172E-3,-2.1137023E-2,3.0784948E-2,-1.898105E-1,1.1009896E-1],"split_indices":[4,0,7,1,0,0,0],"split_type":[0,0,0,0,0,0,0],"sum_hessian":[8.66E2,2.76E2,5.9E2,2.88E2,3.02E2,8.6E1,2.02E2],"tree_param":{"num_deleted":"0","num_feature":"13","num_nodes":"7","size_leaf_vector":"1"}},{"base_weights":[-5.6234263E-2,-2.3125327E-1,1.6142586E-1,-1.6706808E-2,2.4282017E-1,8.389317E-2,-1.771773E-1,1.5905961E-1,5.517041E-3,-1.530146E-1,-1.4484774E-1,-1.3828751E-1,2.1666728E-1,1.3592026E-1,-1.6326668E-2],"categories":[],"categories_nodes":[],"categories_segments":[],"categories_sizes":[],"default_left":[0,0,0,0,0,0,0,0,0,0,0,0,0,0,0],"id":6,"left_children":[1,9,3,5,7,-1,-1,-1,-1,11,-1,-1,13,-1,-1],"loss_changes":[3.492915E1,3.8135338E0,6.2008905E0,1.5077299E1,9.597769E0,0E0,0E0,0E0,0E0,2.6216421E1,0E0,0E0,4.565102E0,0E0,0E0],"parents":[2147483647,0,0,2,2,3,3,4,4,1,1,9,9,12,12],"right_children":[2,10,4,6,8,-1,-1,-1,-1,12,-1,-1,14,-1,-1],"split_conditions":[4.2281377E-1,3.746172E-3,3.4568213E-2,1.3881985E0,4.1142747E-2,8.389317E-2,-1.771773E-1,1.5905961E-1,5.517041E-3,-6.439397E-3,-1.4484774E-1,-1.3828751E-1,9.4032325E-2,1.3592026E-1,-1.6326668E-2],"split_indices":[11,7,5,12,4,0,0,0,0,1,0,0,11,0,0],"split_type":[0,0,0,0,0,0,0,0,0,0,0,0,0,0,0],"sum_hessian":[8.84E2,4.92E2,3.92E2,1.23E2,2.69E2,8.4E1,3.9E1,1.51E2,1.18E2,3.34E2,1.58E2,2.22E2,1.12E2,7.5E1,3.7E1],"tree_param":{"num_deleted":"0","num_feature":"13","num_nodes":"15","size_leaf_vector":"1"}},{"base_weights":[2.8677076E-2,5.074352E-3,2.3284225E-2],"categories":[],"categories_nodes":[],"categories_segments":[],"categories_sizes":[],"default_left":[0,0,0],"id":7,"left_children":[1,-1,-1],"loss_changes":[3.4242535E-1,0E0,0E0],"parents":[2147483647,0,0],"right_children":[2,-1,-1],"split_conditions":[-1.6833884E-3,5.074352E-3,2.3284225E-2],"split_indices":[8,0,0],"split_type":[0,0,0],"sum_hessian":[8.84E2,6.1E2,2.74E2],"tree_param":{"num_deleted":"0","num_feature":"13","num_nodes":"3","size_leaf_vector":"1"}},{"base_weights":[4.7001503E-3,6.1696623E-2,-2.361513E-2,2.0446481E-1,-9.2792846E-2,2.9611742E-1,-2.848425E-3,3.7932042E-2,-1.1930174E-1,-5.1254738E-2,2.8454361E-2,-0E0,-1.9794015E-2],"categories":[],"categories_nodes":[],"categories_segments":[],"categories_sizes":[],"default_left":[0,0,0,0,0,0,0,0,0,0,0,0,0],"id":8,"left_children":[1,3,11,5,-1,-1,7,9,-1,-1,-1,-1,-1],"loss_changes":[1.4935644E0,1.3743581E1,4.0090066E-1,2.5174938E1,0E0,0E0,2.5182369E0,9.831604E-1,0E0,0E0,0E0,0E0,0E0],"parents":[2147483647,0,0,1,1,3,3,6,6,7,7,2,2],"right_children":[2,4,12,6,-1,-1,8,10,-1,-1,-1,-1,-1],"split_conditions":[7.605555E-4,4.458829E-3,-1.6833884E-3,2.4024904E-1,-9.2792846E-2,2.9611742E-1,3.1968393E0,-4.246856E-1,-1.1930174E-1,-5.1254738E-2,2.8454361E-2,-0E0,-1.9794015E-2],"split_indices":[2,0,8,12,0,0,10,10,0,0,0,0,0],"split_type":[0,0,0,0,0,0,0,0,0,0,0,0,0],"sum_hessian":[8.72E2,2.95E2,5.77E2,2.04E2,9.1E1,4.7E1,1.57E2,1.47E2,1E1,1.2E1,1.35E2,2.94E2,2.83E2],"tree_param":{"num_deleted":"0","num_feature":"13","num_nodes":"13","size_leaf_vector":"1"}},{"base_weights":[-7.924904E-3,-1.4045437E-2,4.981E-3,-1.3545773E-2,1.796991E-2],"categories":[],"categories_nodes":[],"categories_segments":[],"categories_sizes":[],"default_left":[0,0,0,0,0],"id":9,"left_children":[1,-1,3,-1,-1],"loss_changes":[3.422557E-1,0E0,9.4526654E-1,0E0,0E0],"parents":[2147483647,0,0,2,2],"right_children":[2,-1,4,-1,-1],"split_conditions":[3.4568213E-2,-1.4045437E-2,6.791211E-3,-1.3545773E-2,1.796991E-2],"split_indices":[5,0,2,0,0],"split_type":[0,0,0,0,0],"sum_hessian":[8.66E2,2.95E2,5.71E2,2.78E2,2.93E2],"tree_param":{"num_deleted":"0","num_feature":"13","num_nodes":"5","size_leaf_vector":"1"}},{"base_weights":[7.1816137E-3,-5.204807E-3,1.5638363E-2,-2.4276827E-1,1.5791926E-1,-8.859036E-2,1.2229984E-1,-0E0,2.4236353E-1,-2.196764E-2,-3.950085E-1,-1.9575341E-1,6.794318E-2,1.0559791E-1,4.2120096E-1,-1.9856706E-1,6.057904E-2,-1.5226963E-1,7.1945414E-2,2.1372603E-1,-6.1203684E-3,1.2231856E-1,-4.876685E-2,-3.8693037E-2,1.0232693E-1],"categories":[],"categories_nodes":[],"categories_segments":[],"categories_sizes":[],"default_left":[0,0,0,0,0,0,0,0,0,0,0,0,0,0,0,0,0,0,0,0,0,0,0,0,0],"id":10,"left_children":[1,5,3,9,13,-1,7,21,-1,-1,11,-1,-1,15,19,17,-1,-1,-1,-1,-1,-1,23,-1,-1],"loss_changes":[1.0333295E-1,9.312381E0,2.1535856E1,5.1207304E0,4.0193996E0,0E0,1.2567215E1,2.808544E0,0E0,0E0,7.4183464E0,0E0,0E0,5.1900234E0,3.3477087E0,4.6309686E0,0E0,0E0,0E0,0E0,0E0,0E0,2.7230306E0,0E0,0E0],"parents":[2147483647,0,0,2,2,1,1,6,6,3,3,10,10,4,4,13,13,15,15,14,14,7,7,22,22],"right_children":[2,6,4,10,14,-1,8,22,-1,-1,12,-1,-1,16,20,18,-1,-1,-1,-1,-1,-1,24,-1,-1],"split_conditions":[7.605555E-4,-1.8575445E-1,5.8816407E-2,9.114019E-3,1.3762149E0,-8.859036E-2,2.2134494E-2,-2.9108837E-1,2.4236353E-1,-2.196764E-2,2.8788836E0,-1.9575341E-1,6.794318E-2,-2.6992034E-2,2.0333353E-2,3.746172E-3,6.057904E-2,-1.5226963E-1,7.1945414E-2,2.1372603E-1,-6.1203684E-3,1.2231856E-1,2.0452034E0,-3.8693037E-2,1.0232693E-1],"split_indices":[2,11,11,6,11,0,1,12,0,0,12,0,0,1,0,7,0,0,0,0,0,0,11,0,0],"split_type":[0,0,0,0,0,0,0,0,0,0,0,0,0,0,0,0,0,0,0,0,0,0,0,0,0],"sum_hessian":[8.59E2,3.03E2,5.56E2,1.91E2,3.65E2,1.11E2,1.92E2,1.65E2,2.7E1,9.8E1,9.3E1,8.3E1,1E1,3.26E2,3.9E1,3.3E1,2.93E2,2.4E1,9E0,3E1,9E0,1E1,1.55E2,1.46E2,9E0],"tree_param":{"num_deleted":"0","num_feature":"13","num_nodes":"25","size_leaf_vector":"1"}},{"base_weights":[2.1361161E-2,5.4264013E-2,1.9389197E-3,-5.2778624E-2,1.6976976E-1,-5.208181E-2,3.6218733E-1,2.1575408E-1,-1.2630516E-1,5.723634E-2,-6.3208714E-2,-1.1082578E-1,2.1024854E-1,4.0552348E-2,-1.866547E-1,-3.629909E-2,5.3287394E-2,-1.6326669E-1,9.0060264E-2,-1.7469804E-1,1.0756401E-1],"categories":[],"categories_nodes":[],"categories_segments":[],"categories_sizes":[],"default_left":[0,0,0,0,0,0,0,0,0,0,0,0,0,0,0,0,0,0,0,0,0],"id":11,"left_children":[1,15,3,9,5,17,7,-1,-1,11,-1,13,-1,-1,-1,-1,-1,19,-1,-1,-1],"loss_changes":[5.075122E-1,3.766513E0,5.6912837E0,5.495719E0,7.1669736E0,3.0639331E0,1.3310978E1,0E0,0E0,1.933113E1,0E0,1.4675442E1,0E0,0E0,0E0,0E0,0E0,1.0366189E1,0E0,0E0,0E0],"parents":[2147483647,0,0,2,2,4,4,6,6,3,3,9,9,11,11,1,1,5,5,17,17],"right_children":[2,16,4,10,6,18,8,-1,-1,12,-1,14,-1,-1,-1,-1,-1,20,-1,-1,-1],"split_conditions":[4.0351503E-2,-1.8575445E-1,8.489992E-1,6.791211E-3,6.791211E-3,2.4219256E-2,3.8645104E-2,2.1575408E-1,-1.2630516E-1,9.237352E-3,-6.3208714E-2,-2.9406828E-4,2.1024854E-1,4.0552348E-2,-1.866547E-1,-3.629909E-2,5.3287394E-2,1.713506E0,9.0060264E-2,-1.7469804E-1,1.0756401E-1],"split_indices":[4,11,11,2,2,1,1,0,0,1,0,0,0,0,0,0,0,12,0,0,0],"split_type":[0,0,0,0,0,0,0,0,0,0,0,0,0,0,0,0,0,0,0,0,0],"sum_hessian":[8.69E2,2.93E2,5.76E2,4.38E2,1.38E2,6.7E1,7.1E1,6E1,1.1E1,2.13E2,2.25E2,1.64E2,4.9E1,1.08E2,5.6E1,9.8E1,1.95E2,5.5E1,1.2E1,3.5E1,2E1],"tree_param":{"num_deleted":"0","num_feature":"13","num_nodes":"21","size_leaf_vector":"1"}},{"base_weights":[3.1878717E-2,-7.2783306E-3,5.944385E-2,2.8900871E-2,8.380464E-2,2.3201251E-1,-7.996712E-2,9.99599E-2,2.1909598E-1,-1.9873376E-1,8.742108E-2,-1.4051539E-1,6.2049504E-2,-7.8652735E-4,4.1320235E-1,1.9540294E-1,-0E0],"categories":[],"categories_nodes":[],"categories_segments":[],"categories_sizes":[],"default_left":[0,0,0,0,0,0,0,0,0,0,0,0,0,0,0,0,0],"id":12,"left_children":[1,-1,3,11,5,7,-1,9,-1,-1,-1,-1,13,-1,15,-1,-1],"loss_changes":[1.3083568E0,0E0,2.9624295E-1,3.9432416E0,1.3698458E1,7.3191776E0,0E0,1.350667E1,0E0,0E0,0E0,0E0,7.1608477E0,0E0,1.1586657E0,0E0,0E0],"parents":[2147483647,0,0,2,2,4,4,5,5,7,7,3,3,12,12,14,14],"right_children":[2,-1,4,12,6,8,-1,10,-1,-1,-1,-1,14,-1,16,-1,-1],"split_conditions":[3.4568213E-2,-7.2783306E-3,4.1142747E-2,-6.048391E-2,6.0605668E-3,4.1059738E-1,-7.996712E-2,-4.171872E-2,2.1909598E-1,-1.9873376E-1,8.742108E-2,-1.4051539E-1,1.2370554E0,-7.8652735E-4,1.8254137E0,1.9540294E-1,-0E0],"split_indices":[5,0,4,1,0,11,0,1,0,0,0,0,11,0,11,0,0],"split_type":[0,0,0,0,0,0,0,0,0,0,0,0,0,0,0,0,0],"sum_hessian":[8.9E2,3.05E2,5.85E2,2.93E2,2.92E2,1.96E2,9.6E1,1.55E2,4.1E1,1.6E1,1.39E2,9E0,2.84E2,2.51E2,3.3E1,2.4E1,9E0],"tree_param":{"num_deleted":"0","num_feature":"13","num_nodes":"17","size_leaf_vector":"1"}},{"base_weights":[-3.0409496E-3,-1.0821929E-2,8.068908E-3,2.0545987E-2,-1.7492461E-1,3.9007798E-2,-1.8733832E-1,-1.5013671E-2,-1.052447E-3,1.291818E-1,-4.3338403E-2],"categories":[],"categories_nodes":[],"categories_segments":[],"categories_sizes":[],"default_left":[0,0,0,0,0,0,0,0,0,0,0],"id":13,"left_children":[1,7,3,-1,5,-1,-1,9,-1,-1,-1],"loss_changes":[8.086024E-2,1.7087609E-3,2.5661972E0,0E0,5.9394E0,0E0,0E0,9.8194E0,0E0,0E0,0E0],"parents":[2147483647,0,0,2,2,4,4,1,1,7,7],"right_children":[2,8,4,-1,6,-1,-1,10,-1,-1,-1],"split_conditions":[5.101443E-3,3.4568213E-2,2.1329079E0,2.0545987E-2,1.3975772E0,3.9007798E-2,-1.8733832E-1,-2.9108837E-1,-1.052447E-3,1.291818E-1,-4.3338403E-2],"split_indices":[3,5,12,0,10,0,0,12,0,0,0],"split_type":[0,0,0,0,0,0,0,0,0,0,0],"sum_hessian":[8.72E2,5.66E2,3.06E2,2.61E2,4.5E1,2.7E1,1.8E1,2.85E2,2.81E2,5.1E1,2.34E2],"tree_param":{"num_deleted":"0","num_feature":"13","num_nodes":"11","size_leaf_vector":"1"}},{"base_weights":[1.1539679E-2,6.031229E-2,-3.6707774E-2,8.993716E-2,-2.2751255E-2,-1.8303148E-1,1.540956E-1,-7.050271E-2,3.3898134E-2,7.617014E-2,-9.3070105E-2,3.13894E-1,-0E0,-1.322528E-2,1.7364748E-1,-1.1948512E-1,-6.515407E-3,-0E0,-6.009648E-2,-6.641819E-2,7.590369E-2],"categories":[],"categories_nodes":[],"categories_segments":[],"categories_sizes":[],"default_left":[0,0,0,0,0,0,0,0,0,0,0,0,0,0,0,0,0,0,0,0,0],"id":14,"left_children":[1,3,7,-1,5,15,11,-1,9,-1,17,13,-1,-1,-1,-1,-1,19,-1,-1,-1],"loss_changes":[2.1425183E0,6.523743E0,4.617662E0,0E0,9.363196E0,2.9783368E0,4.08033E0,0E0,6.4110656E0,0E0,9.1769457E-1,3.9087772E0,0E0,0E0,0E0,0E0,0E0,3.0981517E0,0E0,0E0,0E0],"parents":[2147483647,0,0,1,1,4,4,2,2,8,8,6,6,11,11,5,5,10,10,17,17],"right_children":[2,4,8,-1,6,16,12,-1,10,-1,18,14,-1,-1,-1,-1,-1,20,-1,-1,-1],"split_conditions":[6.930316E-1,7.605555E-4,7.605555E-4,8.993716E-2,6.791211E-3,-8.188849E-2,-1.167822E-2,-7.050271E-2,9.114019E-3,7.617014E-2,1.1753281E0,-4.1092455E-2,-0E0,-1.322528E-2,1.7364748E-1,-1.1948512E-1,-6.515407E-3,9.9038047E-1,-6.009648E-2,-6.641819E-2,7.590369E-2],"split_indices":[10,2,2,0,2,10,1,0,6,0,10,1,0,0,0,0,0,10,0,0,0],"split_type":[0,0,0,0,0,0,0,0,0,0,0,0,0,0,0,0,0,0,0,0,0],"sum_hessian":[8.7E2,4.41E2,4.29E2,1.43E2,2.98E2,1.59E2,1.39E2,1.41E2,2.88E2,1.29E2,1.59E2,6.3E1,7.6E1,1.7E1,4.6E1,8.3E1,7.6E1,6.7E1,9.2E1,3.7E1,3E1],"tree_param":{"num_deleted":"0","num_feature":"13","num_nodes":"21","size_leaf_vector":"1"}},{"base_weights":[-1.5902806E-2,-2.027149E-2,6.4740505E-4,-9.895901E-4,2.7821693E-3],"categories":[],"categories_nodes":[],"categories_segments":[],"categories_sizes":[],"default_left":[0,0,0,0,0],"id":15,"left_children":[1,-1,3,-1,-1],"loss_changes":[5.556965E-1,0E0,1.6381623E-2,0E0,0E0],"parents":[2147483647,0,0,2,2],"right_children":[2,-1,4,-1,-1],"split_conditions":[2.1638316E-3,-2.027149E-2,5.101443E-3,-9.895901E-4,2.7821693E-3],"split_indices":[6,0,3,0,0],"split_type":[0,0,0,0,0],"sum_hessian":[8.62E2,2.87E2,5.75E2,2.85E2,2.9E2],"tree_param":{"num_deleted":"0","num_feature":"13","num_nodes":"5","size_leaf_vector":"1"}},{"base_weights":[2.8023052E-3,9.71275E-3,-8.312148E-3,-2.7969924E-1,1.0724325E-1,1.6147183E-1,-1.1653771E-1,2.848125E-1,1.055314E-2,-7.38014E-3,-1.03136376E-1,-5.2140843E-2,-1.6488132E-1,-2.9080915E-3,3.1141108E-1,1.5449545E-1,-1.5169958E-2,2.058507E-2,-0E0,5.8257677E-2,-1.5744616E-1,-1.938783E-2,1.0435443E-1],"categories":[],"categories_nodes":[],"categories_segments":[],"categories_sizes":[],"default_left":[0,0,0,0,0,0,0,0,0,0,0,0,0,0,0,0,0,0,0,0,0,0,0],"id":16,"left_children":[1,3,5,11,7,-1,9,13,17,-1,-1,-1,-1,-1,15,-1,-1,19,21,-1,-1,-1,-1],"loss_changes":[7.092423E-2,1.7536016E1,1.35463505E1,1.6953087E0,7.738917E0,0E0,3.0682623E0,1.5958309E0,1.9219894E-2,0E0,0E0,0E0,0E0,0E0,4.5434046E0,0E0,0E0,7.4215508E0,3.0063994E0,0E0,0E0,0E0,0E0],"parents":[2147483647,0,0,1,1,2,2,4,4,6,6,3,3,7,7,14,14,8,8,17,17,18,18],"right_children":[2,4,6,12,8,-1,10,14,18,-1,-1,-1,-1,-1,16,-1,-1,20,22,-1,-1,-1,-1],"split_conditions":[5.3038046E-2,-3.388557E-1,-1.2244867E-2,3.4568213E-2,-1.0911274E-2,1.6147183E-1,9.252928E-3,-6.192463E-2,2.9902123E-3,-7.38014E-3,-1.03136376E-1,-5.2140843E-2,-1.6488132E-1,-2.9080915E-3,2.081802E0,1.5449545E-1,-1.5169958E-2,1.0329689E0,2.3219357E0,5.8257677E-2,-1.5744616E-1,-1.938783E-2,1.0435443E-1],"split_indices":[9,11,0,5,1,0,0,1,7,0,0,0,0,0,10,0,0,12,10,0,0,0,0],"split_type":[0,0,0,0,0,0,0,0,0,0,0,0,0,0,0,0,0,0,0,0,0,0,0],"sum_hessian":[8.73E2,5.95E2,2.78E2,1.4E2,4.55E2,4.7E1,2.31E2,1.46E2,3.09E2,1.51E2,8E1,8.4E1,5.6E1,1E1,1.36E2,1.13E2,2.3E1,1.15E2,1.94E2,9.8E1,1.7E1,1.72E2,2.2E1],"tree_param":{"num_deleted":"0","num_feature":"13","num_nodes":"23","size_leaf_vector":"1"}},{"base_weights":[6.014913E-3,-3.6618586E-3,1.1277055E-2,1.2603295E-1,-1.944219E-2,-3.5992052E-2,1.8546331E-1,1.0185969E-1,-0E0,-0E0,3.6806122E-3],"categories":[],"categories_nodes":[],"categories_segments":[],"categories_sizes":[],"default_left":[0,0,0,0,0,0,0,0,0,0,0],"id":17,"left_children":[1,3,-1,-1,5,-1,7,-1,9,-1,-1],"loss_changes":[2.1300682E-1,2.761585E0,0E0,0E0,8.530619E0,0E0,1.8345523E0,0E0,2.6833985E-3,0E0,0E0],"parents":[2147483647,0,0,1,1,4,4,6,6,8,8],"right_children":[2,4,-1,-1,6,-1,8,-1,10,-1,-1],"split_conditions":[5.3038046E-2,-3.607895E-2,1.1277055E-2,1.2603295E-1,8.745892E-1,-3.5992052E-2,1.5529097E0,1.0185969E-1,2.1638316E-3,-0E0,3.6806122E-3],"split_indices":[9,0,0,0,11,0,12,0,6,0,0],"split_type":[0,0,0,0,0,0,0,0,0,0,0],"sum_hessian":[8.55E2,5.73E2,2.82E2,1E1,5.63E2,4.29E2,1.34E2,9.2E1,4.2E1,2.6E1,1.6E1],"tree_param":{"num_deleted":"0","num_feature":"13","num_nodes":"11","size_leaf_vector":"1"}},{"base_weights":[-3.4186326E-2,-1.5195894E-1,6.1040737E-2,-1.617126E-2,1.3348334E-1,-2.1143343E-2,8.9728236E-2,-0E0,-2.0388138E-1,-1.0906794E-1,-1.064267E-1,-1.9338119E-1,4.8389997E-2,-7.42824E-2,8.6979136E-2,-1.2510835E-1,-1.877407E-2,2.0870871E-3,-5.075857E-2,2.593249E-2,-6.0732674E-2],"categories":[],"categories_nodes":[],"categories_segments":[],"categories_sizes":[],"default_left":[0,0,0,0,0,0,0,0,0,0,0,0,0,0,0,0,0,0,0,0,0],"id":18,"left_children":[1,7,3,-1,5,17,-1,-1,9,-1,11,15,13,-1,-1,-1,-1,-1,19,-1,-1],"loss_changes":[1.0057495E1,2.997079E0,3.7846565E0,0E0,4.4308534E0,1.431356E-1,0E0,0E0,1.1410894E0,0E0,2.3608465E0,1.2579086E0,3.1861525E0,0E0,0E0,0E0,0E0,0E0,1.1257905E0,0E0,0E0],"parents":[2147483647,0,0,2,2,4,4,1,1,8,8,10,10,12,12,11,11,5,5,18,18],"right_children":[2,8,4,-1,6,18,-1,-1,10,-1,12,16,14,-1,-1,-1,-1,-1,20,-1,-1],"split_conditions":[5.9526044E-1,1.8040232E-3,1.8040232E-3,-1.617126E-2,1.2662632E0,5.101443E-3,8.9728236E-2,-0E0,3.9638588E-4,-1.0906794E-1,-1.6833884E-3,-5.7002664E-1,-4.1061726E-1,-7.42824E-2,8.6979136E-2,-1.2510835E-1,-1.877407E-2,2.0870871E-3,8.220598E-1,2.593249E-2,-6.0732674E-2],"split_indices":[12,3,3,0,12,3,0,0,0,0,8,12,10,0,0,0,0,0,12,0,0],"split_type":[0,0,0,0,0,0,0,0,0,0,0,0,0,0,0,0,0,0,0,0,0],"sum_hessian":[8.6E2,3.85E2,4.75E2,1.95E2,2.8E2,1.04E2,1.76E2,1.06E2,2.79E2,1.41E2,1.38E2,9E1,4.8E1,1.7E1,3.1E1,3.6E1,5.4E1,4.4E1,6E1,2.6E1,3.4E1],"tree_param":{"num_deleted":"0","num_feature":"13","num_nodes":"21","size_leaf_vector":"1"}},{"base_weights":[3.6475055E-3,-2.7217564E-1,8.648759E-3,-3.062718E-1,-0E0,-1.7044549E-1,1.3969585E-2],"categories":[],"categories_nodes":[],"categories_segments":[],"categories_sizes":[],"default_left":[0,0,0,0,0,0,0],"id":19,"left_children":[1,3,-1,5,-1,-1,-1],"loss_changes":[4.2130413E0,2.691152E-1,0E0,2.4112816E0,0E0,0E0,0E0],"parents":[2147483647,0,0,1,1,3,3],"right_children":[2,4,-1,6,-1,-1,-1],"split_conditions":[-1.9095955E0,2.2048108E-2,8.648759E-3,5.0126746E-2,-0E0,-1.7044549E-1,1.3969585E-2],"split_indices":[12,0,0,1,0,0,0],"split_type":[0,0,0,0,0,0,0],"sum_hessian":[8.66E2,3.6E1,8.3E2,2.8E1,8E0,2E1,8E0],"tree_param":{"num_deleted":"0","num_feature":"13","num_nodes":"7","size_leaf_vector":"1"}},{"base_weights":[-5.2972143E-3,1.15181945E-1,-2.767005E-2,-2.2669366E-1,2.8952873E-1,-3.013728E-2,1.4407305E-1,4.5092028E-2,-3.4940553E-1,-0E0,-2.2350712E-1,-2.3160067E-3,-2.8927578E-2,1.873499E-1,-1.1609183E-1,6.107706E-2,-4.2029675E-2,-1.2151805E-1,-0E0,2.288966E-1,1.0003068E-1,-0E0,1.5937093E-1,-0E0,7.970167E-2,-5.9273034E-2,-2.9730454E-2],"categories":[],"categories_nodes":[],"categories_segments":[],"categories_sizes":[],"default_left":[0,0,0,0,0,0,0,0,0,0,0,0,0,0,0,0,0,0,0,0,0,0,0,0,0,0,0],"id":20,"left_children":[1,3,11,7,5,-1,-1,-1,9,15,-1,13,-1,19,17,-1,-1,25,-1,21,23,-1,-1,-1,-1,-1,-1],"loss_changes":[2.3660357E0,9.180813E0,7.963238E-1,3.049518E0,3.2549515E0,0E0,0E0,0E0,3.814505E0,7.906771E-1,0E0,1.1549473E1,0E0,3.2608986E-2,2.755413E-1,0E0,0E0,1.8283367E-2,0E0,4.736707E0,1.094491E0,0E0,0E0,0E0,0E0,0E0,0E0],"parents":[2147483647,0,0,1,1,4,4,3,3,8,8,2,2,11,11,9,9,14,14,13,13,19,19,20,20,17,17],"right_children":[2,4,12,8,6,-1,-1,-1,10,16,-1,14,-1,20,18,-1,-1,26,-1,22,24,-1,-1,-1,-1,-1,-1],"split_conditions":[-7.521479E-1,2.1261942E-2,5.101443E-3,-7.94094E-3,-2.9303256E-1,-3.013728E-2,1.4407305E-1,4.5092028E-2,4.1142747E-2,3.5095392E-3,-2.2350712E-1,-5.313844E-3,-2.8927578E-2,-5.705815E-3,2.9872768E-2,6.107706E-2,-4.2029675E-2,4.989863E-2,-0E0,1.2284905E-1,-4.0689787E-1,-0E0,1.5937093E-1,-0E0,7.970167E-2,-5.9273034E-2,-2.9730454E-2],"split_indices":[12,1,3,0,11,0,0,0,4,1,0,0,0,8,0,0,0,9,0,11,11,0,0,0,0,0,0],"split_type":[0,0,0,0,0,0,0,0,0,0,0,0,0,0,0,0,0,0,0,0,0,0,0,0,0,0,0],"sum_hessian":[8.76E2,1.2E2,7.56E2,3.7E1,8.3E1,1.1E1,7.2E1,8E0,2.9E1,1.5E1,1.4E1,5.07E2,2.49E2,1.83E2,3.24E2,7E0,8E0,3.13E2,1.1E1,9.9E1,8.4E1,4.7E1,5.2E1,4.7E1,3.7E1,1.65E2,1.48E2],"tree_param":{"num_deleted":"0","num_feature":"13","num_nodes":"27","size_leaf_vector":"1"}},{"base_weights":[2.8022557E-2,6.0446218E-2,-3.393388E-2,-8.103337E-2,1.2167851E-1,1.8868669E-3,4.4476606E-2],"categories":[],"categories_nodes":[],"categories_segments":[],"categories_sizes":[],"default_left":[0,0,0,0,0,0,0],"id":21,"left_children":[1,5,3,-1,-1,-1,-1],"loss_changes":[1.8961842E0,1.6198719E0,1.8753994E1,0E0,0E0,0E0,0E0],"parents":[2147483647,0,0,2,2,1,1],"right_children":[2,6,4,-1,-1,-1,-1],"split_conditions":[4.1142747E-2,4.989863E-2,9.0707487E-1,-8.103337E-2,1.2167851E-1,1.8868669E-3,4.4476606E-2],"split_indices":[4,9,10,0,0,0,0],"split_type":[0,0,0,0,0,0,0],"sum_hessian":[8.99E2,6.01E2,2.98E2,2.05E2,9.3E1,3.04E2,2.97E2],"tree_param":{"num_deleted":"0","num_feature":"13","num_nodes":"7","size_leaf_vector":"1"}},{"base_weights":[2.9415738E-2,2.2978954E-2,1.1906663E-2,9.111698E-3,-0E0],"categories":[],"categories_nodes":[],"categories_segments":[],"categories_sizes":[],"default_left":[0,0,0,0,0],"id":22,"left_children":[1,-1,3,-1,-1],"loss_changes":[3.6002296E-1,0E0,7.7568635E-2,0E0,0E0],"parents":[2147483647,0,0,2,2],"right_children":[2,-1,4,-1,-1],"split_conditions":[7.605555E-4,2.2978954E-2,9.114019E-3,9.111698E-3,-0E0],"split_indices":[2,0,6,0,0],"split_type":[0,0,0,0,0],"sum_hessian":[8.81E2,3.03E2,5.78E2,2.96E2,2.82E2],"tree_param":{"num_deleted":"0","num_feature":"13","num_nodes":"5","size_leaf_vector":"1"}},{"base_weights":[-1.4907757E-2,-1.191396E-2,4.9184198E-3],"categories":[],"categories_nodes":[],"categories_segments":[],"categories_sizes":[],"default_left":[0,0,0],"id":23,"left_children":[1,-1,-1],"loss_changes":[3.72784E-1,0E0,0E0],"parents":[2147483647,0,0],"right_children":[2,-1,-1],"split_conditions":[5.3038046E-2,-1.191396E-2,4.9184198E-3],"split_indices":[9,0,0],"split_type":[0,0,0],"sum_hessian":[8.48E2,5.71E2,2.77E2],"tree_param":{"num_deleted":"0","num_feature":"13","num_nodes":"3","size_leaf_vector":"1"}},{"base_weights":[-3.578701E-2,-1.5357254E-1,-1.7532367E-2,-1.0971614E-2,-1.0318524E-2,-6.853399E-3,-3.4307197E-4],"categories":[],"categories_nodes":[],"categories_segments":[],"categories_sizes":[],"default_left":[0,0,0,0,0,0,0],"id":24,"left_children":[1,-1,3,5,-1,-1,-1],"loss_changes":[5.255204E0,0E0,6.5433383E-3,1.8280923E-2,0E0,0E0,0E0],"parents":[2147483647,0,0,2,2,3,3],"right_children":[2,-1,4,6,-1,-1,-1],"split_conditions":[-2.1706984E0,-1.5357254E-1,3.535506E-2,4.989863E-2,-1.0318524E-2,-6.853399E-3,-3.4307197E-4],"split_indices":[12,0,5,9,0,0,0],"split_type":[0,0,0,0,0,0,0],"sum_hessian":[8.91E2,2.6E1,8.65E2,5.7E2,2.95E2,2.86E2,2.84E2],"tree_param":{"num_deleted":"0","num_feature":"13","num_nodes":"7","size_leaf_vector":"1"}},{"base_weights":[-2.7487916E-3,1.6329022E-3,-7.889271E-3,-3.9981443E-2,1.1725237E-1,-2.1362746E-2,-2.114189E-2,2.6101757E-2,-1.2718034E-1],"categories":[],"categories_nodes":[],"categories_segments":[],"categories_sizes":[],"default_left":[0,0,0,0,0,0,0,0,0],"id":25,"left_children":[1,-1,3,5,-1,-1,7,-1,-1],"loss_changes":[3.513211E-2,0E0,5.627463E0,4.677254E-2,0E0,0E0,7.9043503E0,0E0,0E0],"parents":[2147483647,0,0,2,2,3,3,6,6],"right_children":[2,-1,4,6,-1,-1,8,-1,-1],"split_conditions":[7.605555E-4,1.6329022E-3,2.3219357E0,6.791211E-3,1.1725237E-1,-2.1362746E-2,1.3180323E0,2.6101757E-2,-1.2718034E-1],"split_indices":[2,0,10,2,0,0,10,0,0],"split_type":[0,0,0,0,0,0,0,0,0],"sum_hessian":[8.62E2,2.88E2,5.74E2,5.34E2,4E1,2.64E2,2.7E2,2.16E2,5.4E1],"tree_param":{"num_deleted":"0","num_feature":"13","num_nodes":"9","size_leaf_vector":"1"}},{"base_weights":[1.3571059E-2,1.9250985E-2,-4.0365923E-3,-6.1150283E-2,2.1751001E-1,1.6474049E-1,-4.1009855E-2,1.1605176E-1,1.5709896E-1,9.937071E-2,-8.7561525E-2,-1.383956E-1,2.4829293E-2,2.50568E-1,-0E0,-1.720754E-2,2.2860968E-2,-0E0,1.1145989E-1],"categories":[],"categories_nodes":[],"categories_segments":[],"categories_sizes":[],"default_left":[0,0,0,0,0,0,0,0,0,0,0,0,0,0,0,0,0,0,0],"id":26,"left_children":[1,-1,3,5,7,13,-1,9,-1,-1,11,-1,-1,17,15,-1,-1,-1,-1],"loss_changes":[5.884752E-1,0E0,7.4507103E0,4.6954446E0,9.0403175E-1,8.50189E-1,0E0,3.2431822E0,0E0,0E0,2.503873E0,0E0,0E0,1.5040255E-1,1.6413623E-1,0E0,0E0,0E0,0E0],"parents":[2147483647,0,0,2,2,3,3,4,4,7,7,10,10,5,5,14,14,13,13],"right_children":[2,-1,4,6,8,14,-1,10,-1,-1,12,-1,-1,18,16,-1,-1,-1,-1],"split_conditions":[4.0351503E-2,1.9250985E-2,1.9098876E0,-1.4650144E-2,3.8919744E0,9.114019E-3,-4.1009855E-2,2.6091928E0,1.5709896E-1,9.937071E-2,-5.749655E-1,-1.383956E-1,2.4829293E-2,-1.150194E0,4.9410185E-1,-1.720754E-2,2.2860968E-2,-0E0,1.1145989E-1],"split_indices":[4,0,12,0,12,6,0,12,0,0,11,0,0,11,12,0,0,0,0],"split_type":[0,0,0,0,0,0,0,0,0,0,0,0,0,0,0,0,0,0,0],"sum_hessian":[8.74E2,3.05E2,5.69E2,4.65E2,1.04E2,6.1E1,4.04E2,8.6E1,1.8E1,5.3E1,3.3E1,7E0,2.6E1,3.1E1,3E1,1E1,2E1,7E0,2.4E1],"tree_param":{"num_deleted":"0","num_feature":"13","num_nodes":"19","size_leaf_vector":"1"}},{"base_weights":[1.9596122E-2,-3.3988114E-3,1.4182295E-2],"categories":[],"categories_nodes":[],"categories_segments":[],"categories_sizes":[],"default_left":[0,0,0],"id":27,"left_children":[1,-1,-1],"loss_changes":[4.2407364E-1,0E0,0E0],"parents":[2147483647,0,0],"right_children":[2,-1,-1],"split_conditions":[2.1638316E-3,-3.3988114E-3,1.4182295E-2],"split_indices":[6,0,0],"split_type":[0,0,0],"sum_hessian":[8.65E2,2.92E2,5.73E2],"tree_param":{"num_deleted":"0","num_feature":"13","num_nodes":"3","size_leaf_vector":"1"}},{"base_weights":[-0E0,-1.5268984E-1,6.51594E-2,-2.3188289E-1,-7.080844E-2,-1.2113648E-2,1.7657118E-1,3.7421476E-2,1.7114784E-1,3.557871E-2,-1.1354889E-1,1.1047158E-2,-5.7693686E-2,-3.9580792E-2,2.2691835E-2,1.44452695E-2,-1.3129556E-3,-3.7389804E-2,-3.246893E-2,-2.2255206E-2,-0E0,-1.0054314E-1,4.7090575E-2],"categories":[],"categories_nodes":[],"categories_segments":[],"categories_sizes":[],"default_left":[0,0,0,0,0,0,0,0,0,0,0,0,0,0,0,0,0,0,0,0,0,0,0],"id":28,"left_children":[1,3,5,-1,17,11,7,9,-1,-1,-1,15,13,-1,-1,-1,-1,-1,19,-1,21,-1,-1],"loss_changes":[9.217726E0,8.44982E0,5.7138166E0,0E0,4.6901107E-2,4.6592006E-1,8.679171E0,3.3913245E0,0E0,0E0,0E0,1.2652877E-1,8.2755744E-1,0E0,0E0,0E0,0E0,0E0,1.3565528E-1,0E0,2.1779294E0,0E0,0E0],"parents":[2147483647,0,0,1,1,2,2,6,6,7,7,5,5,12,12,11,11,4,4,18,18,20,20],"right_children":[2,4,6,-1,18,12,8,10,-1,-1,-1,16,14,-1,-1,-1,-1,-1,20,-1,22,-1,-1],"split_conditions":[-2.1286191E-2,6.7994463E-1,5.747166E-1,-2.3188289E-1,3.4568213E-2,3.535506E-2,4.1142747E-2,2.4544876E0,1.7114784E-1,3.557871E-2,-1.1354889E-1,4.989863E-2,2.4955513E-1,-3.9580792E-2,2.2691835E-2,1.44452695E-2,-1.3129556E-3,-3.7389804E-2,9.114019E-3,-2.2255206E-2,-5.5502072E-2,-1.0054314E-1,4.7090575E-2],"split_indices":[1,12,12,0,5,5,4,12,0,0,0,9,12,0,0,0,0,0,6,0,1,0,0],"split_type":[0,0,0,0,0,0,0,0,0,0,0,0,0,0,0,0,0,0,0,0,0,0,0],"sum_hessian":[8.88E2,2.63E2,6.25E2,2.5E1,2.38E2,3.72E2,2.53E2,1.77E2,7.6E1,1.65E2,1.2E1,2.4E2,1.32E2,1.05E2,2.7E1,1.04E2,1.36E2,1.19E2,1.19E2,7.4E1,4.5E1,7E0,3.8E1],"tree_param":{"num_deleted":"0","num_feature":"13","num_nodes":"23","size_leaf_vector":"1"}},{"base_weights":[-4.1325387E-2,-3.2118354E-2,1.7725016E-1,5.6846138E-2,1.3125446E-1,8.469432E-2,-1.0217734E-1],"categories":[],"categories_nodes":[],"categories_segments":[],"categories_sizes":[],"default_left":[0,0,0,0,0,0,0],"id":29,"left_children":[1,-1,3,5,-1,-1,-1],"loss_changes":[7.7644377E0,0E0,1.8056703E0,5.5789094E0,0E0,0E0,0E0],"parents":[2147483647,0,0,2,2,3,3],"right_children":[2,-1,4,6,-1,-1,-1],"split_conditions":[2.2134494E-2,-3.2118354E-2,5.3038046E-2,4.152824E-2,1.3125446E-1,8.469432E-2,-1.0217734E-1],"split_indices":[1,0,9,1,0,0,0],"split_type":[0,0,0,0,0,0,0],"sum_hessian":[8.81E2,7.6E2,1.21E2,8.3E1,3.8E1,6.1E1,2.2E1],"tree_param":{"num_deleted":"0","num_feature":"13","num_nodes":"7","size_leaf_vector":"1"}},{"base_weights":[4.6304215E-2,5.734559E-2,7.099627E-3,-1.7969377E-1,3.7222624E-2,-5.019502E-2,-1.1732828E-1,4.6381053E-2,-1.2394669E-1],"categories":[],"categories_nodes":[],"categories_segments":[],"categories_sizes":[],"default_left":[0,0,0,0,0,0,0,0,0],"id":30,"left_children":[1,3,-1,5,-1,7,-1,-1,-1],"loss_changes":[1.9354832E-1,5.412965E0,0E0,6.4225674E-1,0E0,3.4194248E0,0E0,0E0,0E0],"parents":[2147483647,0,0,1,1,3,3,5,5],"right_children":[2,4,-1,6,-1,8,-1,-1,-1],"split_conditions":[4.1142747E-2,-7.0047975E-1,7.099627E-3,4.0351503E-2,3.7222624E-2,2.9192078E-3,-1.1732828E-1,4.6381053E-2,-1.2394669E-1],"split_indices":[4,11,0,4,0,0,0,0,0],"split_type":[0,0,0,0,0,0,0,0,0],"sum_hessian":[8.87E2,6.03E2,2.84E2,6.7E1,5.36E2,4.6E1,2.1E1,3.1E1,1.5E1],"tree_param":{"num_deleted":"0","num_feature":"13","num_nodes":"9","size_leaf_vector":"1"}},{"base_weights":[-2.248222E-2,-3.0826135E-2,-1.216495E-3,6.27357E-2,-1.3083135E-1,1.0871881E-2,-9.318736E-2,-7.784139E-2,3.1551383E-2,2.0907445E-2,-6.468838E-2,-0E0,-5.4590713E-2,1.0653757E-1,-9.78662E-2],"categories":[],"categories_nodes":[],"categories_segments":[],"categories_sizes":[],"default_left":[0,0,0,0,0,0,0,0,0,0,0,0,0,0,0],"id":31,"left_children":[1,5,3,-1,9,7,-1,11,-1,-1,-1,13,-1,-1,-1],"loss_changes":[1.24528915E-1,5.3334517E0,6.4356337E0,0E0,1.2414501E0,3.1724157E0,0E0,1.0290403E0,0E0,0E0,0E0,8.237983E0,0E0,0E0,0E0],"parents":[2147483647,0,0,2,2,1,1,5,5,4,4,7,7,11,11],"right_children":[2,6,4,-1,10,8,-1,12,-1,-1,-1,14,-1,-1,-1],"split_conditions":[-1.6833884E-3,1.7259034E0,4.9138868E-1,6.27357E-2,-1.1861283E0,3.3321247E-1,-9.318736E-2,3.4568213E-2,3.1551383E-2,2.0907445E-2,-6.468838E-2,-2.4906357E-1,-5.4590713E-2,1.0653757E-1,-9.78662E-2],"split_indices":[8,10,10,0,12,12,0,5,0,0,0,10,0,0,0],"split_type":[0,0,0,0,0,0,0,0,0,0,0,0,0,0,0],"sum_hessian":[8.7E2,5.86E2,2.84E2,1.23E2,1.61E2,4.94E2,9.2E1,2.07E2,2.87E2,1.7E1,1.44E2,9.5E1,1.12E2,4.5E1,5E1],"tree_param":{"num_deleted":"0","num_feature":"13","num_nodes":"15","size_leaf_vector":"1"}},{"base_weights":[3.6431116E-3,1.4098661E-2,-1.1062753E-2,-5.043483E-2,7.3750336E-3,1.7613161E-2,-1.5229394E-1,-1.8738228E-1,8.89611E-2,-7.284565E-2,1.16477095E-1,-0E0,-1.0297002E-1,-8.877314E-3,1.9269127E-2,-4.3246586E-2,-2.0209308E-1,-7.5914405E-2,5.020929E-2,-0E0,-8.7142855E-2],"categories":[],"categories_nodes":[],"categories_segments":[],"categories_sizes":[],"default_left":[0,0,0,0,0,0,0,0,0,0,0,0,0,0,0,0,0,0,0,0,0],"id":32,"left_children":[1,-1,3,5,13,7,15,11,9,-1,-1,-1,-1,-1,-1,17,19,-1,-1,-1,-1],"loss_changes":[4.3914455E-1,0E0,4.7769693E-1,1.6163474E0,5.2370685E-1,2.1039588E0,1.1003518E-1,6.4816475E-1,7.119114E0,0E0,0E0,0E0,0E0,0E0,0E0,1.7907459E0,9.9823475E-3,0E0,0E0,0E0,0E0],"parents":[2147483647,0,0,2,2,3,3,5,5,8,8,7,7,4,4,6,6,15,15,16,16],"right_children":[2,-1,4,6,14,8,16,12,10,-1,-1,-1,-1,-1,-1,18,20,-1,-1,-1,-1],"split_conditions":[1.8040232E-3,1.4098661E-2,1.43349E-1,-2.2919646E-1,5.3038046E-2,-1.0705562E0,5.101443E-3,-1.6168102E0,-3.1015031E-2,-7.284565E-2,1.16477095E-1,-0E0,-1.0297002E-1,-8.877314E-3,1.9269127E-2,2.108863E-3,-1.6255917E-1,-7.5914405E-2,5.020929E-2,-0E0,-8.7142855E-2],"split_indices":[3,0,10,10,9,12,3,12,1,0,0,0,0,0,0,1,10,0,0,0,0],"split_type":[0,0,0,0,0,0,0,0,0,0,0,0,0,0,0,0,0,0,0,0,0],"sum_hessian":[8.64E2,2.89E2,5.75E2,1.92E2,3.83E2,1.17E2,7.5E1,2E1,9.7E1,4E1,5.7E1,7E0,1.3E1,2.12E2,1.71E2,3.9E1,3.6E1,2.3E1,1.6E1,7E0,2.9E1],"tree_param":{"num_deleted":"0","num_feature":"13","num_nodes":"21","size_leaf_vector":"1"}},{"base_weights":[-5.470291E-2,-8.8024326E-2,-3.3967737E-2,2.3319209E-1,-1.6051067E-1,-1.3101119E-1,-4.4001833E-2,1.3335423E-1,-0E0,-1.8531509E-2,-1.6705643E-2,4.6865538E-2,-6.21769E-2,7.866141E-2,-0E0],"categories":[],"categories_nodes":[],"categories_segments":[],"categories_sizes":[],"default_left":[0,0,0,0,0,0,0,0,0,0,0,0,0,0,0],"id":33,"left_children":[1,3,9,7,5,-1,-1,-1,-1,-1,11,13,-1,-1,-1],"loss_changes":[4.382093E-1,7.702267E0,4.979986E-2,1.1113248E0,1.2214499E0,0E0,0E0,0E0,0E0,0E0,2.892536E0,1.4115429E0,0E0,0E0,0E0],"parents":[2147483647,0,0,1,1,4,4,3,3,2,2,10,10,11,11],"right_children":[2,4,10,8,6,-1,-1,-1,-1,-1,12,14,-1,-1,-1],"split_conditions":[2.9902123E-3,-4.3210712E-1,5.3038046E-2,2.8705318E-2,-5.0193034E-2,-1.3101119E-1,-4.4001833E-2,1.3335423E-1,-0E0,-1.8531509E-2,6.3049924E-1,-7.144803E-1,-6.21769E-2,7.866141E-2,-0E0],"split_indices":[7,12,9,1,1,0,0,0,0,0,11,11,0,0,0],"split_type":[0,0,0,0,0,0,0,0,0,0,0,0,0,0,0],"sum_hessian":[8.63E2,2.93E2,5.7E2,4.5E1,2.48E2,3.3E1,2.15E2,2.4E1,2.1E1,2.83E2,2.87E2,1.99E2,8.8E1,3.3E1,1.66E2],"tree_param":{"num_deleted":"0","num_feature":"13","num_nodes":"15","size_leaf_vector":"1"}},{"base_weights":[-2.931094E-3,2.8184603E-3,-9.777918E-3,-1.3292308E-1,2.4140686E-2,5.765729E-2,-1.9086131E-1,5.36376E-2,-2.2434147E-1,-1.0746101E-1,2.553053E-2,-1.2521653E-1,-6.026516E-2,-9.1171466E-2,1.7318044E-2,2.2475375E-2,3.2719463E-2,4.1380193E-2,-7.8589454E-2,2.7177904E-2,-0E0],"categories":[],"categories_nodes":[],"categories_segments":[],"categories_sizes":[],"default_left":[0,0,0,0,0,0,0,0,0,0,0,0,0,0,0,0,0,0,0,0,0],"id":34,"left_children":[1,-1,3,7,5,15,11,19,9,-1,-1,-1,13,-1,-1,17,-1,-1,-1,-1,-1],"loss_changes":[6.3906685E-2,0E0,2.6138713E0,2.673781E0,3.4097657E0,2.2419667E-1,3.310187E-1,5.185063E-2,1.721343E0,0E0,0E0,0E0,1.2717667E0,0E0,0E0,3.9436905E0,0E0,0E0,0E0,0E0,0E0],"parents":[2147483647,0,0,2,2,4,4,3,3,8,8,6,6,12,12,5,5,15,15,7,7],"right_children":[2,-1,4,8,6,16,12,20,10,-1,-1,-1,14,-1,-1,18,-1,-1,-1,-1,-1],"split_conditions":[-5.705815E-3,2.8184603E-3,-3.388557E-1,-1.4472997E-2,2.496894E0,5.101443E-3,-6.454458E-2,5.101443E-3,5.802793E-3,-1.0746101E-1,2.553053E-2,-1.2521653E-1,-2.8805638E-2,-9.1171466E-2,1.7318044E-2,1.4028091E-2,3.2719463E-2,4.1380193E-2,-7.8589454E-2,2.7177904E-2,-0E0],"split_indices":[8,0,11,0,12,3,1,3,0,0,0,0,0,0,0,0,0,0,0,0,0],"split_type":[0,0,0,0,0,0,0,0,0,0,0,0,0,0,0,0,0,0,0,0,0],"sum_hessian":[8.64E2,2.92E2,5.72E2,1.2E2,4.52E2,4.05E2,4.7E1,3.8E1,8.2E1,7.5E1,7E0,9E0,3.8E1,1.1E1,2.7E1,1.94E2,2.11E2,1.51E2,4.3E1,2.9E1,9E0],"tree_param":{"num_deleted":"0","num_feature":"13","num_nodes":"21","size_leaf_vector":"1"}},{"base_weights":[4.186229E-2,3.4429193E-2,1.52326515E-2,1.8040497E-2,-1.3457057E-2,-7.432896E-2,2.2593854E-2],"categories":[],"categories_nodes":[],"categories_segments":[],"categories_sizes":[],"default_left":[0,0,0,0,0,0,0],"id":35,"left_children":[1,-1,3,-1,5,-1,-1],"loss_changes":[9.090955E-1,0E0,5.3791696E-1,0E0,3.7984993E0,0E0,0E0],"parents":[2147483647,0,0,2,2,4,4],"right_children":[2,-1,4,-1,6,-1,-1],"split_conditions":[2.1638316E-3,3.4429193E-2,5.3038046E-2,1.8040497E-2,-8.188849E-2,-7.432896E-2,2.2593854E-2],"split_indices":[6,0,9,0,10,0,0],"split_type":[0,0,0,0,0,0,0],"sum_hessian":[8.6E2,2.96E2,5.64E2,2.89E2,2.75E2,7.6E1,1.99E2],"tree_param":{"num_deleted":"0","num_feature":"13","num_nodes":"7","size_leaf_vector":"1"}},{"base_weights":[2.593073E-2,-0E0,3.91346E-2,-3.4975447E-2,3.2614014E-1,-1.7584129E-1,1.04062095E-1,3.633857E-2,1.9537358E-1,1.984664E-1,-1.3772621E-2,-5.369537E-2,6.196673E-2,3.4026492E-2,1.2237157E-1,-9.588301E-2,-4.3507963E-2],"categories":[],"categories_nodes":[],"categories_segments":[],"categories_sizes":[],"default_left":[0,0,0,0,0,0,0,0,0,0,0,0,0,0,0,0,0],"id":36,"left_children":[1,-1,3,5,7,15,9,-1,-1,13,11,-1,-1,-1,-1,-1,-1],"loss_changes":[2.9559147E-1,0E0,1.2949104E1,9.714856E0,3.4860554E0,2.991252E-1,2.9718118E0,0E0,0E0,9.3953896E-1,2.7379956E0,0E0,0E0,0E0,0E0,0E0,0E0],"parents":[2147483647,0,0,2,2,3,3,4,4,6,6,10,10,9,9,5,5],"right_children":[2,-1,4,6,8,16,10,-1,-1,14,12,-1,-1,-1,-1,-1,-1],"split_conditions":[4.0351503E-2,-0E0,1.791832E-2,7.7586293E-1,3.535506E-2,-5.707189E-2,8.5272497E-1,3.633857E-2,1.9537358E-1,2.783031E-1,-6.2157246E-3,-5.369537E-2,6.196673E-2,3.4026492E-2,1.2237157E-1,-9.588301E-2,-4.3507963E-2],"split_indices":[4,0,1,12,5,10,10,0,0,10,1,0,0,0,0,0,0],"split_type":[0,0,0,0,0,0,0,0,0,0,0,0,0,0,0,0,0],"sum_hessian":[8.81E2,3.1E2,5.71E2,4.62E2,1.09E2,2.31E2,2.31E2,5.7E1,5.2E1,1.27E2,1.04E2,6.6E1,3.8E1,8E1,4.7E1,9E1,1.41E2],"tree_param":{"num_deleted":"0","num_feature":"13","num_nodes":"17","size_leaf_vector":"1"}},{"base_weights":[-1.6079534E-2,-3.1509776E-2,1.3693141E-2,-9.196744E-2,2.5497157E-2,-9.7488455E-2,-1.468019E-2,7.983837E-2,-7.056613E-2,7.243771E-2,-4.3769505E-2],"categories":[],"categories_nodes":[],"categories_segments":[],"categories_sizes":[],"default_left":[0,0,0,0,0,0,0,0,0,0,0],"id":37,"left_children":[1,5,3,-1,-1,-1,7,-1,9,-1,-1],"loss_changes":[4.241226E-1,1.8272383E0,3.547207E0,0E0,0E0,0E0,6.997929E0,0E0,4.8617444E0,0E0,0E0],"parents":[2147483647,0,0,2,2,1,1,6,6,8,8],"right_children":[2,6,4,-1,-1,-1,8,-1,10,-1,-1],"split_conditions":[4.1142747E-2,-1.9095955E0,-9.510713E-1,-9.196744E-2,2.5497157E-2,-9.7488455E-2,-2.4906357E-1,7.983837E-2,-2.2485845E-2,7.243771E-2,-4.3769505E-2],"split_indices":[4,12,12,0,0,0,10,0,0,0,0],"split_type":[0,0,0,0,0,0,0,0,0,0,0],"sum_hessian":[8.54E2,5.84E2,2.7E2,3.3E1,2.37E2,2.3E1,5.61E2,1.04E2,4.57E2,5E1,4.07E2],"tree_param":{"num_deleted":"0","num_feature":"13","num_nodes":"11","size_leaf_vector":"1"}},{"base_weights":[-5.181195E-3,-7.686524E-3,8.339267E-3],"categories":[],"categories_nodes":[],"categories_segments":[],"categories_sizes":[],"default_left":[0,0,0],"id":38,"left_children":[1,-1,-1],"loss_changes":[3.3223984E-1,0E0,0E0],"parents":[2147483647,0,0],"right_children":[2,-1,-1],"split_conditions":[5.3038046E-2,-7.686524E-3,8.339267E-3],"split_indices":[9,0,0],"split_type":[0,0,0],"sum_hessian":[8.81E2,6E2,2.81E2],"tree_param":{"num_deleted":"0","num_feature":"13","num_nodes":"3","size_leaf_vector":"1"}},{"base_weights":[1.8881757E-2],"categories":[],"categories_nodes":[],"categories_segments":[],"categories_sizes":[],"default_left":[0],"id":39,"left_children":[-1],"loss_changes":[0E0],"parents":[2147483647],"right_children":[-1],"split_conditions":[7.552703E-3],"split_indices":[0],"split_type":[0],"sum_hessian":[8.91E2],"tree_param":{"num_deleted":"0","num_feature":"13","num_nodes":"1","size_leaf_vector":"1"}},{"base_weights":[6.0575246E-3,-9.011472E-3,1.5203777E-2,-8.471928E-3,1.007208E-1,1.12921275E-1,-9.270796E-2,1.1006267E-2,-7.114847E-2],"categories":[],"categories_nodes":[],"categories_segments":[],"categories_sizes":[],"default_left":[0,0,0,0,0,0,0,0,0],"id":40,"left_children":[1,3,-1,-1,5,-1,7,-1,-1],"loss_changes":[4.3915007E-1,7.052862E-1,0E0,0E0,2.3808002E0,0E0,5.7211787E-1,0E0,0E0],"parents":[2147483647,0,0,1,1,4,4,6,6],"right_children":[2,4,-1,-1,6,-1,8,-1,-1],"split_conditions":[6.791211E-3,1.5170687E0,1.5203777E-2,-8.471928E-3,1.9696077E0,1.12921275E-1,2.7167702E0,1.1006267E-2,-7.114847E-2],"split_indices":[2,11,0,0,11,0,10,0,0],"split_type":[0,0,0,0,0,0,0,0,0],"sum_hessian":[8.25E2,5.47E2,2.78E2,5.12E2,3.5E1,1.7E1,1.8E1,7E0,1.1E1],"tree_param":{"num_deleted":"0","num_feature":"13","num_nodes":"9","size_leaf_vector":"1"}},{"base_weights":[-2.0955415E-2,-3.886771E-2,1.7772688E-1,-3.8840387E-2,6.082223E-2,-1.1271576E-1,1.1896835E-1,1.5740286E-1,7.403968E-2,-1.9939525E-2,5.466639E-2],"categories":[],"categories_nodes":[],"categories_segments":[],"categories_sizes":[],"default_left":[0,0,0,0,0,0,0,0,0,0,0],"id":41,"left_children":[1,3,-1,-1,5,-1,7,-1,9,-1,-1],"loss_changes":[7.172052E0,5.125513E0,0E0,0E0,6.7519917E0,0E0,2.6238766E0,0E0,2.2861822E0,0E0,0E0],"parents":[2147483647,0,0,1,1,4,4,6,6,8,8],"right_children":[2,4,-1,-1,6,-1,8,-1,10,-1,-1],"split_conditions":[2.0739863E0,3.0693207E-3,1.7772688E-1,-3.8840387E-2,-1.8456312E0,-1.1271576E-1,-3.7668857E-1,1.5740286E-1,-5.7002664E-1,-1.9939525E-2,5.466639E-2],"split_indices":[11,1,0,0,12,0,11,0,12,0,0],"split_type":[0,0,0,0,0,0,0,0,0,0,0],"sum_hessian":[8.61E2,8.45E2,1.6E1,5.4E2,3.05E2,3.3E1,2.72E2,1.8E1,2.54E2,8.1E1,1.73E2],"tree_param":{"num_deleted":"0","num_feature":"13","num_nodes":"11","size_leaf_vector":"1"}},{"base_weights":[-2.499641E-2],"categories":[],"categories_nodes":[],"categories_segments":[],"categories_sizes":[],"default_left":[0],"id":42,"left_children":[-1],"loss_changes":[0E0],"parents":[2147483647],"right_children":[-1],"split_conditions":[-9.998564E-3],"split_indices":[0],"split_type":[0],"sum_hessian":[8.69E2],"tree_param":{"num_deleted":"0","num_feature":"13","num_nodes":"1","size_leaf_vector":"1"}},{"base_weights":[1.1207959E-2,2.1052089E-2,-2.4113234E-3,-4.2879317E-2,5.5635978E-2,1.9203477E-2,-2.0066372E-1,2.7796706E-2,-6.2205907E-2,-1.1492107E-1,-0E0,7.526143E-2,-1.3560708E-2,-1.894318E-2,6.745255E-2],"categories":[],"categories_nodes":[],"categories_segments":[],"categories_sizes":[],"default_left":[0,0,0,0,0,0,0,0,0,0,0,0,0,0,0],"id":43,"left_children":[1,3,-1,5,7,11,9,-1,-1,-1,-1,13,-1,-1,-1],"loss_changes":[1.679735E-1,1.3915899E0,0E0,2.315596E0,1.2851297E0,5.6275225E-1,9.6135974E-1,0E0,0E0,0E0,0E0,1.3078276E0,0E0,0E0,0E0],"parents":[2147483647,0,0,1,1,3,3,4,4,6,6,5,5,11,11],"right_children":[2,4,-1,6,8,12,10,-1,-1,-1,-1,14,-1,-1,-1],"split_conditions":[3.746172E-3,2.8285876E-1,-2.4113234E-3,6.373524E-1,3.4249215E0,-5.705815E-3,2.0318838E-2,2.7796706E-2,-6.2205907E-2,-1.1492107E-1,-0E0,7.183704E-3,-1.3560708E-2,-1.894318E-2,6.745255E-2],"split_indices":[7,12,0,10,10,8,1,0,0,0,0,1,0,0,0],"split_type":[0,0,0,0,0,0,0,0,0,0,0,0,0,0,0],"sum_hessian":[8.74E2,5.91E2,2.83E2,1.96E2,3.95E2,1.46E2,5E1,3.85E2,1E1,2.8E1,2.2E1,7.7E1,6.9E1,3.2E1,4.5E1],"tree_param":{"num_deleted":"0","num_feature":"13","num_nodes":"15","size_leaf_vector":"1"}},{"base_weights":[-1.3625144E-2,1.0353665E-2,-2.508103E-2,-0E0,2.2742128E-2,9.740205E-2,-2.373691E-2,5.514054E-3,-1.24724686E-1,-1.4941277E-1,8.389529E-3],"categories":[],"categories_nodes":[],"categories_segments":[],"categories_sizes":[],"default_left":[0,0,0,0,0,0,0,0,0,0,0],"id":44,"left_children":[1,3,-1,-1,5,-1,7,-1,9,-1,-1],"loss_changes":[1.0871793E0,8.76696E-2,0E0,0E0,3.2932127E0,0E0,1.0878538E0,0E0,3.255659E0,0E0,0E0],"parents":[2147483647,0,0,1,1,4,4,6,6,8,8],"right_children":[2,4,-1,-1,6,-1,8,-1,10,-1,-1],"split_conditions":[5.3038046E-2,3.4568213E-2,-2.508103E-2,-0E0,-2.5348518E-2,9.740205E-2,1.1680782E0,5.514054E-3,6.3513644E-2,-1.4941277E-1,8.389529E-3],"split_indices":[9,5,0,0,1,0,12,0,11,0,0],"split_type":[0,0,0,0,0,0,0,0,0,0,0],"sum_hessian":[8.55E2,5.69E2,2.86E2,2.94E2,2.75E2,4E1,2.35E2,1.74E2,6.1E1,1.6E1,4.5E1],"tree_param":{"num_deleted":"0","num_feature":"13","num_nodes":"11","size_leaf_vector":"1"}},{"base_weights":[-0E0,-2.751601E-3,7.5430697E-4,1.0341739E-1,-1.5536519E-2],"categories":[],"categories_nodes":[],"categories_segments":[],"categories_sizes":[],"default_left":[0,0,0,0,0],"id":45,"left_children":[1,3,-1,-1,-1],"loss_changes":[4.297144E-3,2.7357466E0,0E0,0E0,0E0],"parents":[2147483647,0,0,1,1],"right_children":[2,4,-1,-1,-1],"split_conditions":[2.9902123E-3,-1.105689E0,7.5430697E-4,1.0341739E-1,-1.5536519E-2],"split_indices":[7,12,0,0,0],"split_type":[0,0,0,0,0],"sum_hessian":[8.42E2,2.81E2,5.61E2,1.9E1,2.62E2],"tree_param":{"num_deleted":"0","num_feature":"13","num_nodes":"5","size_leaf_vector":"1"}},{"base_weights":[-4.64147E-3,4.7329584E-5,-6.76408E-3,3.7964657E-2,-2.0200585E-1,-1.5575787E-1,4.504909E-3,-7.000844E-2,6.2129885E-2],"categories":[],"categories_nodes":[],"categories_segments":[],"categories_sizes":[],"default_left":[0,0,0,0,0,0,0,0,0],"id":46,"left_children":[1,3,-1,-1,5,-1,7,-1,-1],"loss_changes":[6.736358E-2,1.1535155E1,0E0,0E0,7.791785E0,0E0,3.2145278E0,0E0,0E0],"parents":[2147483647,0,0,1,1,4,4,6,6],"right_children":[2,4,-1,-1,6,-1,8,-1,-1],"split_conditions":[-1.6833884E-3,6.3653872E-3,-6.76408E-3,3.7964657E-2,5.3691226E-3,-1.5575787E-1,1.8040232E-3,-7.000844E-2,6.2129885E-2],"split_indices":[8,0,0,0,1,0,3,0,0],"split_type":[0,0,0,0,0,0,0,0,0],"sum_hessian":[8.62E2,5.76E2,2.86E2,4.01E2,1.75E2,8.7E1,8.8E1,3.6E1,5.2E1],"tree_param":{"num_deleted":"0","num_feature":"13","num_nodes":"9","size_leaf_vector":"1"}},{"base_weights":[-2.754094E-2,-3.5565427E-1,1.2620009E-2,-6.29752E-3,-5.07959E-1,5.1275074E-2,-2.2366403E-2,-1.7271686E-2,2.2085401E-1,2.371613E-2,3.3649597E-1,1.6922405E-1,2.734123E-2,-6.2452216E-2,-2.4890073E-1,-0E0,-3.2583043E-2,-8.269533E-2,5.674711E-2,2.099744E-2,-1.23789385E-1],"categories":[],"categories_nodes":[],"categories_segments":[],"categories_sizes":[],"default_left":[0,0,0,0,0,0,0,0,0,0,0,0,0,0,0,0,0,0,0,0,0],"id":47,"left_children":[1,3,5,-1,13,7,-1,15,9,-1,11,-1,-1,-1,-1,19,17,-1,-1,-1,-1],"loss_changes":[1.2308533E1,4.6155005E0,2.2039893E0,0E0,4.1910744E-1,6.536864E0,0E0,1.1231191E-1,2.2934766E0,0E0,1.0671139E0,0E0,0E0,0E0,0E0,3.338982E0,7.108604E0,0E0,0E0,0E0,0E0],"parents":[2147483647,0,0,1,1,2,2,5,5,8,8,10,10,4,4,7,7,16,16,15,15],"right_children":[2,4,6,-1,14,8,-1,16,10,-1,12,-1,-1,-1,-1,20,18,-1,-1,-1,-1],"split_conditions":[-4.4400796E-2,-1.4650144E-2,6.791211E-3,-6.29752E-3,1.8040232E-3,1.2845032E0,-2.2366403E-2,-5.705815E-3,-5.705815E-3,2.371613E-2,6.3653872E-3,1.6922405E-1,2.734123E-2,-6.2452216E-2,-2.4890073E-1,3.281143E-2,5.187388E-3,-8.269533E-2,5.674711E-2,2.099744E-2,-1.23789385E-1],"split_indices":[1,0,2,0,3,12,0,8,8,0,0,0,0,0,0,1,1,0,0,0,0],"split_type":[0,0,0,0,0,0,0,0,0,0,0,0,0,0,0,0,0,0,0,0,0],"sum_hessian":[8.87E2,8.6E1,8.01E2,3.4E1,5.2E1,5.24E2,2.77E2,3.79E2,1.45E2,7.4E1,7.1E1,4.4E1,2.7E1,2.4E1,2.8E1,1.78E2,2.01E2,1.02E2,9.9E1,1.64E2,1.4E1],"tree_param":{"num_deleted":"0","num_feature":"13","num_nodes":"21","size_leaf_vector":"1"}},{"base_weights":[6.2086966E-2,-2.5240386E-1,8.2124405E-2,2.4669702E-1,5.2772775E-2,-3.330946E-1,1.2637778E-2,-0E0,2.6984152E-1,-0E0,1.2452084E-1,-3.8597342E-1,-0E0,-0E0,-1.8966673E-1,8.889319E-2,3.0482432E-2,4.3113023E-2,-9.0084955E-2,-4.5063503E-2,4.209438E-2,2.3055969E-2,8.864685E-3],"categories":[],"categories_nodes":[],"categories_segments":[],"categories_sizes":[],"default_left":[0,0,0,0,0,0,0,0,0,0,0,0,0,0,0,0,0,0,0,0,0,0,0],"id":48,"left_children":[1,5,3,7,15,11,-1,-1,9,-1,-1,13,-1,-1,-1,19,17,21,-1,-1,-1,-1,-1],"loss_changes":[5.8182287E0,1.7199726E0,3.6489792E0,9.331875E-1,4.457438E-1,7.326064E-1,0E0,0E0,1.4795685E0,0E0,0E0,9.875617E-1,0E0,0E0,0E0,1.0439208E0,1.6099265E0,5.254984E-2,0E0,0E0,0E0,0E0,0E0],"parents":[2147483647,0,0,2,2,1,1,3,3,8,8,5,5,11,11,4,4,16,16,15,15,17,17],"right_children":[2,6,4,8,16,12,-1,-1,10,-1,-1,14,-1,-1,-1,20,18,22,-1,-1,-1,-1,-1],"split_conditions":[-5.6249965E-2,1.6625466E0,-6.021614E-1,-2.1706984E0,7.605555E-4,3.8919744E0,1.2637778E-2,-0E0,-1.7545451E0,-0E0,1.2452084E-1,-9.349296E-1,-0E0,-0E0,-1.8966673E-1,-4.9653396E-1,2.2650373E0,6.791211E-3,-9.0084955E-2,-4.5063503E-2,4.209438E-2,2.3055969E-2,8.864685E-3],"split_indices":[1,10,10,12,2,12,0,0,10,0,0,10,0,0,0,10,11,2,0,0,0,0,0],"split_type":[0,0,0,0,0,0,0,0,0,0,0,0,0,0,0,0,0,0,0,0,0,0,0],"sum_hessian":[8.83E2,3.9E1,8.44E2,1.05E2,7.39E2,3.1E1,8E0,7E0,9.8E1,1.3E1,8.5E1,2.4E1,7E0,9E0,1.5E1,2.47E2,4.92E2,4.85E2,7E0,7E0,2.4E2,2.42E2,2.43E2],"tree_param":{"num_deleted":"0","num_feature":"13","num_nodes":"23","size_leaf_vector":"1"}},{"base_weights":[-1.69317E-2,-1.2188752E-2,-7.514799E-3,-1.8648459E-2,6.2853366E-2,-3.2261357E-1,8.584176E-2,3.151968E-2,-3.9533067E-1,-6.039281E-2,-1.8881066E-1,-1.857604E-2,5.136314E-2,4.6715442E-2,1.8921128E-2],"categories":[],"categories_nodes":[],"categories_segments":[],"categories_sizes":[],"default_left":[0,0,0,0,0,0,0,0,0,0,0,0,0,0,0],"id":49,"left_children":[1,-1,3,5,-1,7,13,11,9,-1,-1,-1,-1,-1,-1],"loss_changes":[6.982511E-2,0E0,9.7017145E-1,1.854326E1,0E0,4.4141493E0,2.6051402E-1,4.6025243E-1,6.516838E-1,0E0,0E0,0E0,0E0,0E0,0E0],"parents":[2147483647,0,0,2,2,3,3,5,5,8,8,7,7,6,6],"right_children":[2,-1,4,6,-1,8,14,12,10,-1,-1,-1,-1,-1,-1],"split_conditions":[3.4568213E-2,-1.2188752E-2,3.8919744E0,-1.6625592E-2,6.2853366E-2,-2.1344729E-2,9.114019E-3,-2.6350852E-2,5.3038046E-2,-6.039281E-2,-1.8881066E-1,-1.857604E-2,5.136314E-2,4.6715442E-2,1.8921128E-2],"split_indices":[5,0,12,1,0,0,6,0,9,0,0,0,0,0,0],"split_type":[0,0,0,0,0,0,0,0,0,0,0,0,0,0,0],"sum_hessian":[8.58E2,2.94E2,5.64E2,5.47E2,1.7E1,1.34E2,4.13E2,2.2E1,1.12E2,4.1E1,7.1E1,1.1E1,1.1E1,1.97E2,2.16E2],"tree_param":{"num_deleted":"0","num_feature":"13","num_nodes":"15","size_leaf_vector":"1"}},{"base_weights":[1.5022101E-2,-3.466607E-2,2.447318E-2,5.00643E-2,-4.5943905E-2,1.54492855E-2,4.4497903E-2,2.7202336E-2,-1.0711638E-2],"categories":[],"categories_nodes":[],"categories_segments":[],"categories_sizes":[],"default_left":[0,0,0,0,0,0,0,0,0],"id":50,"left_children":[1,3,-1,5,-1,7,-1,-1,-1],"loss_changes":[2.1463146E0,3.1290855E0,0E0,3.0736983E-1,0E0,4.4197637E-1,0E0,0E0,0E0],"parents":[2147483647,0,0,1,1,3,3,5,5],"right_children":[2,4,-1,6,-1,8,-1,-1,-1],"split_conditions":[5.9526044E-1,2.6012507E-1,2.447318E-2,6.791211E-3,-4.5943905E-2,3.4568213E-2,4.4497903E-2,2.7202336E-2,-1.0711638E-2],"split_indices":[12,10,0,2,0,5,0,0,0],"split_type":[0,0,0,0,0,0,0,0,0],"sum_hessian":[8.94E2,4.22E2,4.72E2,2.02E2,2.2E2,1.52E2,5E1,7.4E1,7.8E1],"tree_param":{"num_deleted":"0","num_feature":"13","num_nodes":"9","size_leaf_vector":"1"}},{"base_weights":[6.349646E-3,-3.1597957E-3,1.5810002E-2,7.264953E-2,-1.4840059E-1,-4.8824176E-2,5.793127E-2,-2.087641E-1,-0E0,1.6837306E-1,-1.2042302E-1,1.0871037E-2,-1.1181324E-1,9.077625E-2,-0E0,-0E0,-6.568869E-2,-0E0,-5.350399E-2,-2.6743582E-1,-7.3941134E-2,-7.790377E-2,1.788949E-2,-1.415192E-1,-1.0319421E-2],"categories":[],"categories_nodes":[],"categories_segments":[],"categories_sizes":[],"default_left":[0,0,0,0,0,0,0,0,0,0,0,0,0,0,0,0,0,0,0,0,0,0,0,0,0],"id":51,"left_children":[1,-1,3,5,7,11,-1,19,9,13,15,-1,17,-1,-1,-1,-1,-1,-1,23,21,-1,-1,-1,-1],"loss_changes":[1.2926276E-1,0E0,5.504102E0,4.1147137E0,1.1353834E0,9.59046E-1,0E0,1.5275574E-1,1.5624198E0,3.2695746E-1,3.228711E-1,0E0,3.1376266E-1,0E0,0E0,0E0,0E0,0E0,0E0,7.22898E-1,1.1138532E0,0E0,0E0,0E0,0E0],"parents":[2147483647,0,0,2,2,3,3,4,4,8,8,5,5,9,9,10,10,12,12,7,7,20,20,19,19],"right_children":[2,-1,4,6,8,12,-1,20,10,14,16,-1,18,-1,-1,-1,-1,-1,-1,24,22,-1,-1,-1,-1],"split_conditions":[2.9902123E-3,-3.1597957E-3,1.3180323E0,7.207767E-2,1.5877722E-2,4.1142747E-2,5.793127E-2,1.7832146E0,3.746172E-3,1.3479895E-2,-1.1328632E-2,1.0871037E-2,-1.6949322E0,9.077625E-2,-0E0,-0E0,-6.568869E-2,-0E0,-5.350399E-2,1.6755344E0,2.2523499E0,-7.790377E-2,1.788949E-2,-1.415192E-1,-1.0319421E-2],"split_indices":[7,0,10,12,1,4,0,10,7,0,0,0,12,0,0,0,0,0,0,12,12,0,0,0,0],"split_type":[0,0,0,0,0,0,0,0,0,0,0,0,0,0,0,0,0,0,0,0,0,0,0,0,0],"sum_hessian":[8.7E2,3.06E2,5.64E2,4.3E2,1.34E2,1.57E2,2.73E2,8.6E1,4.8E1,1.4E1,3.4E1,6.8E1,8.9E1,7E0,7E0,1.1E1,2.3E1,1.4E1,7.5E1,4.4E1,4.2E1,2E1,2.2E1,2.4E1,2E1],"tree_param":{"num_deleted":"0","num_feature":"13","num_nodes":"25","size_leaf_vector":"1"}},{"base_weights":[-2.6046468E-2,-1.3903002E-2,-1.1519695E-3],"categories":[],"categories_nodes":[],"categories_segments":[],"categories_sizes":[],"default_left":[0,0,0],"id":52,"left_children":[1,-1,-1],"loss_changes":[1.4114684E-1,0E0,0E0],"parents":[2147483647,0,0],"right_children":[2,-1,-1],"split_conditions":[4.1142747E-2,-1.3903002E-2,-1.1519695E-3],"split_indices":[4,0,0],"split_type":[0,0,0],"sum_hessian":[8.78E2,6.01E2,2.77E2],"tree_param":{"num_deleted":"0","num_feature":"13","num_nodes":"3","size_leaf_vector":"1"}},{"base_weights":[-0E0,-8.395969E-3,1.6629571E-2],"categories":[],"categories_nodes":[],"categories_segments":[],"categories_sizes":[],"default_left":[0,0,0],"id":53,"left_children":[1,-1,-1],"loss_changes":[7.7714825E-1,0E0,0E0],"parents":[2147483647,0,0],"right_children":[2,-1,-1],"split_conditions":[4.1142747E-2,-8.395969E-3,1.6629571E-2],"split_indices":[4,0,0],"split_type":[0,0,0],"sum_hessian":[8.77E2,6E2,2.77E2],"tree_param":{"num_deleted":"0","num_feature":"13","num_nodes":"3","size_leaf_vector":"1"}},{"base_weights":[-8.615086E-3],"categories":[],"categories_nodes":[],"categories_segments":[],"categories_sizes":[],"default_left":[0],"id":54,"left_children":[-1],"loss_changes":[0E0],"parents":[2147483647],"right_children":[-1],"split_conditions":[-3.4460344E-3],"split_indices":[0],"split_type":[0],"sum_hessian":[8.65E2],"tree_param":{"num_deleted":"0","num_feature":"13","num_nodes":"1","size_leaf_vector":"1"}},{"base_weights":[-2.834807E-2,-4.794767E-2,1.9274881E-3,-2.5720922E-2,-9.625463E-3],"categories":[],"categories_nodes":[],"categories_segments":[],"categories_sizes":[],"default_left":[0,0,0,0,0],"id":55,"left_children":[1,3,-1,-1,-1],"loss_changes":[6.179503E-1,1.1106229E-1,0E0,0E0,0E0],"parents":[2147483647,0,0,1,1],"right_children":[2,4,-1,-1,-1],"split_conditions":[6.791211E-3,4.0351503E-2,1.9274881E-3,-2.5720922E-2,-9.625463E-3],"split_indices":[2,4,0,0,0],"split_type":[0,0,0,0,0],"sum_hessian":[8.63E2,5.57E2,3.06E2,2.9E2,2.67E2],"tree_param":{"num_deleted":"0","num_feature":"13","num_nodes":"5","size_leaf_vector":"1"}},{"base_weights":[2.6002076E-2,4.851684E-2,1.2136887E-2,-1.0622763E-2,9.831577E-2,3.1737097E-2,-6.043012E-2],"categories":[],"categories_nodes":[],"categories_segments":[],"categories_sizes":[],"default_left":[0,0,0,0,0,0,0],"id":56,"left_children":[1,5,3,-1,-1,-1,-1],"loss_changes":[2.056632E-1,1.9848883E0,5.698209E0,0E0,0E0,0E0,0E0],"parents":[2147483647,0,0,2,2,1,1],"right_children":[2,6,4,-1,-1,-1,-1],"split_conditions":[-5.705815E-3,2.6929522E0,2.2523499E0,-1.0622763E-2,9.831577E-2,3.1737097E-2,-6.043012E-2],"split_indices":[8,12,12,0,0,0,0],"split_type":[0,0,0,0,0,0,0],"sum_hessian":[8.67E2,2.88E2,5.79E2,5.05E2,7.4E1,2.62E2,2.6E1],"tree_param":{"num_deleted":"0","num_feature":"13","num_nodes":"7","size_leaf_vector":"1"}},{"base_weights":[-5.9281685E-3,1.2695971E-4,-8.08907E-3,-4.5551406E-3,3.2386438E-3,-2.9919757E-2,1.6147098E-2],"categories":[],"categories_nodes":[],"categories_segments":[],"categories_sizes":[],"default_left":[0,0,0,0,0,0,0],"id":57,"left_children":[1,3,-1,5,-1,-1,-1],"loss_changes":[9.618934E-2,2.5900226E-2,0E0,1.0243616E0,0E0,0E0,0E0],"parents":[2147483647,0,0,1,1,3,3],"right_children":[2,4,-1,6,-1,-1,-1],"split_conditions":[-1.6833884E-3,-5.705815E-3,-8.08907E-3,-2.1286191E-2,3.2386438E-3,-2.9919757E-2,1.6147098E-2],"split_indices":[8,8,0,1,0,0,0],"split_type":[0,0,0,0,0,0,0],"sum_hessian":[8.63E2,5.68E2,2.95E2,2.83E2,2.85E2,1.15E2,1.68E2],"tree_param":{"num_deleted":"0","num_feature":"13","num_nodes":"7","size_leaf_vector":"1"}},{"base_weights":[-0E0,7.096894E-4,-1.8588459E-3,-1.4739558E-3,-0E0],"categories":[],"categories_nodes":[],"categories_segments":[],"categories_sizes":[],"default_left":[0,0,0,0,0],"id":58,"left_children":[1,-1,3,-1,-1],"loss_changes":[3.0303365E-3,0E0,1.803922E-3,0E0,0E0],"parents":[2147483647,0,0,2,2],"right_children":[2,-1,4,-1,-1],"split_conditions":[1.8040232E-3,7.096894E-4,-1.6833884E-3,-1.4739558E-3,-0E0],"split_indices":[3,0,8,0,0],"split_type":[0,0,0,0,0],"sum_hessian":[8.73E2,2.92E2,5.81E2,2.69E2,3.12E2],"tree_param":{"num_deleted":"0","num_feature":"13","num_nodes":"5","size_leaf_vector":"1"}},{"base_weights":[2.2572901E-2,3.068156E-2,5.61438E-4,6.53426E-2,-1.3141522E-1,3.4012444E-2,-1.8752962E-2,1.22004505E-2,-3.325125E-2],"categories":[],"categories_nodes":[],"categories_segments":[],"categories_sizes":[],"default_left":[0,0,0,0,0,0,0,0,0],"id":59,"left_children":[1,3,-1,5,-1,-1,7,-1,-1],"loss_changes":[1.1481258E-1,7.378594E0,0E0,1.003087E0,0E0,0E0,4.338785E-1,0E0,0E0],"parents":[2147483647,0,0,1,1,3,3,6,6],"right_children":[2,4,-1,6,-1,-1,8,-1,-1],"split_conditions":[4.1142747E-2,1.6862135E-2,5.61438E-4,2.1329079E0,-1.3141522E-1,3.4012444E-2,4.0351503E-2,1.22004505E-2,-3.325125E-2],"split_indices":[4,0,0,12,0,0,4,0,0],"split_type":[0,0,0,0,0,0,0,0,0],"sum_hessian":[8.44E2,5.71E2,2.73E2,5.35E2,3.6E1,4.43E2,9.2E1,4.8E1,4.4E1],"tree_param":{"num_deleted":"0","num_feature":"13","num_nodes":"9","size_leaf_vector":"1"}},{"base_weights":[-0E0,3.6990877E-2,-4.708935E-2,8.39464E-3,3.3167765E-2,1.2304968E-2,-4.432998E-3],"categories":[],"categories_nodes":[],"categories_segments":[],"categories_sizes":[],"default_left":[0,0,0,0,0,0,0],"id":60,"left_children":[1,3,-1,5,-1,-1,-1],"loss_changes":[3.9163747E0,8.0097604E-1,0E0,2.2311985E-1,0E0,0E0,0E0],"parents":[2147483647,0,0,1,1,3,3],"right_children":[2,4,-1,6,-1,-1,-1],"split_conditions":[1.3683333E0,3.746172E-3,-4.708935E-2,7.605555E-4,3.3167765E-2,1.2304968E-2,-4.432998E-3],"split_indices":[10,7,0,2,0,0,0],"split_type":[0,0,0,0,0,0,0],"sum_hessian":[8.71E2,6.72E2,1.99E2,4.39E2,2.33E2,2.24E2,2.15E2],"tree_param":{"num_deleted":"0","num_feature":"13","num_nodes":"7","size_leaf_vector":"1"}},{"base_weights":[1.0129964E-2],"categories":[],"categories_nodes":[],"categories_segments":[],"categories_sizes":[],"default_left":[0],"id":61,"left_children":[-1],"loss_changes":[0E0],"parents":[2147483647],"right_children":[-1],"split_conditions":[4.0519857E-3],"split_indices":[0],"split_type":[0],"sum_hessian":[8.91E2],"tree_param":{"num_deleted":"0","num_feature":"13","num_nodes":"1","size_leaf_vector":"1"}},{"base_weights":[-1.0685828E-2,-0E0,-1.1709545E-2,-1.3083158E-2,4.80099E-3,-4.8829116E-2,3.0043283E-2],"categories":[],"categories_nodes":[],"categories_segments":[],"categories_sizes":[],"default_left":[0,0,0,0,0,0,0],"id":62,"left_children":[1,3,-1,5,-1,-1,-1],"loss_changes":[1.6037515E-1,9.723762E-2,0E0,3.2348819E0,0E0,0E0,0E0],"parents":[2147483647,0,0,1,1,3,3],"right_children":[2,4,-1,6,-1,-1,-1],"split_conditions":[6.791211E-3,2.1638316E-3,-1.1709545E-2,7.882883E-2,4.80099E-3,-4.8829116E-2,3.0043283E-2],"split_indices":[2,6,0,11,0,0,0],"split_type":[0,0,0,0,0,0,0],"sum_hessian":[8.74E2,5.84E2,2.9E2,3.01E2,2.83E2,1.37E2,1.64E2],"tree_param":{"num_deleted":"0","num_feature":"13","num_nodes":"7","size_leaf_vector":"1"}},{"base_weights":[7.618182E-4,1.1449524E-2,-1.8572604E-2,-4.3449234E-2,1.1433158E-1,-1.6265024E-3,1.1805727E-2],"categories":[],"categories_nodes":[],"categories_segments":[],"categories_sizes":[],"default_left":[0,0,0,0,0,0,0],"id":63,"left_children":[1,5,3,-1,-1,-1,-1],"loss_changes":[1.7964819E-1,1.9962083E-1,8.22356E0,0E0,0E0,0E0,0E0],"parents":[2147483647,0,0,2,2,1,1],"right_children":[2,6,4,-1,-1,-1,-1],"split_conditions":[3.535506E-2,4.0351503E-2,1.791832E-2,-4.3449234E-2,1.1433158E-1,-1.6265024E-3,1.1805727E-2],"split_indices":[5,4,1,0,0,0,0],"split_type":[0,0,0,0,0,0,0],"sum_hessian":[8.72E2,5.99E2,2.73E2,2.21E2,5.2E1,2.99E2,3E2],"tree_param":{"num_deleted":"0","num_feature":"13","num_nodes":"7","size_leaf_vector":"1"}},{"base_weights":[-4.041952E-2],"categories":[],"categories_nodes":[],"categories_segments":[],"categories_sizes":[],"default_left":[0],"id":64,"left_children":[-1],"loss_changes":[0E0],"parents":[2147483647],"right_children":[-1],"split_conditions":[-1.6167808E-2],"split_indices":[0],"split_type":[0],"sum_hessian":[8.39E2],"tree_param":{"num_deleted":"0","num_feature":"13","num_nodes":"1","size_leaf_vector":"1"}},{"base_weights":[3.578537E-2,4.7316656E-2,-1.1686366E-1,-1.8102789E-1,3.169093E-3,3.5008732E-2,2.315015E-2,-1.04561625E-2,3.089328E-1,1.8698771E-1,-2.4888695E-3,-1.3717116E-1,2.4933523E-2,4.03623E-2,-1.5896073E-2,-0E0,-7.331865E-2,-8.699924E-2,-4.6093594E-3],"categories":[],"categories_nodes":[],"categories_segments":[],"categories_sizes":[],"default_left":[0,0,0,0,0,0,0,0,0,0,0,0,0,0,0,0,0,0,0],"id":65,"left_children":[1,5,3,17,-1,-1,7,11,9,-1,-1,15,13,-1,-1,-1,-1,-1,-1],"loss_changes":[1.6026725E0,6.879784E-1,6.895613E-1,2.0320058E-2,0E0,0E0,5.8301334E0,2.5098665E0,3.6891823E0,0E0,0E0,7.048936E-1,2.1665578E0,0E0,0E0,0E0,0E0,0E0,0E0],"parents":[2147483647,0,0,2,2,1,1,6,6,8,8,7,7,12,12,11,11,3,3],"right_children":[2,6,4,18,-1,-1,8,12,10,-1,-1,16,14,-1,-1,-1,-1,-1,-1],"split_conditions":[2.613629E0,3.4568213E-2,5.187388E-3,3.0421429E0,3.169093E-3,3.5008732E-2,1.2199636E0,-4.6367404E-1,5.3038046E-2,1.8698771E-1,-2.4888695E-3,-6.0247287E-2,3.746172E-3,4.03623E-2,-1.5896073E-2,-0E0,-7.331865E-2,-8.699924E-2,-4.6093594E-3],"split_indices":[10,5,1,10,0,0,11,12,9,0,0,11,7,0,0,0,0,0,0],"split_type":[0,0,0,0,0,0,0,0,0,0,0,0,0,0,0,0,0,0,0],"sum_hessian":[8.85E2,8.39E2,4.6E1,3.1E1,1.5E1,2.84E2,5.55E2,5.07E2,4.8E1,2.9E1,1.9E1,1.07E2,4E2,1.87E2,2.13E2,3.3E1,7.4E1,1.7E1,1.4E1],"tree_param":{"num_deleted":"0","num_feature":"13","num_nodes":"19","size_leaf_vector":"1"}},{"base_weights":[1.015516E-3,-1.0470713E-2,6.868305E-3],"categories":[],"categories_nodes":[],"categories_segments":[],"categories_sizes":[],"default_left":[0,0,0],"id":66,"left_children":[1,-1,-1],"loss_changes":[3.9591798E-1,0E0,0E0],"parents":[2147483647,0,0],"right_children":[2,-1,-1],"split_conditions":[2.9902123E-3,-1.0470713E-2,6.868305E-3],"split_indices":[7,0,0],"split_type":[0,0,0],"sum_hessian":[8.9E2,3.05E2,5.85E2],"tree_param":{"num_deleted":"0","num_feature":"13","num_nodes":"3","size_leaf_vector":"1"}},{"base_weights":[1.5867546E-2,-1.0427341E-3,2.0970218E-1,5.403596E-3,-8.493491E-2,1.0526528E-1,1.162164E-2,1.406651E-2,-7.7517307E-3,-1.3222301E-2,3.2391928E-2,-0E0,-1.3192596E-2,-5.6093264E-2,4.8276545E-3],"categories":[],"categories_nodes":[],"categories_segments":[],"categories_sizes":[],"default_left":[0,0,0,0,0,0,0,0,0,0,0,0,0,0,0],"id":67,"left_children":[1,3,5,7,-1,-1,9,-1,11,-1,-1,-1,13,-1,-1],"loss_changes":[3.1479712E0,1.3618332E0,4.8939562E-1,3.5302213E-1,0E0,0E0,2.0362994E-1,0E0,1.6673982E-2,0E0,0E0,0E0,1.0812044E0,0E0,0E0],"parents":[2147483647,0,0,1,1,2,2,3,3,6,6,8,8,12,12],"right_children":[2,4,6,8,-1,-1,10,-1,12,-1,-1,-1,14,-1,-1],"split_conditions":[3.1134996E0,2.8092167E0,3.746172E-3,2.1638316E-3,-8.493491E-2,1.0526528E-1,-4.0689787E-1,1.406651E-2,4.1142747E-2,-1.3222301E-2,3.2391928E-2,-0E0,-6.988651E-1,-5.6093264E-2,4.8276545E-3],"split_indices":[12,12,7,6,0,0,11,0,4,0,0,0,10,0,0],"split_type":[0,0,0,0,0,0,0,0,0,0,0,0,0,0,0],"sum_hessian":[8.8E2,8.19E2,6.1E1,8.05E2,1.4E1,4E1,2.1E1,2.62E2,5.43E2,9E0,1.2E1,2.7E2,2.73E2,4E1,2.33E2],"tree_param":{"num_deleted":"0","num_feature":"13","num_nodes":"15","size_leaf_vector":"1"}},{"base_weights":[-3.893679E-2,-6.268468E-2,-2.3845999E-2,-0E0,-9.95843E-2,4.8184346E-2,-3.6437534E-2,9.716372E-3,-2.4214366E-2,2.225888E-2,-6.601074E-2,-1.2074424E-2,-1.1511525E-1],"categories":[],"categories_nodes":[],"categories_segments":[],"categories_sizes":[],"default_left":[0,0,0,0,0,0,0,0,0,0,0,0,0],"id":68,"left_children":[1,5,3,7,-1,-1,-1,-1,9,-1,11,-1,-1],"loss_changes":[2.156725E-1,1.7958008E0,3.0449739E0,3.4307647E-1,0E0,0E0,0E0,0E0,1.1017405E0,0E0,1.2832682E0,0E0,0E0],"parents":[2147483647,0,0,2,2,1,1,3,3,8,8,10,10],"right_children":[2,6,4,8,-1,-1,-1,-1,10,-1,12,-1,-1],"split_conditions":[7.605555E-4,-1.105689E0,1.9114057E-2,3.746172E-3,-9.95843E-2,4.8184346E-2,-3.6437534E-2,9.716372E-3,1.566728E-1,2.225888E-2,2.6884608E0,-1.2074424E-2,-1.1511525E-1],"split_indices":[2,12,0,7,0,0,0,0,12,0,10,0,0],"split_type":[0,0,0,0,0,0,0,0,0,0,0,0,0],"sum_hessian":[8.93E2,3.02E2,5.91E2,5.52E2,3.9E1,2.9E1,2.73E2,2.58E2,2.94E2,9.1E1,2.03E2,1.94E2,9E0],"tree_param":{"num_deleted":"0","num_feature":"13","num_nodes":"13","size_leaf_vector":"1"}},{"base_weights":[3.7525303E-3,-2.9715596E-4,7.6067946E-3,-1.05913654E-1,3.0958954E-2,5.075549E-2,6.6218125E-3,-1.9952762E-1,4.7783334E-2,1.5687607E-2,-1.4578664E-1,-3.0057264E-2,9.0960175E-2,9.257152E-3,9.704433E-2],"categories":[],"categories_nodes":[],"categories_segments":[],"categories_sizes":[],"default_left":[0,0,0,0,0,0,0,0,0,0,0,0,0,0,0],"id":69,"left_children":[1,-1,3,-1,5,11,7,9,-1,-1,-1,-1,13,-1,-1],"loss_changes":[2.2384528E-2,0E0,3.7158E0,0E0,2.12309E-1,1.5894227E0,7.1954217E0,4.7903404E0,0E0,0E0,0E0,0E0,2.039301E0,0E0,0E0],"parents":[2147483647,0,0,2,2,4,4,6,6,7,7,5,5,12,12],"right_children":[2,-1,4,-1,6,12,8,10,-1,-1,-1,-1,14,-1,-1],"split_conditions":[1.8040232E-3,-2.9715596E-4,-1.0506666E0,-1.05913654E-1,4.1142747E-2,-1.5825527E-2,-1.7190779E-2,-5.111709E-3,4.7783334E-2,1.5687607E-2,-1.4578664E-1,-3.0057264E-2,9.9228925E-1,9.257152E-3,9.704433E-2],"split_indices":[3,0,11,0,4,0,1,0,0,0,0,0,12,0,0],"split_type":[0,0,0,0,0,0,0,0,0,0,0,0,0,0,0],"sum_hessian":[8.75E2,2.9E2,5.85E2,3E1,5.55E2,2.74E2,2.81E2,9.2E1,1.89E2,4E1,5.2E1,5.7E1,2.17E2,1.67E2,5E1],"tree_param":{"num_deleted":"0","num_feature":"13","num_nodes":"15","size_leaf_vector":"1"}},{"base_weights":[-1.7310566E-3,-1.34186E-1,3.271634E-2,-4.9274646E-2,-1.0344072E-1,8.235668E-2,-1.0462536E-3,9.127289E-3,1.7788741E-1,1.7299738E-2,1.334401E-1,8.341771E-3,-1.4438975E-1,-0E0,-9.019291E-2,-2.8236998E-2,-0E0,-1.6551802E-1,7.650014E-2,-7.973916E-3,7.4829906E-3,6.513711E-2,-3.3169553E-2,-7.9003096E-2,-0E0],"categories":[],"categories_nodes":[],"categories_segments":[],"categories_sizes":[],"default_left":[0,0,0,0,0,0,0,0,0,0,0,0,0,0,0,0,0,0,0,0,0,0,0,0,0],"id":70,"left_children":[1,3,5,15,-1,7,11,-1,9,-1,-1,19,13,-1,-1,-1,17,23,-1,21,-1,-1,-1,-1,-1],"loss_changes":[4.2297816E0,1.5278549E0,1.2771188E0,1.7002177E-1,0E0,1.4458828E0,7.30488E-1,0E0,1.6335754E0,0E0,0E0,8.236224E-2,5.02164E-1,0E0,0E0,0E0,2.173663E0,6.342387E-2,0E0,1.8308328E0,0E0,0E0,0E0,0E0,0E0],"parents":[2147483647,0,0,1,1,2,2,5,5,8,8,6,6,12,12,3,3,16,16,11,11,19,19,17,17],"right_children":[2,4,6,16,-1,8,12,-1,10,-1,-1,20,14,-1,-1,-1,18,24,-1,22,-1,-1,-1,-1,-1],"split_conditions":[-2.9273298E-2,5.3038046E-2,4.5249704E-1,4.989863E-2,-1.0344072E-1,9.114019E-3,4.508E-2,9.127289E-3,7.9400516E-1,1.7299738E-2,1.334401E-1,3.4568213E-2,-1.6168102E0,-0E0,-9.019291E-2,-2.8236998E-2,-7.144803E-1,-7.164354E-3,7.650014E-2,-5.8042863E-3,7.4829906E-3,6.513711E-2,-3.3169553E-2,-7.9003096E-2,-0E0],"split_indices":[1,9,10,9,0,6,1,0,12,0,0,5,12,0,0,0,11,0,0,0,0,0,0,0,0],"split_type":[0,0,0,0,0,0,0,0,0,0,0,0,0,0,0,0,0,0,0,0,0,0,0,0,0],"sum_hessian":[8.74E2,1.77E2,6.97E2,1.23E2,5.4E1,2.85E2,4.12E2,1.94E2,9.1E1,6.3E1,2.8E1,3.94E2,1.8E1,1E1,8E0,8.6E1,3.7E1,2E1,1.7E1,1.17E2,2.77E2,2.6E1,9.1E1,1.1E1,9E0],"tree_param":{"num_deleted":"0","num_feature":"13","num_nodes":"25","size_leaf_vector":"1"}},{"base_weights":[-1.2847962E-2,-5.844278E-2,7.710633E-2,1.1257324E-1,-0E0,1.7863147E-1,5.089029E-2,-8.717998E-3,1.7514202E-1,1.043726E-1,1.3265385E-2,-2.8422553E-2,-1.0536193E-2],"categories":[],"categories_nodes":[],"categories_segments":[],"categories_sizes":[],"default_left":[0,0,0,0,0,0,0,0,0,0,0,0,0],"id":71,"left_children":[1,11,3,5,-1,9,7,-1,-1,-1,-1,-1,-1],"loss_changes":[3.750305E0,1.2214589E-1,8.450854E-1,4.7819614E-1,0E0,6.080277E-1,4.438624E0,0E0,0E0,0E0,0E0,0E0,0E0],"parents":[2147483647,0,0,2,2,3,3,6,6,5,5,1,1],"right_children":[2,12,4,6,-1,10,8,-1,-1,-1,-1,-1,-1],"split_conditions":[1.2845032E0,5.101443E-3,5.101443E-3,8.614827E-1,-0E0,3.4568213E-2,-3.4922431E-3,-8.717998E-3,1.7514202E-1,1.043726E-1,1.3265385E-2,-2.8422553E-2,-1.0536193E-2],"split_indices":[12,3,3,10,0,5,1,0,0,0,0,0,0],"split_type":[0,0,0,0,0,0,0,0,0,0,0,0,0],"sum_hessian":[8.86E2,5.99E2,2.87E2,1.93E2,9.4E1,7.1E1,1.22E2,1.13E2,9E0,3.3E1,3.8E1,3.94E2,2.05E2],"tree_param":{"num_deleted":"0","num_feature":"13","num_nodes":"13","size_leaf_vector":"1"}},{"base_weights":[3.365452E-2],"categories":[],"categories_nodes":[],"categories_segments":[],"categories_sizes":[],"default_left":[0],"id":72,"left_children":[-1],"loss_changes":[0E0],"parents":[2147483647],"right_children":[-1],"split_conditions":[1.3461808E-2],"split_indices":[0],"split_type":[0],"sum_hessian":[8.9E2],"tree_param":{"num_deleted":"0","num_feature":"13","num_nodes":"1","size_leaf_vector":"1"}},{"base_weights":[-1.8298827E-2,-4.7648992E-2,3.5683703E-2,-1.5308067E-1,7.365384E-2,1.0907171E-1,-8.087473E-2,1.3197E-1,-8.7968595E-3,2.4505235E-1,-0E0,2.5993317E-2,1.6682735E-1,7.231269E-2,-3.8620492E-3,-3.0510122E-2,4.1946635E-2,3.6340054E-2,-2.7918084E-2,-1.05078526E-1,-2.6496274E-2,-9.47875E-2,6.727781E-2,-6.124424E-2,6.629876E-2,-0E0,5.772844E-2],"categories":[],"categories_nodes":[],"categories_segments":[],"categories_sizes":[],"default_left":[0,0,0,0,0,0,0,0,0,0,0,0,0,0,0,0,0,0,0,0,0,0,0,0,0,0,0],"id":73,"left_children":[1,5,3,-1,7,13,19,9,15,11,-1,-1,-1,-1,-1,-1,17,-1,-1,23,21,-1,-1,-1,25,-1,-1],"loss_changes":[1.4229228E0,3.1548285E0,4.973733E0,0E0,1.5583253E0,1.0813345E0,4.784763E-1,2.539418E0,5.286164E-1,2.0257707E0,0E0,0E0,0E0,0E0,0E0,0E0,5.341915E-1,0E0,0E0,2.9270823E0,8.34438E0,0E0,0E0,0E0,2.977921E-1,0E0,0E0],"parents":[2147483647,0,0,2,2,1,1,4,4,7,7,9,9,5,5,8,8,16,16,6,6,20,20,19,19,24,24],"right_children":[2,6,4,-1,8,14,20,10,16,12,-1,-1,-1,-1,-1,-1,18,-1,-1,24,22,-1,-1,-1,26,-1,-1],"split_conditions":[1.3113903E0,-1.1328632E-2,-7.533888E-2,-1.5308067E-1,-4.822009E-3,3.746172E-3,-1.6833884E-3,-1.6833884E-3,-5.705815E-3,2.416265E0,-0E0,2.5993317E-2,1.6682735E-1,7.231269E-2,-3.8620492E-3,-3.0510122E-2,-1.6833884E-3,3.6340054E-2,-2.7918084E-2,2.0318838E-2,3.3341292E-1,-9.47875E-2,6.727781E-2,-6.124424E-2,-7.294062E-1,-0E0,5.772844E-2],"split_indices":[12,0,1,0,0,7,8,8,8,12,0,0,0,0,0,0,8,0,0,1,11,0,0,0,12,0,0],"split_type":[0,0,0,0,0,0,0,0,0,0,0,0,0,0,0,0,0,0,0,0,0,0,0,0,0,0,0],"sum_hessian":[8.58E2,5.69E2,2.89E2,1E1,2.79E2,8.8E1,4.81E2,1.65E2,1.14E2,7.9E1,8.6E1,5.2E1,2.7E1,5.5E1,3.3E1,5.4E1,6E1,5E1,1E1,3.1E2,1.71E2,8.3E1,8.8E1,2.48E2,6.2E1,4.7E1,1.5E1],