{"learner":{"attributes":{"scikit_learn":"{\"_estimator_type\": \"regressor\"}"},"feature_names":["ticker_prior_days_increase","ticker_weekly_return","sp500_daily_return","sp500_weekly_return","sp500_monthly_return","sp500_ytd_return","sp500_annual_return","ndaq_daily_return","ndaq_weekly_return","ndaq_ytd_return","dow30_daily_return","dow30_weekly_return","dow30_monthly_return","dow30_annual_return","ticker_sp500_weekly_beta","ticker_ndaq_weekly_beta","ticker_dow_weekly_beta"],"feature_types":["float","float","float","float","float","float","float","float","float","float","float","float","float","float","float","float","float"],"gradient_booster":{"model":{"gbtree_model_param":{"num_parallel_tree":"1","num_trees":"150"},"iteration_indptr":[0,1,2,3,4,5,6,7,8,9,10,11,12,13,14,15,16,17,18,19,20,21,22,23,24,25,26,27,28,29,30,31,32,33,34,35,36,37,38,39,40,41,42,43,44,45,46,47,48,49,50,51,52,53,54,55,56,57,58,59,60,61,62,63,64,65,66,67,68,69,70,71,72,73,74,75,76,77,78,79,80,81,82,83,84,85,86,87,88,89,90,91,92,93,94,95,96,97,98,99,100,101,102,103,104,105,106,107,108,109,110,111,112,113,114,115,116,117,118,119,120,121,122,123,124,125,126,127,128,129,130,131,132,133,134,135,136,137,138,139,140,141,142,143,144,145,146,147,148,149,150],"tree_info":[0,0,0,0,0,0,0,0,0,0,0,0,0,0,0,0,0,0,0,0,0,0,0,0,0,0,0,0,0,0,0,0,0,0,0,0,0,0,0,0,0,0,0,0,0,0,0,0,0,0,0,0,0,0,0,0,0,0,0,0,0,0,0,0,0,0,0,0,0,0,0,0,0,0,0,0,0,0,0,0,0,0,0,0,0,0,0,0,0,0,0,0,0,0,0,0,0,0,0,0,0,0,0,0,0,0,0,0,0,0,0,0,0,0,0,0,0,0,0,0,0,0,0,0,0,0,0,0,0,0,0,0,0,0,0,0,0,0,0,0,0,0,0,0,0,0,0,0,0,0],"trees":[{"base_weights":[-1.3364997E-2,-6.0448855E-1,1.3161576E0,-1.3760177E0,-1.4680942E-2,-2.0619392E0,-5.633306E-1,-1.3589597E0,-2.8355744E0,6.1114943E-1,1.624674E0,-6.3954586E-1,1.7349946E-1,1.1900034E0,2.1733136E0,-3.151316E-2,6.697881E-1,-1.2169857E0,-2.9773012E-1,-2.3774949E-1,-1.2575551E0,8.3507806E-2,-7.236162E-1,1.598163E-2,8.789048E-1,2.8635043E-1,1.3133711E0,-1.6012284E-1,-1.5066102E0,-7.429008E-1,4.900989E-3,-4.660279E-1,6.5537107E-1,6.349084E-1,1.3855212E0,4.3311363E-1,-4.3670323E-1,1.0022972E0,3.3222303E-1,1.0450932E0,2.3786206E0,8.4107035E-1,1.6418538E0,-2.7094224E-1,4.482202E-1,5.491201E-1,1.5580809E0,-6.240646E-1,3.296677E-2,3.30927E-1,8.804149E-1,5.0658308E-2,8.09678E-1],"categories":[],"categories_nodes":[],"categories_segments":[],"categories_sizes":[],"default_left":[0,0,0,0,0,0,0,0,0,0,0,0,0,0,0,0,0,0,0,0,0,0,0,0,0,0,0,0,0,0,0,0,0,0,0,0,0,0,0,0,0,0,0,0,0,0,0,0,0,0,0,0,0],"id":0,"left_children":[1,3,9,5,11,7,17,27,-1,23,13,19,15,33,39,21,37,-1,29,35,-1,-1,-1,31,25,43,45,-1,-1,-1,-1,47,51,49,41,-1,-1,-1,-1,-1,-1,-1,-1,-1,-1,-1,-1,-1,-1,-1,-1,-1,-1],"loss_changes":[6.517098E3,2.6106104E3,5.1510205E2,1.3390815E3,3.9181567E2,5.7223096E2,1.9206448E2,1.2689392E2,0E0,1.3289685E2,3.1461182E2,1.790763E2,2.6173242E2,8.002576E1,6.926343E1,1.4991861E2,7.062033E1,0E0,1.2180419E2,7.632941E1,0E0,0E0,0E0,1.0488352E2,1.333205E2,3.148419E1,2.5712402E1,0E0,0E0,0E0,0E0,1.6418884E1,1.1613289E1,1.4121094E1,4.9814453E1,0E0,0E0,0E0,0E0,0E0,0E0,0E0,0E0,0E0,0E0,0E0,0E0,0E0,0E0,0E0,0E0,0E0,0E0],"parents":[2147483647,0,0,1,1,3,3,5,5,2,2,4,4,10,10,12,12,6,6,11,11,15,15,9,9,24,24,7,7,18,18,23,23,13,13,19,19,16,16,14,14,34,34,25,25,26,26,31,31,33,33,32,32],"right_children":[2,4,10,6,12,8,18,28,-1,24,14,20,16,34,40,22,38,-1,30,36,-1,-1,-1,32,26,44,46,-1,-1,-1,-1,48,52,50,42,-1,-1,-1,-1,-1,-1,-1,-1,-1,-1,-1,-1,-1,-1,-1,-1,-1,-1],"split_conditions":[5.6048627E-3,-1.5291197E-2,-1.1334999E-2,-8.312879E-3,-1.061632E-2,1.6525326E0,4.1533446E-1,-1.878402E-2,-2.8355744E0,-4.1801564E-2,1.0232645E0,2.814232E-1,2.0973824E-2,1.10488795E-1,1.0018764E-1,8.991461E-1,1.5553894E0,-1.2169857E0,-3.017805E-3,-7.4241585E-1,-1.2575551E0,8.3507806E-2,-7.236162E-1,-4.5143496E-3,1.2348634E0,1.0018764E-1,-1.340167E-2,-1.6012284E-1,-1.5066102E0,-7.429008E-1,4.900989E-3,-5.1337898E-2,1.0499749E0,1.8394822E-2,7.559948E-3,4.3311363E-1,-4.3670323E-1,1.0022972E0,3.3222303E-1,1.0450932E0,2.3786206E0,8.4107035E-1,1.6418538E0,-2.7094224E-1,4.482202E-1,5.491201E-1,1.5580809E0,-6.240646E-1,3.296677E-2,3.30927E-1,8.804149E-1,5.0658308E-2,8.09678E-1],"split_indices":[2,1,1,2,10,16,15,0,0,1,14,16,1,6,6,15,16,0,7,16,0,0,0,3,16,6,3,0,0,0,0,1,14,1,1,0,0,0,0,0,0,0,0,0,0,0,0,0,0,0,0,0,0],"split_type":[0,0,0,0,0,0,0,0,0,0,0,0,0,0,0,0,0,0,0,0,0,0,0,0,0,0,0,0,0,0,0,0,0,0,0,0,0,0,0,0,0,0,0,0,0,0,0,0,0,0,0,0,0],"sum_hessian":[8.214E3,5.701E3,2.513E3,2.447E3,3.254E3,1.294E3,1.153E3,7.35E2,5.59E2,8.01E2,1.712E3,7.32E2,2.522E3,1.025E3,6.87E2,1.81E3,7.12E2,2.92E2,8.61E2,4.77E2,2.55E2,1.581E3,2.29E2,2.62E2,5.39E2,2.56E2,2.83E2,9E1,6.45E2,3.26E2,5.35E2,1.55E2,1.07E2,3.11E2,7.14E2,9.8E1,3.79E2,3.19E2,3.93E2,1.43E2,5.44E2,2.83E2,4.31E2,5.1E1,2.05E2,1E2,1.83E2,1.11E2,4.4E1,1.81E2,1.3E2,3.3E1,7.4E1],"tree_param":{"num_deleted":"0","num_feature":"17","num_nodes":"53","size_leaf_vector":"1"}},{"base_weights":[1.824845E-2,-3.6189128E-2,5.2362597E-1,-2.49512E-1,4.77057E-2,-3.7685812E-1,8.767694E-2,5.28254E-1,4.544635E-2,8.647768E-2,-3.6203688E-1,5.837665E-3,3.7966073E-1,2.149189E-1,7.572439E-1,-2.5381792E-1,3.1873038E-1,-1.7014897E-1,4.7083664E-1,-6.4630353E-1,9.374075E-2,-2.1513478E-1,-5.2538157E-1,-3.343844E-1,2.311783E-1,-8.137905E-1,-1.9100675E-1,1.5357281E-1,-4.325836E-1,-6.369933E-1,-1.05875485E-1,3.3985236E-1,1.0494823E0,6.2155384E-1,-2.2084573E-3,-0E0,7.585061E-1,-5.1445377E-1,3.689604E-2,-1.3267921E-1,3.916499E-1,4.4184667E-1,9.5200455E-1,5.2476007E-1,-9.357971E-3],"categories":[],"categories_nodes":[],"categories_segments":[],"categories_sizes":[],"default_left":[0,0,0,0,0,0,0,0,0,0,0,0,0,0,0,0,0,0,0,0,0,0,0,0,0,0,0,0,0,0,0,0,0,0,0,0,0,0,0,0,0,0,0,0,0],"id":1,"left_children":[1,3,13,9,5,25,7,31,11,15,21,-1,-1,17,41,19,39,37,33,-1,-1,23,29,-1,-1,-1,27,-1,-1,-1,-1,-1,-1,35,-1,-1,-1,-1,-1,-1,-1,43,-1,-1,-1],"loss_changes":[2.2696906E2,1.3391798E2,5.0993866E1,8.118138E1,9.243783E1,3.1517159E1,9.085838E1,2.738108E1,6.009461E1,4.7475945E1,3.336139E1,0E0,0E0,4.2823105E1,9.877167E0,3.651013E1,1.3731304E1,1.4398004E1,1.8340694E1,0E0,0E0,5.1273045E1,3.0914398E1,0E0,0E0,0E0,3.447973E1,0E0,0E0,0E0,0E0,0E0,0E0,1.6204582E1,0E0,0E0,0E0,0E0,0E0,0E0,0E0,9.514198E0,0E0,0E0,0E0],"parents":[2147483647,0,0,1,1,4,4,6,6,3,3,8,8,2,2,9,9,13,13,15,15,10,10,21,21,5,5,26,26,22,22,7,7,18,18,33,33,17,17,16,16,14,14,41,41],"right_children":[2,4,14,10,6,26,8,32,12,16,22,-1,-1,18,42,20,40,38,34,-1,-1,24,30,-1,-1,-1,28,-1,-1,-1,-1,-1,-1,36,-1,-1,-1,-1,-1,-1,-1,44,-1,-1,-1],"split_conditions":[3.7520945E-2,8.7640494E-2,-4.783003E-2,-7.95537E-2,-6.0788233E-2,-4.426691E-2,-2.9737264E-2,1.6653008E0,1.7908502E-2,-4.7454666E-2,1.0979574E0,5.837665E-3,3.7966073E-1,1.2083079E0,4.71601E-2,1.6412665E0,-3.4199744E-1,-5.8268517E-2,1.16573356E-1,-6.4630353E-1,9.374075E-2,5.825685E-1,1.378872E0,-3.343844E-1,2.311783E-1,-8.137905E-1,-3.631924E-2,1.5357281E-1,-4.325836E-1,-6.369933E-1,-1.05875485E-1,3.3985236E-1,1.0494823E0,7.9601E-2,-2.2084573E-3,-0E0,7.585061E-1,-5.1445377E-1,3.689604E-2,-1.3267921E-1,3.916499E-1,2.5828533E0,9.5200455E-1,5.2476007E-1,-9.357971E-3],"split_indices":[1,13,4,9,1,8,3,16,2,1,16,0,0,15,1,16,16,12,6,0,0,15,15,0,0,0,12,0,0,0,0,0,0,13,0,0,0,0,0,0,0,16,0,0,0],"split_type":[0,0,0,0,0,0,0,0,0,0,0,0,0,0,0,0,0,0,0,0,0,0,0,0,0,0,0,0,0,0,0,0,0,0,0,0,0,0,0,0,0,0,0,0,0],"sum_hessian":[8.175E3,7.412E3,7.63E2,2.072E3,5.34E3,4.3E2,4.91E3,3.89E2,4.521E3,5.21E2,1.551E3,4.079E3,4.42E2,3.62E2,4.01E2,2.09E2,3.12E2,1.49E2,2.13E2,8.3E1,1.26E2,8.66E2,6.85E2,6.92E2,1.74E2,8.8E1,3.42E2,1.46E2,1.96E2,5.24E2,1.61E2,3.34E2,5.5E1,1.53E2,6E1,3.5E1,1.18E2,3.5E1,1.14E2,3.8E1,2.74E2,2.03E2,1.98E2,1.67E2,3.6E1],"tree_param":{"num_deleted":"0","num_feature":"17","num_nodes":"45","size_leaf_vector":"1"}},{"base_weights":[1.9301103E-2,1.7110656E-1,-1.8314809E-1,-1.10229395E-1,-4.922828E-1,-8.574033E-3,2.5182617E-1,4.070206E-1,1.1610172E-1,2.894397E-1,-1.3401362E-1,-2.5777143E-1,1.5748823E-2,-5.417522E-2,3.9877483E-1,-6.481619E-1,-5.3088352E-2,1.7487434E-1,-2.4673474E-1,1.5289657E-2,3.2125574E-1,-3.4394574E-1,2.8382028E-3,-4.074687E-1,2.0729476E-1,3.3159807E-1,7.644026E-1,1.4617041E-2,-3.595527E-1,1.2261402E-1,-5.5268013E-1,1.0768128E-1,-3.9359206E-1,3.8931033E-1,3.5105206E-2,1.23812795E-1,5.2553856E-1,-6.117878E-1,-1.4994885E-2,-8.811328E-2,1.2716588E-1,4.805013E-1,9.9767566E-2,6.9922966E-1,-1.8475434E-1,-2.5524643E-1,2.3465937E-1],"categories":[],"categories_nodes":[],"categories_segments":[],"categories_sizes":[],"default_left":[0,0,0,0,0,0,0,0,0,0,0,0,0,0,0,0,0,0,0,0,0,0,0,0,0,0,0,0,0,0,0,0,0,0,0,0,0,0,0,0,0,0,0,0,0,0,0],"id":2,"left_children":[1,5,3,11,29,9,7,25,19,41,15,21,13,27,-1,-1,17,-1,-1,39,35,31,23,-1,-1,33,-1,-1,-1,-1,37,-1,-1,-1,-1,-1,-1,-1,-1,-1,-1,43,45,-1,-1,-1,-1],"loss_changes":[2.561569E2,6.927475E1,7.809796E1,5.4965736E1,2.7721619E1,5.7972298E1,6.717117E1,3.04272E1,3.709948E1,1.4474133E1,4.375252E1,3.0731804E1,4.4468567E1,2.9900745E1,0E0,0E0,4.5313915E1,0E0,0E0,1.5004917E1,2.1057983E1,2.4763031E1,3.4691433E1,0E0,0E0,2.1910202E1,0E0,0E0,0E0,0E0,1.8964676E1,0E0,0E0,0E0,0E0,0E0,0E0,0E0,0E0,0E0,0E0,3.693154E1,1.5805925E1,0E0,0E0,0E0,0E0],"parents":[2147483647,0,0,2,2,1,1,6,6,5,5,3,3,12,12,10,10,16,16,8,8,11,11,22,22,7,7,13,13,4,4,21,21,25,25,20,20,30,30,19,19,9,9,41,41,42,42],"right_children":[2,6,4,12,30,10,8,26,20,42,16,22,14,28,-1,-1,18,-1,-1,40,36,32,24,-1,-1,34,-1,-1,-1,-1,38,-1,-1,-1,-1,-1,-1,-1,-1,-1,-1,44,46,-1,-1,-1,-1],"split_conditions":[2.1402824E-3,-3.3130996E-2,2.4002131E-2,1.5133942E-3,-7.960881E-2,-2.885635E-2,-9.031149E-3,1.8786882E-1,-1.4880869E-3,-3.7339635E-3,-4.906103E-2,2.8244266E-3,2.3009662E-1,1.0747863E-2,3.9877483E-1,-6.481619E-1,-3.6944203E-2,1.7487434E-1,-2.4673474E-1,5.713727E-3,4.649763E-1,-1.9197668E-1,2.8647763E-1,-4.074687E-1,2.0729476E-1,-1.6110383E-2,7.644026E-1,1.4617041E-2,-3.595527E-1,1.2261402E-1,2.6072512E0,1.0768128E-1,-3.9359206E-1,3.8931033E-1,3.5105206E-2,1.23812795E-1,5.2553856E-1,-6.117878E-1,-1.4994885E-2,-8.811328E-2,1.2716588E-1,2.6054308E0,-7.5686835E-2,6.9922966E-1,-1.8475434E-1,-2.5524643E-1,2.3465937E-1],"split_indices":[0,1,0,1,4,0,0,6,5,10,8,2,6,2,0,0,8,0,0,1,14,16,15,0,0,9,0,0,0,0,14,0,0,0,0,0,0,0,0,0,0,16,1,0,0,0,0],"split_type":[0,0,0,0,0,0,0,0,0,0,0,0,0,0,0,0,0,0,0,0,0,0,0,0,0,0,0,0,0,0,0,0,0,0,0,0,0,0,0,0,0,0,0,0,0,0,0],"sum_hessian":[8.256E3,4.723E3,3.533E3,2.903E3,6.3E2,1.473E3,3.25E3,1.478E3,1.772E3,4.2E2,1.053E3,1.32E3,1.583E3,1.366E3,2.17E2,1.05E2,9.48E2,4.36E2,5.12E2,1.218E3,5.54E2,9.84E2,3.36E2,9.8E1,2.38E2,1.284E3,1.94E2,1.144E3,2.22E2,5.2E1,5.78E2,9.2E1,8.92E2,1.063E3,2.21E2,3.15E2,2.39E2,5.15E2,6.3E1,6.35E2,5.83E2,1.78E2,2.42E2,1.33E2,4.5E1,5.6E1,1.86E2],"tree_param":{"num_deleted":"0","num_feature":"17","num_nodes":"47","size_leaf_vector":"1"}},{"base_weights":[-1.5092564E-2,-3.15815E-2,3.895131E-1,-5.4711115E-1,-2.0876752E-2,-5.30036E-2,1.3356432E-1,-2.8302225E-1,5.08688E-1,-5.7018556E-2,-1.133618E0,9.604642E-2,-1.3409898E-1,3.118423E-1,-1.0467821E-1,-1.9443835E-1,1.7067052E-1,4.16753E-2,5.671078E-1,7.2909635E-1,3.3825624E-1,-1.5383507E-1,2.8696945E-1],"categories":[],"categories_nodes":[],"categories_segments":[],"categories_sizes":[],"default_left":[0,0,0,0,0,0,0,0,0,0,0,0,0,0,0,0,0,0,0,0,0,0,0],"id":3,"left_children":[1,3,17,-1,5,11,7,9,19,-1,-1,13,15,-1,-1,-1,-1,21,-1,-1,-1,-1,-1],"loss_changes":[5.5919445E1,4.3684647E1,1.9051537E1,0E0,3.9559856E1,8.019293E1,2.2034253E2,1.2668585E2,1.7500748E1,0E0,0E0,1.02898346E2,8.018176E1,0E0,0E0,0E0,0E0,9.191877E0,0E0,0E0,0E0,0E0,0E0],"parents":[2147483647,0,0,1,1,4,4,6,6,7,7,5,5,11,11,12,12,2,2,8,8,17,17],"right_children":[2,4,18,-1,6,12,8,10,20,-1,-1,14,16,-1,-1,-1,-1,22,-1,-1,-1,-1,-1],"split_conditions":[5.5040885E-2,-9.519169E-2,8.378801E-2,-5.4711115E-1,1.7418195E0,-4.244586E-3,-2.3903812E-3,3.1158663E-3,-9.263312E-3,-5.7018556E-2,-1.133618E0,7.1136516E-1,9.531717E-1,3.118423E-1,-1.0467821E-1,-1.9443835E-1,1.7067052E-1,7.0620656E-2,5.671078E-1,7.2909635E-1,3.3825624E-1,-1.5383507E-1,2.8696945E-1],"split_indices":[1,1,13,0,14,7,7,8,11,0,0,16,15,0,0,0,0,1,0,0,0,0,0],"split_type":[0,0,0,0,0,0,0,0,0,0,0,0,0,0,0,0,0,0,0,0,0,0,0],"sum_hessian":[8.297E3,8.008E3,2.89E2,1.22E2,7.886E3,6.552E3,1.334E3,6.36E2,6.98E2,5.36E2,1E2,2.304E3,4.248E3,1.101E3,1.203E3,3.559E3,6.89E2,1.15E2,1.74E2,2.47E2,4.51E2,7.1E1,4.4E1],"tree_param":{"num_deleted":"0","num_feature":"17","num_nodes":"23","size_leaf_vector":"1"}},{"base_weights":[8.341755E-3,3.734707E-2,-1.567546E-1,-2.0185931E-1,3.0792317E-1,-4.541773E-1,-1.0879382E-1,5.5755764E-2,-1.4670865E-1,1.9805042E-2,2.3442835E-1,4.9048966E-1,-2.1847208E-1,1.8875529E-1,-7.3755505E-3,-1.06054164E-1,5.7032514E-2,-2.847448E-1,1.3467152E-1,5.692837E-1,-8.314091E-2,-2.7766114E-1,-2.4288299E-2,4.3542877E-2,-4.5286667E-1,-4.3153986E-1,6.00269E-2,2.8986037E-1,4.296118E-2,2.2908658E-1,6.04306E-1,1.5362503E-2,2.6366177E-1],"categories":[],"categories_nodes":[],"categories_segments":[],"categories_sizes":[],"default_left":[0,0,0,0,0,0,0,0,0,0,0,0,0,0,0,0,0,0,0,0,0,0,0,0,0,0,0,0,0,0,0,0,0],"id":4,"left_children":[1,7,3,5,19,-1,21,9,11,13,27,-1,17,31,15,-1,-1,-1,-1,-1,-1,25,23,-1,-1,-1,-1,29,-1,-1,-1,-1,-1],"loss_changes":[3.972068E1,2.41935E1,2.8355145E1,2.4891926E1,1.4791771E1,0E0,1.23747E1,4.111128E1,3.3797832E1,2.5002771E1,1.0747406E1,0E0,1.5911432E1,9.501711E0,3.0127462E1,0E0,0E0,0E0,0E0,0E0,0E0,1.643874E1,1.9647947E1,0E0,0E0,0E0,0E0,9.908257E0,0E0,0E0,0E0,0E0,0E0],"parents":[2147483647,0,0,2,2,3,3,1,1,7,7,8,8,9,9,14,14,12,12,4,4,6,6,22,22,21,21,10,10,27,27,13,13],"right_children":[2,8,4,6,20,-1,22,10,12,14,28,-1,18,32,16,-1,-1,-1,-1,-1,-1,26,24,-1,-1,-1,-1,30,-1,-1,-1,-1,-1],"split_conditions":[1.7280888E-2,2.6357284E-2,1.1280762E-2,2.5493923E-1,2.3932325E-2,-4.541773E-1,-5.742243E-2,1.4659515E-2,-2.6093643E-2,7.580302E-2,1.0486236E-2,4.9048966E-1,6.1316527E-2,5.8306134E-1,-2.315626E-2,-1.06054164E-1,5.7032514E-2,-2.847448E-1,1.3467152E-1,5.692837E-1,-8.314091E-2,1.9983817E0,3.1865256E0,4.3542877E-2,-4.5286667E-1,-4.3153986E-1,6.00269E-2,2.0200824E-2,4.296118E-2,2.2908658E-1,6.04306E-1,1.5362503E-2,2.6366177E-1],"split_indices":[0,3,7,16,1,0,4,8,0,13,0,0,1,16,1,0,0,0,0,0,0,16,16,0,0,0,0,3,0,0,0,0,0],"split_type":[0,0,0,0,0,0,0,0,0,0,0,0,0,0,0,0,0,0,0,0,0,0,0,0,0,0,0,0,0,0,0,0,0],"sum_hessian":[8.22E3,7.02E3,1.2E3,1.115E3,8.5E1,2.58E2,8.57E2,6.409E3,6.11E2,5.374E3,1.035E3,3.8E1,5.73E2,7.15E2,4.659E3,1.833E3,2.826E3,4.9E2,8.3E1,4.1E1,4.4E1,2.54E2,6.03E2,5.5E2,5.3E1,1.68E2,8.6E1,7.85E2,2.5E2,7.16E2,6.9E1,2.32E2,4.83E2],"tree_param":{"num_deleted":"0","num_feature":"17","num_nodes":"33","size_leaf_vector":"1"}},{"base_weights":[5.4739825E-3,5.0595146E-1,-4.3493104E-3,2.207001E-3,-4.0556675E-1,-1.2667163E-1,2.2091582E-2,-4.50037E-1,-5.949288E-3,-6.0257846E-1,5.844557E-2,-4.9955424E-2,5.6719717E-2,-4.6054876E-1,8.423118E-2,-1.5307066E-1,1.732849E-1,-1.316911E-1,1.4906836E-1],"categories":[],"categories_nodes":[],"categories_segments":[],"categories_sizes":[],"default_left":[0,0,0,0,0,0,0,0,0,0,0,0,0,0,0,0,0,0,0],"id":5,"left_children":[1,-1,3,5,-1,7,11,9,17,-1,-1,15,13,-1,-1,-1,-1,-1,-1],"loss_changes":[4.091953E1,0E0,2.163174E1,2.0662333E1,0E0,4.1719353E1,1.7583801E1,2.4244888E1,1.6848606E1,0E0,0E0,5.3737236E1,6.898779E1,0E0,0E0,0E0,0E0,0E0,0E0],"parents":[2147483647,0,0,2,2,3,3,5,5,7,7,6,6,12,12,11,11,8,8],"right_children":[2,-1,4,6,-1,8,12,10,18,-1,-1,16,14,-1,-1,-1,-1,-1,-1],"split_conditions":[-4.6942152E-2,5.0595146E-1,4.100691E-2,-4.9874816E-2,-4.0556675E-1,1.1339041E0,2.549395E-1,-9.845301E-3,-6.744804E-2,-6.0257846E-1,5.844557E-2,4.761807E-3,-1.7307436E-2,-4.6054876E-1,8.423118E-2,-1.5307066E-1,1.732849E-1,-1.316911E-1,1.4906836E-1],"split_indices":[0,0,0,1,0,15,14,11,1,0,0,3,10,0,0,0,0,0,0],"split_type":[0,0,0,0,0,0,0,0,0,0,0,0,0,0,0,0,0,0,0],"sum_hessian":[8.215E3,1.21E2,8.094E3,8.001E3,9.3E1,1.038E3,6.963E3,2.52E2,7.86E2,1.89E2,6.3E1,2.25E3,4.713E3,2.06E2,4.507E3,1.549E3,7.01E2,4.39E2,3.47E2],"tree_param":{"num_deleted":"0","num_feature":"17","num_nodes":"19","size_leaf_vector":"1"}},{"base_weights":[-2.4146896E-2,4.766939E-2,-1.1252875E-1,-2.5147983E-1,-1.3594371E-2,1.9859955E-1,-7.785684E-2,-1.3908371E-1,1.7306273E-1,3.2882158E-2,-3.1199235E-1,-9.443553E-2,-4.3748242E-1,2.20752E-1,-2.688571E-1,-1.4567643E-1,7.58318E-2,2.0044403E-1,-3.3425614E-1,-7.0628095E-1,-1.7601348E-2,4.8247453E-2,2.890373E-1,-1.1345312E-1,4.4501522E-1,-3.7151854E-2,1.2041267E-1,-4.6363553E-1,3.5873946E-2,3.6179973E-3,2.6162502E-1,-2.0973104E-1,3.568356E-1,3.1503895E-1,-1.1788575E-1,3.505367E-1,-2.2431691E-1,-3.692304E-1,1.5149178E-1,-1.5401765E-2,4.1171697E-1,-2.784835E-1,-7.6515555E-2,-3.1379363E-1,-6.3474417E-1,5.040805E-1,-3.0566653E-2],"categories":[],"categories_nodes":[],"categories_segments":[],"categories_sizes":[],"default_left":[0,0,0,0,0,0,0,0,0,0,0,0,0,0,0,0,0,0,0,0,0,0,0,0,0,0,0,0,0,0,0,0,0,0,0,0,0,0,0,0,0,0,0,0,0,0,0],"id":6,"left_children":[1,15,3,9,5,33,7,41,-1,37,11,13,43,-1,-1,17,21,35,19,-1,31,25,23,-1,45,27,29,-1,-1,-1,-1,-1,-1,-1,-1,-1,-1,-1,39,-1,-1,-1,-1,-1,-1,-1,-1],"loss_changes":[5.2989223E1,2.54956E1,5.1150997E1,2.7232353E1,3.092971E1,2.0986712E1,2.7662697E1,1.1394011E1,0E0,1.668849E1,3.317711E1,3.1008617E1,1.1297226E1,0E0,0E0,4.1670563E1,2.3111818E1,1.8078548E1,4.654129E1,0E0,2.1437683E1,2.2625877E1,3.0657219E1,0E0,1.0290413E1,5.3574265E1,3.254562E1,0E0,0E0,0E0,0E0,0E0,0E0,0E0,0E0,0E0,0E0,0E0,1.1963945E1,0E0,0E0,0E0,0E0,0E0,0E0,0E0,0E0],"parents":[2147483647,0,0,2,2,4,4,6,6,3,3,10,10,11,11,1,1,15,15,18,18,16,16,22,22,21,21,25,25,26,26,20,20,5,5,17,17,9,9,38,38,7,7,12,12,24,24],"right_children":[2,16,4,10,6,34,8,42,-1,38,12,14,44,-1,-1,18,22,36,20,-1,32,26,24,-1,46,28,30,-1,-1,-1,-1,-1,-1,-1,-1,-1,-1,-1,40,-1,-1,-1,-1,-1,-1,-1,-1],"split_conditions":[-1.0582395E-2,-3.4397355E-1,2.2371877E-3,-7.0857495E-2,5.711125E-1,1.0249771E-2,2.7669225E-2,-3.0408234E-3,1.7306273E-1,4.9511054E-1,1.805497E-1,-1.9047549E-3,5.1619783E-3,2.20752E-1,-2.688571E-1,-1.8400654E-2,9.158704E-3,-1.2489463E-2,2.6247356E-2,-7.0628095E-1,-5.7622284E-1,6.727837E-1,-1.8400654E-2,-1.1345312E-1,1.878689E-1,-2.8045548E-2,-4.5090206E-2,-4.6363553E-1,3.5873946E-2,3.6179973E-3,2.6162502E-1,-2.0973104E-1,3.568356E-1,3.1503895E-1,-1.1788575E-1,3.505367E-1,-2.2431691E-1,-3.692304E-1,4.761807E-3,-1.5401765E-2,4.1171697E-1,-2.784835E-1,-7.6515555E-2,-3.1379363E-1,-6.3474417E-1,5.040805E-1,-3.0566653E-2],"split_indices":[8,15,1,4,14,10,8,10,0,16,16,10,11,0,0,7,1,10,1,0,15,15,7,0,6,1,1,0,0,0,0,0,0,0,0,0,0,0,3,0,0,0,0,0,0,0,0],"split_type":[0,0,0,0,0,0,0,0,0,0,0,0,0,0,0,0,0,0,0,0,0,0,0,0,0,0,0,0,0,0,0,0,0,0,0,0,0,0,0,0,0,0,0,0,0,0,0],"sum_hessian":[8.271E3,4.57E3,3.701E3,1.512E3,2.189E3,4.88E2,1.701E3,1.383E3,3.18E2,2.67E2,1.245E3,4.82E2,7.63E2,1.67E2,3.15E2,5.58E2,4.012E3,1.95E2,3.63E2,1.44E2,2.19E2,3.597E3,4.15E2,1.18E2,2.97E2,1.653E3,1.944E3,2.12E2,1.441E3,1.088E3,8.56E2,1.57E2,6.2E1,3.58E2,1.3E2,1.5E2,4.5E1,4.1E1,2.26E2,1.59E2,6.7E1,3.84E2,9.99E2,5.33E2,2.3E2,2.63E2,3.4E1],"tree_param":{"num_deleted":"0","num_feature":"17","num_nodes":"47","size_leaf_vector":"1"}},{"base_weights":[1.6532289E-2,5.9068583E-2,-5.330913E-2,-8.1669725E-2,1.9885711E-1,-9.5076E-2,3.522432E-1,3.3897418E-1,-8.03025E-2,1.847226E-1,3.745793E-2,5.5656333E-2,-2.2466187E-1,4.0729684E-1,9.680389E-2,-1.7678396E-1,-3.8792044E-2,-8.182316E-2,-3.339248E-1,-1.13335036E-1,1.8957151E-1,3.4587258E-1,-3.1856036E-1,-1.4850198E-1,1.7388843E-2,-6.6414125E-2,2.7809715E-1,-3.0341777E-1,1.1624657E-1],"categories":[],"categories_nodes":[],"categories_segments":[],"categories_sizes":[],"default_left":[0,0,0,0,0,0,0,0,0,0,0,0,0,0,0,0,0,0,0,0,0,0,0,0,0,0,0,0,0],"id":7,"left_children":[1,9,3,5,7,15,-1,-1,-1,13,11,-1,27,-1,19,17,23,-1,-1,21,25,-1,-1,-1,-1,-1,-1,-1,-1],"loss_changes":[2.449622E1,1.3525061E1,2.2899632E1,1.7678835E1,1.3918126E1,1.2419184E1,0E0,0E0,0E0,1.2652584E1,2.1507137E1,0E0,9.350025E0,0E0,1.2228806E1,1.544067E1,1.065341E1,0E0,0E0,2.3268663E1,1.0353993E1,0E0,0E0,0E0,0E0,0E0,0E0,0E0,0E0],"parents":[2147483647,0,0,2,2,3,3,4,4,1,1,10,10,9,9,5,5,15,15,14,14,19,19,16,16,20,20,12,12],"right_children":[2,10,4,6,8,16,-1,-1,-1,14,12,-1,28,-1,20,18,24,-1,-1,22,26,-1,-1,-1,-1,-1,-1,-1,-1],"split_conditions":[2.935834E-3,-1.8402461E-2,1.7126644E0,2.285434E0,1.7740412E-2,-2.9950071E-2,3.522432E-1,3.3897418E-1,-8.03025E-2,-1.1938266E-2,1.6522999E0,5.5656333E-2,2.3549076E-3,4.0729684E-1,-8.312879E-3,1.387746E0,6.078205E-1,-8.182316E-2,-3.339248E-1,-3.647665E-2,-3.7578303E-2,3.4587258E-1,-3.1856036E-1,-1.4850198E-1,1.7388843E-2,-6.6414125E-2,2.7809715E-1,-3.0341777E-1,1.1624657E-1],"split_indices":[2,0,15,14,3,5,0,0,0,2,15,0,2,0,2,16,16,0,0,0,0,0,0,0,0,0,0,0,0],"split_type":[0,0,0,0,0,0,0,0,0,0,0,0,0,0,0,0,0,0,0,0,0,0,0,0,0,0,0,0,0],"sum_hessian":[8.164E3,5.082E3,3.082E3,2.796E3,2.86E2,2.743E3,5.3E1,1.86E2,1E2,6.99E2,4.383E3,4.129E3,2.54E2,1.56E2,5.43E2,1.081E3,1.662E3,7.13E2,3.68E2,1.62E2,3.81E2,4.1E1,1.21E2,5.44E2,1.118E3,9.9E1,2.82E2,2.11E2,4.3E1],"tree_param":{"num_deleted":"0","num_feature":"17","num_nodes":"29","size_leaf_vector":"1"}},{"base_weights":[1.8408858E-3,1.05983816E-1,-1.0636342E-2,-1.2721907E-1,2.4884525E-1,5.733717E-2,4.267742E-1,2.9655242E-2,-6.0157042E-2,1.5750112E-1,-9.693983E-2,-1.4980659E-1,5.686232E-2,1.3456256E-2,2.966521E-1,1.6317593E-1,-3.0633616E-1,-1.4148463E-1,3.4027576E-1,-6.3076526E-2,-2.2542065E-1,-1.912549E-1,2.8631216E-2,-3.206152E-1,1.5050809E-1,-6.480581E-3,1.1874655E-1,-1.18525125E-1,1.3679276E-1,8.043971E-2,4.589536E-1,-2.4408104E-1,1.7510742E-1,-1.10085225E-2,4.946335E-1],"categories":[],"categories_nodes":[],"categories_segments":[],"categories_sizes":[],"default_left":[0,0,0,0,0,0,0,0,0,0,0,0,0,0,0,0,0,0,0,0,0,0,0,0,0,0,0,0,0,0,0,0,0,0,0],"id":8,"left_children":[1,3,7,-1,5,15,33,13,9,29,11,19,27,21,-1,17,-1,-1,-1,-1,-1,23,25,-1,-1,-1,-1,-1,-1,31,-1,-1,-1,-1,-1],"loss_changes":[1.0917134E1,3.1259464E1,1.4992043E1,0E0,1.829808E1,1.428992E1,9.050568E0,1.7598331E1,2.7550148E1,9.90689E0,2.4034513E1,1.3587399E1,1.1444102E1,1.2392645E1,0E0,1.6890547E1,0E0,0E0,0E0,0E0,0E0,1.41451235E1,1.1827053E1,0E0,0E0,0E0,0E0,0E0,0E0,1.5382601E1,0E0,0E0,0E0,0E0,0E0],"parents":[2147483647,0,0,1,1,4,4,2,2,8,8,10,10,7,7,5,5,15,15,11,11,13,13,21,21,22,22,12,12,9,9,29,29,6,6],"right_children":[2,4,8,-1,6,16,34,14,10,30,12,20,28,22,-1,18,-1,-1,-1,-1,-1,24,26,-1,-1,-1,-1,-1,-1,32,-1,-1,-1,-1,-1],"split_conditions":[-3.2086197E-2,6.132314E-1,1.0232645E0,-1.2721907E-1,8.953698E-2,1.9775928E0,9.801815E-1,7.350388E-1,-5.8268517E-2,2.5828533E0,-8.558995E-3,-6.125641E-3,1.3393542E0,-7.8626364E-2,2.966521E-1,1.0232645E0,-3.0633616E-1,-1.4148463E-1,3.4027576E-1,-6.3076526E-2,-2.2542065E-1,2.6780523E-3,7.298459E-3,-3.206152E-1,1.5050809E-1,-6.480581E-3,1.1874655E-1,-1.18525125E-1,1.3679276E-1,1.1646599E0,4.589536E-1,-2.4408104E-1,1.7510742E-1,-1.10085225E-2,4.946335E-1],"split_indices":[3,14,14,0,6,16,16,15,12,16,4,0,16,4,0,14,0,0,0,0,0,0,7,0,0,0,0,0,0,14,0,0,0,0,0],"split_type":[0,0,0,0,0,0,0,0,0,0,0,0,0,0,0,0,0,0,0,0,0,0,0,0,0,0,0,0,0,0,0,0,0,0,0],"sum_hessian":[8.292E3,8.6E2,7.432E3,3.27E2,5.33E2,2.83E2,2.5E2,4.101E3,3.331E3,4.61E2,2.87E3,2.139E3,7.31E2,3.907E3,1.94E2,2.37E2,4.6E1,8.9E1,1.48E2,1.033E3,1.106E3,2.36E2,3.671E3,1.74E2,6.2E1,2.664E3,1.007E3,2.21E2,5.1E2,4.08E2,5.3E1,7.7E1,3.31E2,3.7E1,2.13E2],"tree_param":{"num_deleted":"0","num_feature":"17","num_nodes":"35","size_leaf_vector":"1"}},{"base_weights":[2.838314E-3,-1.424405E-1,4.0739093E-2,-1.8148984E-1,1.4584012E-1,4.741386E-2,-2.450656E-1,3.147702E-1,-4.1720292E-1,-3.7496907E-1,-4.3028876E-2,2.8864223E-1,-2.5127307E-1,-4.4141516E-1,4.098426E-2,4.9191162E-1,-2.6122052E-2,-1.8765554E-1,3.2696736E-1,4.9514174E-1,-7.876133E-2,1.08268574E-1,1.444656E-2,-1.06586955E-1,1.7784989E-1,1.559457E-1,-1.8232744E-2,-1.949026E-1,2.4025504E-2,-3.74885E-1,6.1025564E-2,-1.9192626E-1,2.2073236E-1,2.3948868E-1,-4.7224966E-1,3.123034E-1,3.4711491E-3,4.3342862E-2,2.7039462E-1,3.5286742E-1,3.2188784E-2,1.219428E-1,4.355089E-1,5.0799984E-2,-5.103118E-1,-2.5603142E-1,4.488119E-2,-9.4835125E-2,2.480499E-1,8.865318E-2,-2.8553763E-1],"categories":[],"categories_nodes":[],"categories_segments":[],"categories_sizes":[],"default_left":[0,0,0,0,0,0,0,0,0,0,0,0,0,0,0,0,0,0,0,0,0,0,0,0,0,0,0,0,0,0,0,0,0,0,0,0,0,0,0,0,0,0,0,0,0,0,0,0,0,0,0],"id":9,"left_children":[1,3,21,5,17,7,9,15,-1,13,11,-1,-1,-1,-1,-1,-1,-1,19,-1,-1,23,25,29,37,31,27,45,35,43,47,33,41,-1,-1,-1,-1,49,39,-1,-1,-1,-1,-1,-1,-1,-1,-1,-1,-1,-1],"loss_changes":[4.5741577E1,2.0396687E1,1.15895E1,2.2850788E1,1.607651E1,5.033761E1,3.08433E1,1.6088202E1,0E0,2.104712E1,3.8621532E1,0E0,0E0,0E0,0E0,0E0,0E0,0E0,1.2736441E1,0E0,0E0,2.824389E1,2.2366972E1,2.2286243E1,1.6864307E1,2.2119871E1,2.9610046E1,1.1775835E1,1.878855E1,1.2096771E1,1.0420468E1,2.4166069E1,1.4281979E1,0E0,0E0,0E0,0E0,1.01536875E1,1.552272E1,0E0,0E0,0E0,0E0,0E0,0E0,0E0,0E0,0E0,0E0,0E0,0E0],"parents":[2147483647,0,0,1,1,3,3,5,5,6,6,10,10,9,9,7,7,4,4,18,18,2,2,21,21,22,22,26,26,23,23,25,25,31,31,28,28,24,24,38,38,32,32,29,29,27,27,30,30,37,37],"right_children":[2,4,22,6,18,8,10,16,-1,14,12,-1,-1,-1,-1,-1,-1,-1,20,-1,-1,24,26,30,38,32,28,46,36,44,48,34,42,-1,-1,-1,-1,50,40,-1,-1,-1,-1,-1,-1,-1,-1,-1,-1,-1,-1],"split_conditions":[-3.771596E-2,2.784681E0,-3.1509694E-2,-1.4325795E-2,-3.4377E-2,2.2658756E0,1.9518073E0,-4.7454666E-2,-4.1720292E-1,6.3284114E-3,-5.6980257E-3,2.8864223E-1,-2.5127307E-1,-4.4141516E-1,4.098426E-2,4.9191162E-1,-2.6122052E-2,-1.8765554E-1,2.1500422E-2,4.9514174E-1,-7.876133E-2,-9.635473E-2,-1.5291197E-2,1.4770497E-2,-1.5770629E-2,-1.4325795E-2,-3.587412E-3,6.712813E-3,-1.7104102E-2,-3.6908865E-1,-4.54085E-1,8.9676654E-1,-2.0026466E-2,2.3948868E-1,-4.7224966E-1,3.123034E-1,3.4711491E-3,1.6386712E-2,1.1048886E-1,3.5286742E-1,3.2188784E-2,1.219428E-1,4.355089E-1,5.0799984E-2,-5.103118E-1,-2.5603142E-1,4.488119E-2,-9.4835125E-2,2.480499E-1,8.865318E-2,-2.8553763E-1],"split_indices":[1,14,5,10,12,16,16,1,0,2,7,0,0,0,0,0,0,0,5,0,0,15,1,1,1,10,1,2,2,16,15,16,1,0,0,0,0,0,6,0,0,0,0,0,0,0,0,0,0,0,0],"split_type":[0,0,0,0,0,0,0,0,0,0,0,0,0,0,0,0,0,0,0,0,0,0,0,0,0,0,0,0,0,0,0,0,0,0,0,0,0,0,0,0,0,0,0,0,0,0,0,0,0,0,0],"sum_hessian":[8.236E3,1.679E3,6.557E3,1.493E3,1.86E2,3.25E2,1.168E3,2.15E2,1.1E2,6.89E2,4.79E2,1.78E2,3.01E2,5.93E2,9.6E1,1.31E2,8.4E1,6.4E1,1.22E2,8.1E1,4.1E1,1.798E3,4.759E3,4.33E2,1.365E3,8.68E2,3.891E3,7.26E2,3.165E3,1.49E2,2.84E2,1.23E2,7.45E2,5E1,7.3E1,1.72E2,2.993E3,5.82E2,7.83E2,5.66E2,2.17E2,5.54E2,1.91E2,4.1E1,1.08E2,5.78E2,1.48E2,1.64E2,1.2E2,5.38E2,4.4E1],"tree_param":{"num_deleted":"0","num_feature":"17","num_nodes":"51","size_leaf_vector":"1"}},{"base_weights":[-1.6821004E-3,2.3864642E-2,-6.68606E-2,4.1261113E-1,-8.368061E-2,-1.7542614E-1,2.80869E-2,-1.0665523E-1,2.304587E-1,3.67492E-1,-2.0467748E-1,-3.709741E-1,-1.0420738E-1,-4.849743E-2,6.461209E-2,-3.0642805E-1,1.1708341E-3,-4.7190007E-2,-6.6837597E-1,-9.881713E-2,9.968259E-2,3.7631336E-1,5.9388835E-2,-4.007283E-1,2.7622985E-2,1.2300682E-1,-8.175159E-2,3.7963754E-1,-6.473575E-2,-1.7355118E-4,1.4586979E-1,4.4698812E-2,4.9587044E-1,-5.099294E-1,7.657948E-2,-1.6262586E-1,4.537102E-2,-3.0705538E-1,-1.7579863E-2,2.2326745E-1,-7.647565E-3],"categories":[],"categories_nodes":[],"categories_segments":[],"categories_sizes":[],"default_left":[0,0,0,0,0,0,0,0,0,0,0,0,0,0,0,0,0,0,0,0,0,0,0,0,0,0,0,0,0,0,0,0,0,0,0,0,0,0,0,0,0],"id":10,"left_children":[1,13,3,-1,5,9,7,37,-1,-1,11,-1,-1,15,19,17,25,-1,-1,23,21,31,29,33,27,39,35,-1,-1,-1,-1,-1,-1,-1,-1,-1,-1,-1,-1,-1,-1],"loss_changes":[1.3876164E1,1.774607E1,2.0128904E1,0E0,2.387313E1,2.3071796E1,3.0182451E1,1.1538683E1,0E0,0E0,1.8855484E1,0E0,0E0,2.7967628E1,2.2413773E1,3.145998E1,1.9177494E1,0E0,0E0,2.719469E1,3.4422935E1,1.4576881E1,1.4648895E1,1.2653843E1,1.8229504E1,1.0265203E1,1.1928322E1,0E0,0E0,0E0,0E0,0E0,0E0,0E0,0E0,0E0,0E0,0E0,0E0,0E0,0E0],"parents":[2147483647,0,0,2,2,4,4,6,6,5,5,10,10,1,1,13,13,15,15,14,14,20,20,19,19,16,16,24,24,22,22,21,21,23,23,26,26,7,7,25,25],"right_children":[2,14,4,-1,6,10,8,38,-1,-1,12,-1,-1,16,20,18,26,-1,-1,24,22,32,30,34,28,40,36,-1,-1,-1,-1,-1,-1,-1,-1,-1,-1,-1,-1,-1,-1],"split_conditions":[9.009024E-3,3.1082454E-1,-4.906103E-2,4.1261113E-1,-1.4915216E-2,-1.2897904E0,7.7561656E-4,-1.7619094E-2,2.304587E-1,3.67492E-1,6.371963E-1,-3.709741E-1,-1.0420738E-1,-4.8561707E-2,-5.968139E-2,3.9488173E-1,-1.9047549E-3,-4.7190007E-2,-6.6837597E-1,1.8983467E0,-2.6394911E-2,5.992192E-1,1.4239982E0,1.378872E0,-2.8058186E-2,5.562399E-2,6.7549823E-3,3.7963754E-1,-6.473575E-2,-1.7355118E-4,1.4586979E-1,4.4698812E-2,4.9587044E-1,-5.099294E-1,7.657948E-2,-1.6262586E-1,4.537102E-2,-3.0705538E-1,-1.7579863E-2,2.2326745E-1,-7.647565E-3],"split_indices":[0,15,8,0,5,16,10,3,0,0,14,0,0,8,1,16,10,0,0,14,11,15,14,15,11,14,8,0,0,0,0,0,0,0,0,0,0,0,0,0,0],"split_type":[0,0,0,0,0,0,0,0,0,0,0,0,0,0,0,0,0,0,0,0,0,0,0,0,0,0,0,0,0,0,0,0,0,0,0,0,0,0,0,0,0],"sum_hessian":[8.244E3,5.935E3,2.309E3,4.6E1,2.263E3,1.233E3,1.03E3,6.28E2,4.02E2,3.9E1,1.194E3,4.08E2,7.86E2,2.131E3,3.804E3,3.13E2,1.818E3,2.09E2,1.04E2,6.57E2,3.147E3,3.57E2,2.79E3,1.7E2,4.87E2,7.31E2,1.087E3,7.7E1,4.1E2,1.672E3,1.118E3,1.1E2,2.47E2,1.37E2,3.3E1,6.6E2,4.27E2,1.62E2,4.66E2,4E2,3.31E2],"tree_param":{"num_deleted":"0","num_feature":"17","num_nodes":"41","size_leaf_vector":"1"}},{"base_weights":[-9.68435E-3,6.00726E-2,-3.783574E-2,-2.4039547E-3,1.9453381E-1,-1.8717943E-1,3.1946436E-1,5.7541154E-2,-2.4080992E-1,2.23967E-2,-9.369977E-2,-1.8013036E-1,-1.6934972E-2,9.187842E-2,-1.2644644E-1,5.784207E-1,3.9116036E-2,-5.102071E-1,-1.3414977E-1,-8.944479E-3,-7.108082E-1,1.8784441E-1,-8.73529E-3,5.713872E-1,1.8793163E-1,-5.4605834E-2,1.5107402E-1,-2.9499719E-2,2.8097004E-1,8.119218E-2,-2.0806922E-1,5.989135E-2,-1.8170793E-1,9.295736E-2,-3.3552524E-1,-2.6169112E-2,2.3796359E-1,-3.5002914E-1,-0E0,-1.6064589E-1,1.7777504E-1],"categories":[],"categories_nodes":[],"categories_segments":[],"categories_sizes":[],"default_left":[0,0,0,0,0,0,0,0,0,0,0,0,0,0,0,0,0,0,0,0,0,0,0,0,0,0,0,0,0,0,0,0,0,0,0,0,0,0,0,0,0],"id":11,"left_children":[1,3,9,7,5,-1,23,25,33,21,11,17,13,15,39,-1,-1,19,31,-1,-1,-1,35,-1,-1,29,27,-1,-1,-1,-1,-1,-1,-1,-1,37,-1,-1,-1,-1,-1],"loss_changes":[1.622438E1,2.0058372E1,1.9926949E1,2.431711E1,3.8471264E1,0E0,1.4807198E1,1.4575707E1,1.2164221E1,1.48868265E1,2.0126312E1,1.8780445E1,2.0374796E1,2.0838436E1,9.971317E0,0E0,0E0,1.5506477E1,1.2619547E1,0E0,0E0,0E0,1.0643563E1,0E0,0E0,1.4110754E1,1.8073307E1,0E0,0E0,0E0,0E0,0E0,0E0,0E0,0E0,1.951264E1,0E0,0E0,0E0,0E0,0E0],"parents":[2147483647,0,0,1,1,4,4,3,3,2,2,10,10,12,12,13,13,11,11,17,17,9,9,6,6,7,7,26,26,25,25,18,18,8,8,22,22,35,35,14,14],"right_children":[2,4,10,8,6,-1,24,26,34,22,12,18,14,16,40,-1,-1,20,32,-1,-1,-1,36,-1,-1,30,28,-1,-1,-1,-1,-1,-1,-1,-1,38,-1,-1,-1,-1,-1],"split_conditions":[-6.0698118E-2,9.621822E-1,5.2673054E-1,1.2855498E0,-7.8096054E-2,-1.8717943E-1,-4.60498E-2,8.953698E-2,-7.95537E-2,-1.2380953E-2,1.5902545E0,-2.9737264E-2,1.4037995E0,-2.3196774E-2,7.0620656E-2,5.784207E-1,3.9116036E-2,7.1725947E-1,5.479499E-1,-8.944479E-3,-7.108082E-1,1.8784441E-1,2.5519306E-2,5.713872E-1,1.8793163E-1,-2.321111E-3,6.2348243E-2,-2.9499719E-2,2.8097004E-1,8.119218E-2,-2.0806922E-1,5.989135E-2,-1.8170793E-1,9.295736E-2,-3.3552524E-1,-1.0801256E0,2.3796359E-1,-3.5002914E-1,-0E0,-1.6064589E-1,1.7777504E-1],"split_indices":[9,15,15,16,1,0,8,6,9,0,16,3,15,11,1,0,0,15,16,0,0,0,0,0,0,0,15,0,0,0,0,0,0,0,0,14,0,0,0,0,0],"split_type":[0,0,0,0,0,0,0,0,0,0,0,0,0,0,0,0,0,0,0,0,0,0,0,0,0,0,0,0,0,0,0,0,0,0,0,0,0,0,0,0,0],"sum_hessian":[8.183E3,2.335E3,5.848E3,1.618E3,7.17E2,1.71E2,5.46E2,1.315E3,3.03E2,2.821E3,3.027E3,1.396E3,1.631E3,8.19E2,8.12E2,4.1E1,7.78E2,1.21E2,1.275E3,4.7E1,7.4E1,4.18E2,2.403E3,1.41E2,4.05E2,6.03E2,7.12E2,3.09E2,4.03E2,3.28E2,2.75E2,2.47E2,1.028E3,6.6E1,2.37E2,2.279E3,1.24E2,1.33E2,2.146E3,7.48E2,6.4E1],"tree_param":{"num_deleted":"0","num_feature":"17","num_nodes":"41","size_leaf_vector":"1"}},{"base_weights":[2.3567421E-2,-7.6858844E-3,1.0494052E-1,1.267222E-1,-3.1619478E-2,-7.684664E-2,1.680063E-2,-1.714522E-1,2.8468254E-3,1.9522023E-1,-7.575816E-2,-2.4923109E-1,1.7638724E-2,-5.5150043E-2,7.626698E-2,4.385837E-2,-2.0589378E-1,-1.8629754E-1,1.1172689E-1],"categories":[],"categories_nodes":[],"categories_segments":[],"categories_sizes":[],"default_left":[0,0,0,0,0,0,0,0,0,0,0,0,0,0,0,0,0,0,0],"id":12,"left_children":[1,3,-1,-1,5,7,13,11,9,-1,-1,-1,-1,15,17,-1,-1,-1,-1],"loss_changes":[2.1173618E1,1.949067E1,0E0,0E0,1.1354401E1,2.0264622E1,1.0928302E1,1.8326962E1,2.3131788E1,0E0,0E0,0E0,0E0,1.7693329E1,1.3782948E1,0E0,0E0,0E0,0E0],"parents":[2147483647,0,0,1,1,4,4,5,5,8,8,7,7,6,6,13,13,14,14],"right_children":[2,4,-1,-1,6,8,14,12,10,-1,-1,-1,-1,16,18,-1,-1,-1,-1],"split_conditions":[1.4357675E-2,-2.1882491E-2,1.0494052E-1,1.267222E-1,-1.4332413E-2,8.342597E-1,2.4156282E-3,1.4659515E-2,1.4797798E0,1.9522023E-1,-7.575816E-2,-2.4923109E-1,1.7638724E-2,6.078205E-1,-2.2719769E-1,4.385837E-2,-2.0589378E-1,-1.8629754E-1,1.1172689E-1],"split_indices":[1,7,0,0,1,15,7,8,16,0,0,0,0,16,14,0,0,0,0],"split_type":[0,0,0,0,0,0,0,0,0,0,0,0,0,0,0,0,0,0,0],"sum_hessian":[8.254E3,5.985E3,2.269E3,8.76E2,5.109E3,2.635E3,2.474E3,1.187E3,1.448E3,4.05E2,1.043E3,8.34E2,3.53E2,1.117E3,1.357E3,6.89E2,4.28E2,1.4E2,1.217E3],"tree_param":{"num_deleted":"0","num_feature":"17","num_nodes":"19","size_leaf_vector":"1"}},{"base_weights":[-1.9212171E-2,3.10297E-2,-5.9729375E-2,-3.5487212E-2,8.7057665E-2,1.9112965E-2,-3.1207865E-1,-6.4079696E-1,5.8595326E-2,1.1205629E-1,-2.9784888E-1,3.8967302E-1,-2.2775632E-1,2.1530676E-1,3.5149302E-2,-1.0999475E-1,8.47223E-2,8.357159E-2,-1.5651229E-1,-1.3070633E-1,1.2720485E-1],"categories":[],"categories_nodes":[],"categories_segments":[],"categories_sizes":[],"default_left":[0,0,0,0,0,0,0,0,0,0,0,0,0,0,0,0,0,0,0,0,0],"id":13,"left_children":[1,3,-1,5,9,15,7,-1,11,13,-1,-1,-1,-1,17,-1,19,-1,-1,-1,-1],"loss_changes":[1.6904274E1,1.3966321E1,0E0,2.6342052E1,2.0732693E1,1.2815617E1,3.6759563E1,0E0,1.9695904E1,1.494112E1,0E0,0E0,0E0,0E0,1.1227909E1,0E0,9.806805E0,0E0,0E0,0E0,0E0],"parents":[2147483647,0,0,1,1,3,3,6,6,4,4,8,8,9,9,5,5,14,14,16,16],"right_children":[2,4,-1,6,10,16,8,-1,12,14,-1,-1,-1,-1,18,-1,20,-1,-1,-1,-1],"split_conditions":[-2.3105282E-2,4.754694E-1,-5.9729375E-2,8.6217237E-1,2.4002131E-2,-2.3196774E-2,-1.061632E-2,-6.4079696E-1,-2.4819173E-2,9.531717E-1,-2.9784888E-1,3.8967302E-1,-2.2775632E-1,2.1530676E-1,-2.312432E-2,-1.0999475E-1,-8.906369E-3,8.357159E-2,-1.5651229E-1,-1.3070633E-1,1.2720485E-1],"split_indices":[8,15,0,16,0,11,10,0,3,15,0,0,0,0,12,0,1,0,0,0,0],"split_type":[0,0,0,0,0,0,0,0,0,0,0,0,0,0,0,0,0,0,0,0,0],"sum_hessian":[8.221E3,3.669E3,4.552E3,1.68E3,1.989E3,1.432E3,2.48E2,1.17E2,1.31E2,1.895E3,9.4E1,5.5E1,7.6E1,7.76E2,1.119E3,4.71E2,9.61E2,9.13E2,2.06E2,1.43E2,8.18E2],"tree_param":{"num_deleted":"0","num_feature":"17","num_nodes":"21","size_leaf_vector":"1"}},{"base_weights":[3.6674922E-3,-1.0044785E-2,1.4612134E-1,-6.34086E-2,2.4042701E-2,5.4009326E-2,-7.414403E-2,-1.701472E-2,1.547907E-1,5.173562E-1,9.752956E-2,6.1909992E-2,-1.4657708E-1,2.4034424E-1,-2.553942E-3,-2.4150911E-1,-2.029659E-2,3.0249676E-1,-5.6426756E-2],"categories":[],"categories_nodes":[],"categories_segments":[],"categories_sizes":[],"default_left":[0,0,0,0,0,0,0,0,0,0,0,0,0,0,0,0,0,0,0],"id":14,"left_children":[1,3,13,-1,5,7,15,11,9,-1,-1,-1,-1,-1,-1,-1,17,-1,-1],"loss_changes":[1.6309015E1,1.3889565E1,1.0415548E1,0E0,1.3843982E1,2.589119E1,9.603523E0,2.2286652E1,2.869569E1,0E0,0E0,0E0,0E0,0E0,0E0,0E0,1.0791311E1,0E0,0E0],"parents":[2147483647,0,0,1,1,4,4,5,5,8,8,7,7,2,2,6,6,16,16],"right_children":[2,4,14,-1,6,8,16,12,10,-1,-1,-1,-1,-1,-1,-1,18,-1,-1],"split_conditions":[1.7126644E0,-2.9915828E-2,-5.3803185E-3,-6.34086E-2,1.0104808E0,8.7668514E-1,1.1257383E0,8.752848E-4,-2.019153E-2,5.173562E-1,9.752956E-2,6.1909992E-2,-1.4657708E-1,2.4034424E-1,-2.553942E-3,-2.4150911E-1,1.3723799E0,3.0249676E-1,-5.6426756E-2],"split_indices":[15,5,0,0,15,16,15,10,11,0,0,0,0,0,0,0,14,0,0],"split_type":[0,0,0,0,0,0,0,0,0,0,0,0,0,0,0,0,0,0,0],"sum_hessian":[8.246E3,7.552E3,6.94E2,2.936E3,4.616E3,3.554E3,1.062E3,2.101E3,1.453E3,1.54E2,1.299E3,1.316E3,7.85E2,4.12E2,2.82E2,2.23E2,8.39E2,5.4E1,7.85E2],"tree_param":{"num_deleted":"0","num_feature":"17","num_nodes":"19","size_leaf_vector":"1"}},{"base_weights":[1.0022618E-2,-2.53741E-1,1.8870566E-2,2.4489209E-2,-1.8390521E-1],"categories":[],"categories_nodes":[],"categories_segments":[],"categories_sizes":[],"default_left":[0,0,0,0,0],"id":15,"left_children":[1,-1,3,-1,-1],"loss_changes":[1.9294294E1,0E0,9.225003E0,0E0,0E0],"parents":[2147483647,0,0,2,2],"right_children":[2,-1,4,-1,-1],"split_conditions":[-8.497323E-2,-2.53741E-1,3.6956493E-2,2.4489209E-2,-1.8390521E-1],"split_indices":[1,0,0,0,0],"split_type":[0,0,0,0,0],"sum_hessian":[8.197E3,2.29E2,7.968E3,7.789E3,1.79E2],"tree_param":{"num_deleted":"0","num_feature":"17","num_nodes":"5","size_leaf_vector":"1"}},{"base_weights":[-1.9390209E-2,5.8505338E-2,-3.9588515E-2,-1.03320956E-1,-9.7353505E-3,-2.2903529E-1,3.2939147E-2,1.0160427E-1,-1.00745365E-1,-2.2518507E-1,2.4474435E-1,1.7828496E-1,-2.4986587E-1,-6.377284E-2,-3.1706694E-1,9.7829085E-3,-1.2511237E-1,1.0306826E-1,-2.9661713E-2,-8.838836E-3,-2.858032E-1,-1.1339218E-1,3.0232787E-1,1.912959E-1,1.7024491E-2,1.3957056E-1,-3.0158463E-1,9.1671675E-2,-1.19359024E-1,4.474929E-2,-7.5194545E-2],"categories":[],"categories_nodes":[],"categories_segments":[],"categories_sizes":[],"default_left":[0,0,0,0,0,0,0,0,0,0,0,0,0,0,0,0,0,0,0,0,0,0,0,0,0,0,0,0,0,0,0],"id":16,"left_children":[1,7,3,5,15,11,27,23,9,25,-1,-1,13,-1,-1,17,19,-1,29,21,-1,-1,-1,-1,-1,-1,-1,-1,-1,-1,-1],"loss_changes":[1.3127945E1,1.2194323E1,1.2486847E1,3.6368706E1,1.0356498E1,1.1107849E1,9.72156E0,1.019572E1,1.8625225E1,1.018254E1,0E0,0E0,1.2320221E1,0E0,0E0,1.4604625E1,1.2185385E1,0E0,9.589095E0,1.5182975E1,0E0,0E0,0E0,0E0,0E0,0E0,0E0,0E0,0E0,0E0,0E0],"parents":[2147483647,0,0,2,2,3,3,1,1,8,8,5,5,12,12,4,4,15,15,16,16,19,19,7,7,9,9,6,6,18,18],"right_children":[2,8,4,6,16,12,28,24,10,26,-1,-1,14,-1,-1,18,20,-1,30,22,-1,-1,-1,-1,-1,-1,-1,-1,-1,-1,-1],"split_conditions":[-7.0857495E-2,1.6976066E-2,-1.9175818E-2,1.6525326E0,2.0407286E0,-2.7509406E-2,-2.2026936E-3,8.533068E-1,1.6653008E0,-8.8711756E-1,2.4474435E-1,1.7828496E-1,-1.2489463E-2,-6.377284E-2,-3.1706694E-1,-4.505828E-3,1.3474551E-2,1.0306826E-1,-7.626896E-3,5.04826E-4,-2.858032E-1,-1.1339218E-1,3.0232787E-1,1.912959E-1,1.7024491E-2,1.3957056E-1,-3.0158463E-1,9.1671675E-2,-1.19359024E-1,4.474929E-2,-7.5194545E-2],"split_indices":[4,1,1,16,16,7,0,14,16,14,0,0,10,0,0,0,3,0,11,2,0,0,0,0,0,0,0,0,0,0,0],"split_type":[0,0,0,0,0,0,0,0,0,0,0,0,0,0,0,0,0,0,0,0,0,0,0,0,0,0,0,0,0,0,0],"sum_hessian":[8.253E3,1.679E3,6.574E3,2.061E3,4.513E3,1.06E3,1.001E3,1.335E3,3.44E2,2.64E2,8E1,3.6E1,1.024E3,2.94E2,7.3E2,3.887E3,6.26E2,1.14E3,2.747E3,3.89E2,2.37E2,3.11E2,7.8E1,6.21E2,7.14E2,3.9E1,2.25E2,7.36E2,2.65E2,1.039E3,1.708E3],"tree_param":{"num_deleted":"0","num_feature":"17","num_nodes":"31","size_leaf_vector":"1"}},{"base_weights":[3.0934752E-3,-4.6566557E-2,5.5852912E-2,-1.11122444E-1,-6.153878E-3,-1.6447039E-1,1.5439705E-3,-2.329374E-1,1.3189638E-1,2.9158518E-1,-1.05225265E-1],"categories":[],"categories_nodes":[],"categories_segments":[],"categories_sizes":[],"default_left":[0,0,0,0,0,0,0,0,0,0,0],"id":17,"left_children":[1,3,-1,5,-1,7,-1,-1,9,-1,-1],"loss_changes":[2.1467802E1,1.0914359E1,0E0,9.804892E0,0E0,2.3585901E1,0E0,0E0,1.0012945E1,0E0,0E0],"parents":[2147483647,0,0,1,1,3,3,5,5,8,8],"right_children":[2,4,-1,6,-1,8,-1,-1,10,-1,-1],"split_conditions":[-1.1357505E-2,4.5204094E-1,5.5852912E-2,-2.3352742E-2,-6.153878E-3,1.7008852E-2,1.5439705E-3,-2.329374E-1,-3.7600156E-2,2.9158518E-1,-1.05225265E-1],"split_indices":[8,14,0,3,0,0,0,0,5,0,0],"split_type":[0,0,0,0,0,0,0,0,0,0,0],"sum_hessian":[8.113E3,4.177E3,3.936E3,1.577E3,2.6E3,1.061E3,5.16E2,8.7E2,1.91E2,1.1E2,8.1E1],"tree_param":{"num_deleted":"0","num_feature":"17","num_nodes":"11","size_leaf_vector":"1"}},{"base_weights":[8.151223E-3,1.0797677E-1,-1.1101564E-2,1.5389907E-1,-1.4507301E-1,-5.3273432E-2,2.1148624E-2,-8.877266E-3,-1.4675292E-1,-2.3118092E-3,-2.618438E-1],"categories":[],"categories_nodes":[],"categories_segments":[],"categories_sizes":[],"default_left":[0,0,0,0,0,0,0,0,0,0,0],"id":18,"left_children":[1,3,5,-1,-1,7,-1,-1,9,-1,-1],"loss_changes":[1.5837825E1,1.6366266E1,9.44258E0,0E0,0E0,1.2351703E1,0E0,0E0,1.5844034E1,0E0,0E0],"parents":[2147483647,0,0,1,1,2,2,5,5,8,8],"right_children":[2,4,6,-1,-1,8,-1,-1,10,-1,-1],"split_conditions":[-6.0508367E-2,1.1513955E-2,1.1461406E-1,1.5389907E-1,-1.4507301E-1,3.9968076E-3,2.1148624E-2,-8.877266E-3,8.225667E-2,-2.3118092E-3,-2.618438E-1],"split_indices":[16,10,6,0,0,0,0,0,13,0,0],"split_type":[0,0,0,0,0,0,0,0,0,0,0],"sum_hessian":[8.152E3,1.293E3,6.859E3,1.109E3,1.84E2,2.968E3,3.891E3,2.045E3,9.23E2,4.29E2,4.94E2],"tree_param":{"num_deleted":"0","num_feature":"17","num_nodes":"11","size_leaf_vector":"1"}},{"base_weights":[-4.831567E-3],"categories":[],"categories_nodes":[],"categories_segments":[],"categories_sizes":[],"default_left":[0],"id":19,"left_children":[-1],"loss_changes":[0E0],"parents":[2147483647],"right_children":[-1],"split_conditions":[-4.8310836E-3],"split_indices":[0],"split_type":[0],"sum_hessian":[8.226E3],"tree_param":{"num_deleted":"0","num_feature":"17","num_nodes":"1","size_leaf_vector":"1"}},{"base_weights":[-1.8022694E-2],"categories":[],"categories_nodes":[],"categories_segments":[],"categories_sizes":[],"default_left":[0],"id":20,"left_children":[-1],"loss_changes":[0E0],"parents":[2147483647],"right_children":[-1],"split_conditions":[-1.802089E-2],"split_indices":[0],"split_type":[0],"sum_hessian":[8.212E3],"tree_param":{"num_deleted":"0","num_feature":"17","num_nodes":"1","size_leaf_vector":"1"}},{"base_weights":[1.857205E-2,-1.9407187E-1,2.6656235E-2,-3.5679927E-1,1.658919E-1,8.4149435E-2,-5.715705E-1,-5.9812702E-2,4.0084742E-2,3.6171347E-2,-2.0736934E-1,-3.2598313E-2,5.1560616E-1,-3.9285856E-1,-1.1195557E-2,-1.8539831E-1,1.7886819E-1],"categories":[],"categories_nodes":[],"categories_segments":[],"categories_sizes":[],"default_left":[0,0,0,0,0,0,0,0,0,0,0,0,0,0,0,0,0],"id":21,"left_children":[1,3,7,5,-1,-1,-1,9,-1,11,13,-1,-1,-1,15,-1,-1],"loss_changes":[1.4233396E1,2.017426E1,9.313624E0,2.317425E1,0E0,0E0,0E0,1.5663395E1,0E0,2.3492727E1,1.5393257E1,0E0,0E0,0E0,9.654258E0,0E0,0E0],"parents":[2147483647,0,0,1,1,3,3,2,2,7,7,9,9,10,10,14,14],"right_children":[2,4,8,6,-1,-1,-1,10,-1,12,14,-1,-1,-1,16,-1,-1],"split_conditions":[-1.1468023E0,5.496714E-3,-2.2784065E-2,-8.312879E-3,1.658919E-1,8.4149435E-2,-5.715705E-1,7.353536E-3,4.0084742E-2,0E0,1.394019E0,-3.2598313E-2,5.1560616E-1,-3.9285856E-1,-3.344814E-2,-1.8539831E-1,1.7886819E-1],"split_indices":[16,3,0,2,0,0,0,7,0,7,14,0,0,0,0,0,0],"split_type":[0,0,0,0,0,0,0,0,0,0,0,0,0,0,0,0,0],"sum_hessian":[8.171E3,2.64E2,7.907E3,1.83E2,8.1E1,6.7E1,1.16E2,1.04E3,6.867E3,6.46E2,3.94E2,5.96E2,5E1,1.81E2,2.13E2,1.13E2,1E2],"tree_param":{"num_deleted":"0","num_feature":"17","num_nodes":"17","size_leaf_vector":"1"}},{"base_weights":[-3.5517972E-3,1.432305E-2,-1.2628688E-1,1.7134929E-1,-1.5200944E-1],"categories":[],"categories_nodes":[],"categories_segments":[],"categories_sizes":[],"default_left":[0,0,0,0,0],"id":22,"left_children":[1,-1,3,-1,-1],"loss_changes":[1.827598E1,0E0,9.125532E0,0E0,0E0],"parents":[2147483647,0,0,2,2],"right_children":[2,-1,4,-1,-1],"split_conditions":[2.616993E-2,1.432305E-2,-9.4325185E-1,1.7134929E-1,-1.5200944E-1],"split_indices":[5,0,16,0,0],"split_type":[0,0,0,0,0],"sum_hessian":[8.233E3,7.213E3,1.02E3,6.2E1,9.58E2],"tree_param":{"num_deleted":"0","num_feature":"17","num_nodes":"5","size_leaf_vector":"1"}},{"base_weights":[9.5680164E-4],"categories":[],"categories_nodes":[],"categories_segments":[],"categories_sizes":[],"default_left":[0],"id":23,"left_children":[-1],"loss_changes":[0E0],"parents":[2147483647],"right_children":[-1],"split_conditions":[9.5670595E-4],"split_indices":[0],"split_type":[0],"sum_hessian":[8.195E3],"tree_param":{"num_deleted":"0","num_feature":"17","num_nodes":"1","size_leaf_vector":"1"}},{"base_weights":[-4.032785E-3,-1.4467558E-2,1.4535803E-1,-2.055842E-1,2.2798318E-1],"categories":[],"categories_nodes":[],"categories_segments":[],"categories_sizes":[],"default_left":[0,0,0,0,0],"id":24,"left_children":[1,-1,3,-1,-1],"loss_changes":[1.3000188E1,0E0,1.763276E1,0E0,0E0],"parents":[2147483647,0,0,2,2],"right_children":[2,-1,4,-1,-1],"split_conditions":[1.6383393E-2,-1.4467558E-2,9.346603E-4,-2.055842E-1,2.2798318E-1],"split_indices":[4,0,0,0,0],"split_type":[0,0,0,0,0],"sum_hessian":[8.288E3,7.783E3,5.05E2,8.4E1,4.21E2],"tree_param":{"num_deleted":"0","num_feature":"17","num_nodes":"5","size_leaf_vector":"1"}},{"base_weights":[5.638734E-4,-3.3721548E-1,3.8768223E-3,-4.668375E-3,2.1539316E-1,3.7070292E-1,2.494151E-2],"categories":[],"categories_nodes":[],"categories_segments":[],"categories_sizes":[],"default_left":[0,0,0,0,0,0,0],"id":25,"left_children":[1,-1,3,-1,5,-1,-1],"loss_changes":[9.126945E0,0E0,1.4996885E1,0E0,8.973368E0,0E0,0E0],"parents":[2147483647,0,0,2,2,4,4],"right_children":[2,-1,4,-1,6,-1,-1],"split_conditions":[-1.1339351E-1,-3.3721548E-1,2.784681E0,-4.668375E-3,-6.3962534E-2,3.7070292E-1,2.494151E-2],"split_indices":[1,0,14,0,1,0,0],"split_type":[0,0,0,0,0,0,0],"sum_hessian":[8.218E3,4E1,8.178E3,7.895E3,2.83E2,1.34E2,1.49E2],"tree_param":{"num_deleted":"0","num_feature":"17","num_nodes":"7","size_leaf_vector":"1"}},{"base_weights":[7.4136737E-3,-1.1456851E-1,1.644355E-2,9.718777E-2,-1.0625367E-3,-2.1144316E-1,4.096836E-2],"categories":[],"categories_nodes":[],"categories_segments":[],"categories_sizes":[],"default_left":[0,0,0,0,0,0,0],"id":26,"left_children":[1,5,3,-1,-1,-1,-1],"loss_changes":[9.05531E0,8.957164E0,1.0896443E1,0E0,0E0,0E0,0E0],"parents":[2147483647,0,0,2,2,1,1],"right_children":[2,6,4,-1,-1,-1,-1],"split_conditions":[-7.270158E-1,3.512259E-2,-7.251135E-2,9.718777E-2,-1.0625367E-3,-2.1144316E-1,4.096836E-2],"split_indices":[14,1,4,0,0,0,0],"split_type":[0,0,0,0,0,0,0],"sum_hessian":[8.159E3,5.27E2,7.632E3,1.333E3,6.299E3,3.18E2,2.09E2],"tree_param":{"num_deleted":"0","num_feature":"17","num_nodes":"7","size_leaf_vector":"1"}},{"base_weights":[-5.2557057E-3,1.4125313E-2,-8.7545775E-2,-1.14208356E-1,1.7742386E-1,-1.4514275E-1,1.0498208E-1,-1.503691E-2,6.414415E-2,2.5336752E-2,-9.347505E-2,-1.3285804E-1,7.0968315E-2,-2.3640679E-1,1.38476435E-2,3.017251E-1,-1.4937049E-1],"categories":[],"categories_nodes":[],"categories_segments":[],"categories_sizes":[],"default_left":[0,0,0,0,0,0,0,0,0,0,0,0,0,0,0,0,0],"id":27,"left_children":[1,7,3,5,-1,-1,-1,9,-1,-1,11,13,15,-1,-1,-1,-1],"loss_changes":[1.3043449E1,9.698115E0,1.17787075E1,1.0400904E1,0E0,0E0,0E0,1.3422398E1,0E0,0E0,9.72069E0,1.8125782E1,1.7158487E1,0E0,0E0,0E0,0E0],"parents":[2147483647,0,0,2,2,3,3,1,1,7,7,10,10,11,11,12,12],"right_children":[2,8,4,6,-1,-1,-1,10,-1,-1,12,14,16,-1,-1,-1,-1],"split_conditions":[2.0604928E0,1.2225884E-1,1.5605512E-2,2.5519306E-2,1.7742386E-1,-1.4514275E-1,1.0498208E-1,1.1461406E-1,6.414415E-2,2.5336752E-2,2.6357284E-2,1.0564088E0,9.518481E-3,-2.3640679E-1,1.38476435E-2,3.017251E-1,-1.4937049E-1],"split_indices":[16,13,2,0,0,0,0,6,0,0,3,16,1,0,0,0,0],"split_type":[0,0,0,0,0,0,0,0,0,0,0,0,0,0,0,0,0],"sum_hessian":[8.086E3,6.566E3,1.52E3,1.403E3,1.17E2,1.243E3,1.6E2,4.159E3,2.407E3,2.759E3,1.4E3,1.138E3,2.62E2,6.55E2,4.83E2,1.22E2,1.4E2],"tree_param":{"num_deleted":"0","num_feature":"17","num_nodes":"17","size_leaf_vector":"1"}},{"base_weights":[-1.40722785E-2,-3.1687044E-2,7.3994E-2,-7.299151E-2,6.147657E-2,4.757034E-1,2.8358288E-2,-2.9847556E-1,-5.6594517E-2,1.7434664E-1,-7.169931E-2,-1.4704424E-1,8.9054555E-2,1.5208824E-1,-1.4417478E-2,-3.9685416E-1,4.8590068E-2,1.9092927E-2,-4.966066E-1,-7.9889014E-2,2.2364545E-1],"categories":[],"categories_nodes":[],"categories_segments":[],"categories_sizes":[],"default_left":[0,0,0,0,0,0,0,0,0,0,0,0,0,0,0,0,0,0,0,0,0],"id":28,"left_children":[1,3,5,7,11,-1,-1,15,9,-1,19,-1,13,-1,-1,17,-1,-1,-1,-1,-1],"loss_changes":[1.2850507E1,2.6722408E1,2.452459E1,1.6909508E1,1.2769546E1,0E0,0E0,1.1655985E1,1.6225399E1,0E0,1.098539E1,0E0,1.26356325E1,0E0,0E0,1.0994244E1,0E0,0E0,0E0,0E0,0E0],"parents":[2147483647,0,0,1,1,2,2,3,3,8,8,4,4,12,12,7,7,15,15,10,10],"right_children":[2,4,6,8,12,-1,-1,16,10,-1,20,-1,14,-1,-1,18,-1,-1,-1,-1,-1],"split_conditions":[1.8983467E0,1.1537229E-2,-3.2086197E-2,-5.5977244E-2,-1.5961904E-2,4.757034E-1,2.8358288E-2,2.9162806E-4,-4.1736963E-1,1.7434664E-1,1.430396E0,-1.4704424E-1,7.7113537E-3,1.5208824E-1,-1.4417478E-2,-1.4325795E-2,4.8590068E-2,1.9092927E-2,-4.966066E-1,-7.9889014E-2,2.2364545E-1],"split_indices":[14,1,3,1,2,0,0,10,15,0,15,0,2,0,0,10,0,0,0,0,0],"split_type":[0,0,0,0,0,0,0,0,0,0,0,0,0,0,0,0,0,0,0,0,0],"sum_hessian":[8.199E3,6.858E3,1.341E3,4.761E3,2.097E3,9.8E1,1.243E3,2.75E2,4.486E3,2.48E2,4.238E3,2.23E2,1.874E3,1.156E3,7.18E2,2.11E2,6.4E1,4.6E1,1.65E2,4.153E3,8.5E1],"tree_param":{"num_deleted":"0","num_feature":"17","num_nodes":"21","size_leaf_vector":"1"}},{"base_weights":[3.2883935E-2],"categories":[],"categories_nodes":[],"categories_segments":[],"categories_sizes":[],"default_left":[0],"id":29,"left_children":[-1],"loss_changes":[0E0],"parents":[2147483647],"right_children":[-1],"split_conditions":[3.2880645E-2],"split_indices":[0],"split_type":[0],"sum_hessian":[8.224E3],"tree_param":{"num_deleted":"0","num_feature":"17","num_nodes":"1","size_leaf_vector":"1"}},{"base_weights":[-0E0,-7.387323E-2,2.7010588E-2,4.4782754E-2,-7.1875356E-2,1.6133988E-1,2.1768654E-2,5.606261E-1,4.0279254E-2,-8.125636E-3,7.39977E-1,-2.3742646E-1,1.2350197E-1,-2.636331E-1,2.9342197E-2,-2.3365483E-1,-4.636214E-2,2.12446E-2,-1.3012114E-1,-3.1966716E-1,1.0312683E-1],"categories":[],"categories_nodes":[],"categories_segments":[],"categories_sizes":[],"default_left":[0,0,0,0,0,0,0,0,0,0,0,0,0,0,0,0,0,0,0,0,0],"id":30,"left_children":[1,15,3,5,-1,7,13,9,11,-1,-1,-1,-1,-1,-1,19,17,-1,-1,-1,-1],"loss_changes":[1.652145E1,9.178455E0,1.07778E1,1.3645709E1,0E0,3.9574745E1,9.633302E0,2.021072E1,1.7047518E1,0E0,0E0,0E0,0E0,0E0,0E0,1.0475159E1,1.1162355E1,0E0,0E0,0E0,0E0],"parents":[2147483647,0,0,2,2,3,3,5,5,7,7,8,8,6,6,1,1,16,16,15,15],"right_children":[2,16,4,6,-1,8,14,10,12,-1,-1,-1,-1,-1,-1,20,18,-1,-1,-1,-1],"split_conditions":[7.343653E-2,-4.8561707E-2,2.1500422E-2,5.479499E-1,-7.1875356E-2,-1.061632E-2,-9.998197E-2,-8.341395E-2,-1.180433E-2,-8.125636E-3,7.39977E-1,-2.3742646E-1,1.2350197E-1,-2.636331E-1,2.9342197E-2,3.0935481E-2,1.2374503E-1,2.12446E-2,-1.3012114E-1,-3.1966716E-1,1.0312683E-1],"split_indices":[15,8,5,16,0,10,1,4,7,0,0,0,0,0,0,1,13,0,0,0,0],"split_type":[0,0,0,0,0,0,0,0,0,0,0,0,0,0,0,0,0,0,0,0,0],"sum_hessian":[8.206E3,2.177E3,6.029E3,5.133E3,8.96E2,8.04E2,4.329E3,1.53E2,6.51E2,4.5E1,1.08E2,1.32E2,5.19E2,7.6E1,4.253E3,2.74E2,1.903E3,1.066E3,8.37E2,2.21E2,5.3E1],"tree_param":{"num_deleted":"0","num_feature":"17","num_nodes":"21","size_leaf_vector":"1"}},{"base_weights":[-1.483206E-2],"categories":[],"categories_nodes":[],"categories_segments":[],"categories_sizes":[],"default_left":[0],"id":31,"left_children":[-1],"loss_changes":[0E0],"parents":[2147483647],"right_children":[-1],"split_conditions":[-1.4830576E-2],"split_indices":[0],"split_type":[0],"sum_hessian":[8.224E3],"tree_param":{"num_deleted":"0","num_feature":"17","num_nodes":"1","size_leaf_vector":"1"}},{"base_weights":[8.627856E-3,1.1038741E-1,-6.210602E-3,-1.7927435E-1,1.4431201E-1,-1.0762269E-3,-2.6271343E-1],"categories":[],"categories_nodes":[],"categories_segments":[],"categories_sizes":[],"default_left":[0,0,0,0,0,0,0],"id":32,"left_children":[1,3,5,-1,-1,-1,-1],"loss_changes":[1.2475549E1,1.133124E1,9.338699E0,0E0,0E0,0E0,0E0],"parents":[2147483647,0,0,1,1,2,2],"right_children":[2,4,6,-1,-1,-1,-1],"split_conditions":[-4.768298E-2,-4.9382246E-1,3.544678E0,-1.7927435E-1,1.4431201E-1,-1.0762269E-3,-2.6271343E-1],"split_indices":[8,15,16,0,0,0,0],"split_type":[0,0,0,0,0,0,0],"sum_hessian":[8.171E3,1.012E3,7.159E3,8.7E1,9.25E2,7.059E3,1E2],"tree_param":{"num_deleted":"0","num_feature":"17","num_nodes":"7","size_leaf_vector":"1"}},{"base_weights":[-1.44874565E-2],"categories":[],"categories_nodes":[],"categories_segments":[],"categories_sizes":[],"default_left":[0],"id":33,"left_children":[-1],"loss_changes":[0E0],"parents":[2147483647],"right_children":[-1],"split_conditions":[-1.4486007E-2],"split_indices":[0],"split_type":[0],"sum_hessian":[8.135E3],"tree_param":{"num_deleted":"0","num_feature":"17","num_nodes":"1","size_leaf_vector":"1"}},{"base_weights":[1.3439399E-2],"categories":[],"categories_nodes":[],"categories_segments":[],"categories_sizes":[],"default_left":[0],"id":34,"left_children":[-1],"loss_changes":[0E0],"parents":[2147483647],"right_children":[-1],"split_conditions":[1.3438055E-2],"split_indices":[0],"split_type":[0],"sum_hessian":[8.131E3],"tree_param":{"num_deleted":"0","num_feature":"17","num_nodes":"1","size_leaf_vector":"1"}},{"base_weights":[-2.4640828E-3],"categories":[],"categories_nodes":[],"categories_segments":[],"categories_sizes":[],"default_left":[0],"id":35,"left_children":[-1],"loss_changes":[0E0],"parents":[2147483647],"right_children":[-1],"split_conditions":[-2.4638365E-3],"split_indices":[0],"split_type":[0],"sum_hessian":[8.169E3],"tree_param":{"num_deleted":"0","num_feature":"17","num_nodes":"1","size_leaf_vector":"1"}},{"base_weights":[-1.000218E-2,-2.654352E-2,6.320005E-2],"categories":[],"categories_nodes":[],"categories_segments":[],"categories_sizes":[],"default_left":[0,0,0],"id":36,"left_children":[1,-1,-1],"loss_changes":[1.0088313E1,0E0,0E0],"parents":[2147483647,0,0],"right_children":[2,-1,-1],"split_conditions":[1.8947503E-1,-2.654352E-2,6.320005E-2],"split_indices":[6,0,0],"split_type":[0,0,0],"sum_hessian":[8.251E3,6.756E3,1.495E3],"tree_param":{"num_deleted":"0","num_feature":"17","num_nodes":"3","size_leaf_vector":"1"}},{"base_weights":[1.19852826E-4,-1.3728307E-2,9.995695E-2,5.7662133E-2,-3.7641257E-2,2.5700304E-1,5.798001E-3,4.1395556E-2,-2.6790813E-1,1.0951643E-2,2.2357748E-1,3.2585806E-1,-0E0],"categories":[],"categories_nodes":[],"categories_segments":[],"categories_sizes":[],"default_left":[0,0,0,0,0,0,0,0,0,0,0,0,0],"id":37,"left_children":[1,3,9,5,-1,-1,7,-1,-1,-1,11,-1,-1],"loss_changes":[1.1504301E1,1.2498662E1,1.0946509E1,1.8797321E1,0E0,0E0,1.4932335E1,0E0,0E0,0E0,9.708971E0,0E0,0E0],"parents":[2147483647,0,0,1,1,3,3,6,6,2,2,10,10],"right_children":[2,4,10,6,-1,-1,8,-1,-1,-1,12,-1,-1],"split_conditions":[3.279885E-2,-1.1938266E-2,-2.713371E-2,-5.968139E-2,-3.7641257E-2,2.5700304E-1,1.9641851E0,4.1395556E-2,-2.6790813E-1,1.0951643E-2,1.7740412E-2,3.2585806E-1,-0E0],"split_indices":[1,2,12,1,0,0,16,0,0,0,3,0,0],"split_type":[0,0,0,0,0,0,0,0,0,0,0,0,0],"sum_hessian":[8.212E3,7.237E3,9.75E2,1.797E3,5.44E3,3.37E2,1.46E3,1.323E3,1.37E2,5.94E2,3.81E2,2.5E2,1.31E2],"tree_param":{"num_deleted":"0","num_feature":"17","num_nodes":"13","size_leaf_vector":"1"}},{"base_weights":[3.1638937E-3],"categories":[],"categories_nodes":[],"categories_segments":[],"categories_sizes":[],"default_left":[0],"id":38,"left_children":[-1],"loss_changes":[0E0],"parents":[2147483647],"right_children":[-1],"split_conditions":[3.1635773E-3],"split_indices":[0],"split_type":[0],"sum_hessian":[8.316E3],"tree_param":{"num_deleted":"0","num_feature":"17","num_nodes":"1","size_leaf_vector":"1"}},{"base_weights":[-2.676814E-3,-3.3709815E-1,1.7113662E-3],"categories":[],"categories_nodes":[],"categories_segments":[],"categories_sizes":[],"default_left":[0,0,0],"id":39,"left_children":[1,-1,-1],"loss_changes":[1.2374164E1,0E0,0E0],"parents":[2147483647,0,0],"right_children":[2,-1,-1],"split_conditions":[-1.6008902E0,-3.3709815E-1,1.7113662E-3],"split_indices":[14,0,0],"split_type":[0,0,0],"sum_hessian":[8.263E3,7E1,8.193E3],"tree_param":{"num_deleted":"0","num_feature":"17","num_nodes":"3","size_leaf_vector":"1"}},{"base_weights":[5.948953E-3,-1.5226224E-1,1.7064348E-2,9.236198E-2,-2.358269E-1,-3.0125237E-1,9.8831646E-2],"categories":[],"categories_nodes":[],"categories_segments":[],"categories_sizes":[],"default_left":[0,0,0,0,0,0,0],"id":40,"left_children":[1,3,-1,-1,5,-1,-1],"loss_changes":[1.4478749E1,1.19675255E1,0E0,0E0,1.0362242E1,0E0,0E0],"parents":[2147483647,0,0,1,1,4,4],"right_children":[2,4,-1,-1,6,-1,-1],"split_conditions":[-6.865283E-2,-1.2489463E-2,1.7064348E-2,9.236198E-2,-9.845301E-3,-3.0125237E-1,9.8831646E-2],"split_indices":[1,10,0,0,11,0,0],"split_type":[0,0,0,0,0,0,0],"sum_hessian":[8.173E3,5.01E2,7.672E3,1.25E2,3.76E2,3.19E2,5.7E1],"tree_param":{"num_deleted":"0","num_feature":"17","num_nodes":"7","size_leaf_vector":"1"}},{"base_weights":[-1.4044199E-3],"categories":[],"categories_nodes":[],"categories_segments":[],"categories_sizes":[],"default_left":[0],"id":41,"left_children":[-1],"loss_changes":[0E0],"parents":[2147483647],"right_children":[-1],"split_conditions":[-1.4042794E-3],"split_indices":[0],"split_type":[0],"sum_hessian":[8.27E3],"tree_param":{"num_deleted":"0","num_feature":"17","num_nodes":"1","size_leaf_vector":"1"}},{"base_weights":[-4.7063674E-3],"categories":[],"categories_nodes":[],"categories_segments":[],"categories_sizes":[],"default_left":[0],"id":42,"left_children":[-1],"loss_changes":[0E0],"parents":[2147483647],"right_children":[-1],"split_conditions":[-4.7058966E-3],"split_indices":[0],"split_type":[0],"sum_hessian":[8.242E3],"tree_param":{"num_deleted":"0","num_feature":"17","num_nodes":"1","size_leaf_vector":"1"}},{"base_weights":[6.7943614E-3,1.09013304E-1,-9.541783E-3,3.39669E-1,5.019464E-2,-3.117858E-2,1.794081E-1,-9.448514E-2,2.084392E-1,-3.0017743E-1,3.964511E-3,7.1683645E-2,5.287936E-1,-1.3826482E-1,2.4444121E-1],"categories":[],"categories_nodes":[],"categories_segments":[],"categories_sizes":[],"default_left":[0,0,0,0,0,0,0,0,0,0,0,0,0,0,0],"id":43,"left_children":[1,3,-1,11,5,7,13,9,-1,-1,-1,-1,-1,-1,-1],"loss_changes":[1.387928E1,1.4675086E1,0E0,9.581589E0,1.0388571E1,1.0123842E1,9.214174E0,1.0708804E1,0E0,0E0,0E0,0E0,0E0,0E0,0E0],"parents":[2147483647,0,0,1,1,4,4,5,5,7,7,3,3,6,6],"right_children":[2,4,-1,12,6,8,14,10,-1,-1,-1,-1,-1,-1,-1],"split_conditions":[-2.1921352E-2,-2.9737264E-2,-9.541783E-3,1.097947E0,-2.7637733E-2,-1.088929E-2,-2.8745338E-2,8.8628344E-2,2.084392E-1,-3.0017743E-1,3.964511E-3,7.1683645E-2,5.287936E-1,-1.3826482E-1,2.4444121E-1],"split_indices":[0,3,0,15,0,1,16,13,0,0,0,0,0,0,0],"split_type":[0,0,0,0,0,0,0,0,0,0,0,0,0,0,0],"sum_hessian":[8.218E3,1.106E3,7.112E3,1.85E2,9.21E2,5.81E2,3.4E2,4.8E2,1.01E2,1.31E2,3.49E2,1E2,8.5E1,4.9E1,2.91E2],"tree_param":{"num_deleted":"0","num_feature":"17","num_nodes":"15","size_leaf_vector":"1"}},{"base_weights":[-4.2548943E-3,-5.9812877E-2,1.8610256E-2,3.0119454E-3,1.777181E-1,-2.9735014E-2,-2.3399049E-1,2.287841E-1,-5.432778E-3],"categories":[],"categories_nodes":[],"categories_segments":[],"categories_sizes":[],"default_left":[0,0,0,0,0,0,0,0,0],"id":44,"left_children":[1,5,3,7,-1,-1,-1,-1,-1],"loss_changes":[1.0540794E1,1.2276007E1,1.4449763E1,1.0428522E1,0E0,0E0,0E0,0E0,0E0],"parents":[2147483647,0,0,2,2,1,1,3,3],"right_children":[2,6,4,8,-1,-1,-1,-1,-1],"split_conditions":[-1.180433E-2,1.5162634E0,2.6054308E0,-4.164912E-2,1.777181E-1,-2.9735014E-2,-2.3399049E-1,2.287841E-1,-5.432778E-3],"split_indices":[7,15,16,0,0,0,0,0,0],"split_type":[0,0,0,0,0,0,0,0,0],"sum_hessian":[8.208E3,2.381E3,5.827E3,5.346E3,4.81E2,2.072E3,3.09E2,1.58E2,5.188E3],"tree_param":{"num_deleted":"0","num_feature":"17","num_nodes":"9","size_leaf_vector":"1"}},{"base_weights":[-1.6534047E-3,-9.831372E-2,1.4597913E-2,-1.5159611E-1,4.550424E-2,2.4990924E-2,-1.1168904E-1],"categories":[],"categories_nodes":[],"categories_segments":[],"categories_sizes":[],"default_left":[0,0,0,0,0,0,0],"id":45,"left_children":[1,3,5,-1,-1,-1,-1],"loss_changes":[1.3257125E1,9.637836E0,9.521053E0,0E0,0E0,0E0,0E0],"parents":[2147483647,0,0,1,1,2,2],"right_children":[2,4,6,-1,-1,-1,-1],"split_conditions":[-2.1209925E-2,-2.707418E-2,2.5828533E0,-1.5159611E-1,4.550424E-2,2.4990924E-2,-1.1168904E-1],"split_indices":[0,12,16,0,0,0,0],"split_type":[0,0,0,0,0,0,0],"sum_hessian":[8.338E3,1.176E3,7.162E3,8.59E2,3.17E2,6.65E3,5.12E2],"tree_param":{"num_deleted":"0","num_feature":"17","num_nodes":"7","size_leaf_vector":"1"}},{"base_weights":[1.7007615E-2,9.269533E-2,-1.9099686E-3,-4.634322E-3,2.571813E-1,6.369472E-2,-2.1909323E-1,3.2309487E-1,-7.2320454E-2,-3.2743973E-1,6.3379705E-2,-5.291478E-1,1.9732894E-2],"categories":[],"categories_nodes":[],"categories_segments":[],"categories_sizes":[],"default_left":[0,0,0,0,0,0,0,0,0,0,0,0,0],"id":46,"left_children":[1,3,-1,5,7,-1,9,-1,-1,11,-1,-1,-1],"loss_changes":[1.1789055E1,2.6510315E1,0E0,1.6307629E1,1.4386219E1,0E0,9.182765E0,0E0,0E0,1.4824133E1,0E0,0E0,0E0],"parents":[2147483647,0,0,1,1,3,3,4,4,6,6,9,9],"right_children":[2,4,-1,6,8,-1,10,-1,-1,12,-1,-1,-1],"split_conditions":[-2.3196774E-2,1.3183161E0,-1.9099686E-3,7.453546E-1,-1.888827E-2,6.369472E-2,1.1604781E0,3.2309487E-1,-7.2320454E-2,-3.1695668E-2,6.3379705E-2,-5.291478E-1,1.9732894E-2],"split_indices":[11,16,0,15,3,0,16,0,0,8,0,0,0],"split_type":[0,0,0,0,0,0,0,0,0,0,0,0,0],"sum_hessian":[8.158E3,1.606E3,6.552E3,1.031E3,5.75E2,8.01E2,2.3E2,4.81E2,9.4E1,1.63E2,6.7E1,9.1E1,7.2E1],"tree_param":{"num_deleted":"0","num_feature":"17","num_nodes":"13","size_leaf_vector":"1"}},{"base_weights":[-1.0575087E-2],"categories":[],"categories_nodes":[],"categories_segments":[],"categories_sizes":[],"default_left":[0],"id":47,"left_children":[-1],"loss_changes":[0E0],"parents":[2147483647],"right_children":[-1],"split_conditions":[-1.0574029E-2],"split_indices":[0],"split_type":[0],"sum_hessian":[8.126E3],"tree_param":{"num_deleted":"0","num_feature":"17","num_nodes":"1","size_leaf_vector":"1"}},{"base_weights":[-1.1866532E-2],"categories":[],"categories_nodes":[],"categories_segments":[],"categories_sizes":[],"default_left":[0],"id":48,"left_children":[-1],"loss_changes":[0E0],"parents":[2147483647],"right_children":[-1],"split_conditions":[-1.1865346E-2],"split_indices":[0],"split_type":[0],"sum_hessian":[8.189E3],"tree_param":{"num_deleted":"0","num_feature":"17","num_nodes":"1","size_leaf_vector":"1"}},{"base_weights":[1.8730931E-2,-1.3934563E-1,2.5490314E-2,-3.3635822E-1,2.4169892E-2,1.9172215E-1,-2.412659E-1],"categories":[],"categories_nodes":[],"categories_segments":[],"categories_sizes":[],"default_left":[0,0,0,0,0,0,0],"id":49,"left_children":[1,3,-1,-1,5,-1,-1],"loss_changes":[8.919533E0,1.1498646E1,0E0,0E0,1.1671733E1,0E0,0E0],"parents":[2147483647,0,0,1,1,4,4],"right_children":[2,4,-1,-1,6,-1,-1],"split_conditions":[-4.2540632E-2,2.0829009E-1,2.5490314E-2,-3.3635822E-1,1.5659299E0,1.9172215E-1,-2.412659E-1],"split_indices":[3,15,0,0,16,0,0],"split_type":[0,0,0,0,0,0,0],"sum_hessian":[8.228E3,3.03E2,7.925E3,1.2E2,1.83E2,1.2E2,6.3E1],"tree_param":{"num_deleted":"0","num_feature":"17","num_nodes":"7","size_leaf_vector":"1"}},{"base_weights":[-1.5875284E-2],"categories":[],"categories_nodes":[],"categories_segments":[],"categories_sizes":[],"default_left":[0],"id":50,"left_children":[-1],"loss_changes":[0E0],"parents":[2147483647],"right_children":[-1],"split_conditions":[-1.5873697E-2],"split_indices":[0],"split_type":[0],"sum_hessian":[8.23E3],"tree_param":{"num_deleted":"0","num_feature":"17","num_nodes":"1","size_leaf_vector":"1"}},{"base_weights":[7.879382E-3,2.5103888E-1,2.8935557E-3],"categories":[],"categories_nodes":[],"categories_segments":[],"categories_sizes":[],"default_left":[0,0,0],"id":51,"left_children":[1,-1,-1],"loss_changes":[9.842063E0,0E0,0E0],"parents":[2147483647,0,0],"right_children":[2,-1,-1],"split_conditions":[-1.4785886E0,2.5103888E-1,2.8935557E-3],"split_indices":[16,0,0],"split_type":[0,0,0],"sum_hessian":[8.206E3,1.24E2,8.082E3],"tree_param":{"num_deleted":"0","num_feature":"17","num_nodes":"3","size_leaf_vector":"1"}},{"base_weights":[3.7819638E-3],"categories":[],"categories_nodes":[],"categories_segments":[],"categories_sizes":[],"default_left":[0],"id":52,"left_children":[-1],"loss_changes":[0E0],"parents":[2147483647],"right_children":[-1],"split_conditions":[3.7815855E-3],"split_indices":[0],"split_type":[0],"sum_hessian":[8.183E3],"tree_param":{"num_deleted":"0","num_feature":"17","num_nodes":"1","size_leaf_vector":"1"}},{"base_weights":[-6.7131156E-3],"categories":[],"categories_nodes":[],"categories_segments":[],"categories_sizes":[],"default_left":[0],"id":53,"left_children":[-1],"loss_changes":[0E0],"parents":[2147483647],"right_children":[-1],"split_conditions":[-6.712444E-3],"split_indices":[0],"split_type":[0],"sum_hessian":[8.201E3],"tree_param":{"num_deleted":"0","num_feature":"17","num_nodes":"1","size_leaf_vector":"1"}},{"base_weights":[7.34255E-3],"categories":[],"categories_nodes":[],"categories_segments":[],"categories_sizes":[],"default_left":[0],"id":54,"left_children":[-1],"loss_changes":[0E0],"parents":[2147483647],"right_children":[-1],"split_conditions":[7.3418156E-3],"split_indices":[0],"split_type":[0],"sum_hessian":[8.33E3],"tree_param":{"num_deleted":"0","num_feature":"17","num_nodes":"1","size_leaf_vector":"1"}},{"base_weights":[-3.1556096E-3],"categories":[],"categories_nodes":[],"categories_segments":[],"categories_sizes":[],"default_left":[0],"id":55,"left_children":[-1],"loss_changes":[0E0],"parents":[2147483647],"right_children":[-1],"split_conditions":[-3.1552939E-3],"split_indices":[0],"split_type":[0],"sum_hessian":[8.207E3],"tree_param":{"num_deleted":"0","num_feature":"17","num_nodes":"1","size_leaf_vector":"1"}},{"base_weights":[-4.3024975E-3],"categories":[],"categories_nodes":[],"categories_segments":[],"categories_sizes":[],"default_left":[0],"id":56,"left_children":[-1],"loss_changes":[0E0],"parents":[2147483647],"right_children":[-1],"split_conditions":[-4.302067E-3],"split_indices":[0],"split_type":[0],"sum_hessian":[8.26E3],"tree_param":{"num_deleted":"0","num_feature":"17","num_nodes":"1","size_leaf_vector":"1"}},{"base_weights":[-9.660779E-4,-6.259799E-2,1.9834436E-2,-1.22746095E-1,2.0434363E-2,-2.464684E-1,4.3772988E-2,-2.551131E-1,6.474527E-2,3.3225334E-1,-3.802857E-3,-7.144782E-2,2.0832157E-1,3.9614655E-2,-6.498744E-2],"categories":[],"categories_nodes":[],"categories_segments":[],"categories_sizes":[],"default_left":[0,0,0,0,0,0,0,0,0,0,0,0,0,0,0],"id":57,"left_children":[1,3,13,5,7,-1,11,-1,9,-1,-1,-1,-1,-1,-1],"loss_changes":[1.0610499E1,1.0587911E1,1.0445159E1,2.568732E1,1.1642546E1,0E0,1.1122279E1,0E0,1.5162565E1,0E0,0E0,0E0,0E0,0E0,0E0],"parents":[2147483647,0,0,1,1,3,3,4,4,8,8,6,6,2,2],"right_children":[2,4,14,6,8,-1,12,-1,10,-1,-1,-1,-1,-1,-1],"split_conditions":[8.3787754E-2,-3.2636933E-3,1.3492578E-1,8.7488085E-1,-5.337119E-1,-2.464684E-1,-5.5977244E-2,-2.551131E-1,-7.389599E-2,3.3225334E-1,-3.802857E-3,-7.144782E-2,2.0832157E-1,3.9614655E-2,-6.498744E-2],"split_indices":[13,1,13,15,15,0,1,0,4,0,0,0,0,0,0],"split_type":[0,0,0,0,0,0,0,0,0,0,0,0,0,0,0],"sum_hessian":[8.183E3,2.051E3,6.132E3,1.182E3,8.69E2,6.69E2,5.13E2,9.3E1,7.76E2,1.29E2,6.47E2,3.13E2,2E2,4.994E3,1.138E3],"tree_param":{"num_deleted":"0","num_feature":"17","num_nodes":"15","size_leaf_vector":"1"}},{"base_weights":[-5.433278E-3,2.163368E-3,-2.0398957E-1,-3.5991544E-1,1.2831695E-2],"categories":[],"categories_nodes":[],"categories_segments":[],"categories_sizes":[],"default_left":[0,0,0,0,0],"id":58,"left_children":[1,-1,3,-1,-1],"loss_changes":[1.2494149E1,0E0,1.0673282E1,0E0,0E0],"parents":[2147483647,0,0,2,2],"right_children":[2,-1,4,-1,-1],"split_conditions":[3.165078E-2,2.163368E-3,-2.4527188E-2,-3.5991544E-1,1.2831695E-2],"split_indices":[0,0,5,0,0],"split_type":[0,0,0,0,0],"sum_hessian":[8.166E3,7.9E3,2.66E2,1.41E2,1.25E2],"tree_param":{"num_deleted":"0","num_feature":"17","num_nodes":"5","size_leaf_vector":"1"}},{"base_weights":[-8.737133E-3,1.9750142E-2,-5.7461288E-2],"categories":[],"categories_nodes":[],"categories_segments":[],"categories_sizes":[],"default_left":[0,0,0],"id":59,"left_children":[1,-1,-1],"loss_changes":[1.1422334E1,0E0,0E0],"parents":[2147483647,0,0],"right_children":[2,-1,-1],"split_conditions":[6.411415E-3,1.9750142E-2,-5.7461288E-2],"split_indices":[1,0,0],"split_type":[0,0,0],"sum_hessian":[8.143E3,5.147E3,2.996E3],"tree_param":{"num_deleted":"0","num_feature":"17","num_nodes":"3","size_leaf_vector":"1"}},{"base_weights":[1.4590059E-2,-5.7996932E-2,3.144972E-2,1.6040998E-2,1.5193483E-1,8.8339634E-2,-1.7911177E-2],"categories":[],"categories_nodes":[],"categories_segments":[],"categories_sizes":[],"default_left":[0,0,0,0,0,0,0],"id":60,"left_children":[1,-1,3,5,-1,-1,-1],"loss_changes":[1.0220489E1,0E0,1.2389881E1,1.4948456E1,0E0,0E0,0E0],"parents":[2147483647,0,0,2,2,3,3],"right_children":[2,-1,4,6,-1,-1,-1],"split_conditions":[-4.003411E-2,-5.7996932E-2,2.1396885E0,-2.3352742E-2,1.5193483E-1,8.8339634E-2,-1.7911177E-2],"split_indices":[1,0,16,3,0,0,0],"split_type":[0,0,0,0,0,0,0],"sum_hessian":[8.264E3,1.534E3,6.73E3,6.01E3,7.2E2,1.905E3,4.105E3],"tree_param":{"num_deleted":"0","num_feature":"17","num_nodes":"7","size_leaf_vector":"1"}},{"base_weights":[-8.579008E-4],"categories":[],"categories_nodes":[],"categories_segments":[],"categories_sizes":[],"default_left":[0],"id":61,"left_children":[-1],"loss_changes":[0E0],"parents":[2147483647],"right_children":[-1],"split_conditions":[-8.5781503E-4],"split_indices":[0],"split_type":[0],"sum_hessian":[8.254E3],"tree_param":{"num_deleted":"0","num_feature":"17","num_nodes":"1","size_leaf_vector":"1"}},{"base_weights":[2.777406E-3],"categories":[],"categories_nodes":[],"categories_segments":[],"categories_sizes":[],"default_left":[0],"id":62,"left_children":[-1],"loss_changes":[0E0],"parents":[2147483647],"right_children":[-1],"split_conditions":[2.7771282E-3],"split_indices":[0],"split_type":[0],"sum_hessian":[8.14E3],"tree_param":{"num_deleted":"0","num_feature":"17","num_nodes":"1","size_leaf_vector":"1"}},{"base_weights":[-3.2881754E-3],"categories":[],"categories_nodes":[],"categories_segments":[],"categories_sizes":[],"default_left":[0],"id":63,"left_children":[-1],"loss_changes":[0E0],"parents":[2147483647],"right_children":[-1],"split_conditions":[-3.2878467E-3],"split_indices":[0],"split_type":[0],"sum_hessian":[8.169E3],"tree_param":{"num_deleted":"0","num_feature":"17","num_nodes":"1","size_leaf_vector":"1"}},{"base_weights":[-2.7332879E-3],"categories":[],"categories_nodes":[],"categories_segments":[],"categories_sizes":[],"default_left":[0],"id":64,"left_children":[-1],"loss_changes":[0E0],"parents":[2147483647],"right_children":[-1],"split_conditions":[-2.7330145E-3],"split_indices":[0],"split_type":[0],"sum_hessian":[8.146E3],"tree_param":{"num_deleted":"0","num_feature":"17","num_nodes":"1","size_leaf_vector":"1"}},{"base_weights":[1.4748343E-2],"categories":[],"categories_nodes":[],"categories_segments":[],"categories_sizes":[],"default_left":[0],"id":65,"left_children":[-1],"loss_changes":[0E0],"parents":[2147483647],"right_children":[-1],"split_conditions":[1.4746868E-2],"split_indices":[0],"split_type":[0],"sum_hessian":[8.226E3],"tree_param":{"num_deleted":"0","num_feature":"17","num_nodes":"1","size_leaf_vector":"1"}},{"base_weights":[-8.141608E-4,2.5614645E-2,-5.8051523E-2,-1.0191784E-2,-1.4853981E-1,-1.4667712E-2,6.7745104E-2,1.1350673E-1,-2.7426742E-3,1.6134551E-1,-9.014424E-2,-6.0242582E-2,3.018979E-1],"categories":[],"categories_nodes":[],"categories_segments":[],"categories_sizes":[],"default_left":[0,0,0,0,0,0,0,0,0,0,0,0,0],"id":66,"left_children":[1,5,3,-1,-1,-1,7,-1,9,11,-1,-1,-1],"loss_changes":[1.2540918E1,9.669898E0,1.1215221E1,0E0,0E0,0E0,9.034005E0,0E0,1.6716219E1,1.3423886E1,0E0,0E0,0E0],"parents":[2147483647,0,0,2,2,1,1,6,6,8,8,9,9],"right_children":[2,6,4,-1,-1,-1,8,-1,10,12,-1,-1,-1],"split_conditions":[1.5659299E0,3.1082454E-1,5.496714E-3,-1.0191784E-2,-1.4853981E-1,-1.4667712E-2,1.1410054E0,1.1350673E-1,1.0018764E-1,-4.973178E-3,-9.014424E-2,-6.0242582E-2,3.018979E-1],"split_indices":[16,15,3,0,0,0,16,0,6,2,0,0,0],"split_type":[0,0,0,0,0,0,0,0,0,0,0,0,0],"sum_hessian":[8.202E3,5.62E3,2.582E3,1.721E3,8.61E2,2.88E3,2.74E3,1.651E3,1.089E3,3.65E2,7.24E2,1.49E2,2.16E2],"tree_param":{"num_deleted":"0","num_feature":"17","num_nodes":"13","size_leaf_vector":"1"}},{"base_weights":[9.337858E-3,-1.4251452E-2,7.5866625E-2],"categories":[],"categories_nodes":[],"categories_segments":[],"categories_sizes":[],"default_left":[0,0,0],"id":67,"left_children":[1,-1,-1],"loss_changes":[1.3022774E1,0E0,0E0],"parents":[2147483647,0,0],"right_children":[2,-1,-1],"split_conditions":[1.5572257E-2,-1.4251452E-2,7.5866625E-2],"split_indices":[1,0,0],"split_type":[0,0,0],"sum_hessian":[8.211E3,6.079E3,2.132E3],"tree_param":{"num_deleted":"0","num_feature":"17","num_nodes":"3","size_leaf_vector":"1"}},{"base_weights":[-2.375131E-2,-5.7532117E-2,1.1145033E-2,-6.7426085E-2,2.182942E-1],"categories":[],"categories_nodes":[],"categories_segments":[],"categories_sizes":[],"default_left":[0,0,0,0,0],"id":68,"left_children":[1,3,-1,-1,-1],"loss_changes":[9.837643E0,1.2063209E1,0E0,0E0,0E0],"parents":[2147483647,0,0,1,1],"right_children":[2,4,-1,-1,-1],"split_conditions":[1.0867234E0,3.0532064E-2,1.1145033E-2,-6.7426085E-2,2.182942E-1],"split_indices":[16,0,0,0,0],"split_type":[0,0,0,0,0],"sum_hessian":[8.265E3,4.194E3,4.071E3,4.079E3,1.15E2],"tree_param":{"num_deleted":"0","num_feature":"17","num_nodes":"5","size_leaf_vector":"1"}},{"base_weights":[7.7245208E-3],"categories":[],"categories_nodes":[],"categories_segments":[],"categories_sizes":[],"default_left":[0],"id":69,"left_children":[-1],"loss_changes":[0E0],"parents":[2147483647],"right_children":[-1],"split_conditions":[7.723748E-3],"split_indices":[0],"split_type":[0],"sum_hessian":[8.229E3],"tree_param":{"num_deleted":"0","num_feature":"17","num_nodes":"1","size_leaf_vector":"1"}},{"base_weights":[-7.0739733E-3],"categories":[],"categories_nodes":[],"categories_segments":[],"categories_sizes":[],"default_left":[0],"id":70,"left_children":[-1],"loss_changes":[0E0],"parents":[2147483647],"right_children":[-1],"split_conditions":[-7.073266E-3],"split_indices":[0],"split_type":[0],"sum_hessian":[8.14E3],"tree_param":{"num_deleted":"0","num_feature":"17","num_nodes":"1","size_leaf_vector":"1"}},{"base_weights":[2.1721036E-3,6.0274005E-2,-1.88639E-2,1.33137815E-2,1.6634667E-1,-2.0899013E-1,6.953455E-2,-1.8054773E-1,-7.9495E-3,-3.5286626E-1,-1.903688E-2,2.3207018E-2,-5.2787346E-1],"categories":[],"categories_nodes":[],"categories_segments":[],"categories_sizes":[],"default_left":[0,0,0,0,0,0,0,0,0,0,0,0,0],"id":71,"left_children":[1,3,7,5,-1,-1,-1,9,-1,11,-1,-1,-1],"loss_changes":[1.0211062E1,1.0894952E1,1.0646109E1,2.0328928E1,0E0,0E0,0E0,1.0188811E1,0E0,1.2658819E1,0E0,0E0,0E0],"parents":[2147483647,0,0,1,1,3,3,2,2,7,7,9,9],"right_children":[2,4,8,6,-1,-1,-1,10,-1,12,-1,-1,-1],"split_conditions":[6.2348243E-2,5.248245E-3,1.0749587E-1,-6.807356E-1,1.6634667E-1,-2.0899013E-1,6.953455E-2,-4.5143496E-3,-7.9495E-3,-1.5770629E-2,-1.903688E-2,2.3207018E-2,-5.2787346E-1],"split_indices":[15,3,16,15,0,0,0,3,0,1,0,0,0],"split_type":[0,0,0,0,0,0,0,0,0,0,0,0,0],"sum_hessian":[8.262E3,2.183E3,6.079E3,1.547E3,6.36E2,2.89E2,1.258E3,3.43E2,5.736E3,1.42E2,2.01E2,5.5E1,8.7E1],"tree_param":{"num_deleted":"0","num_feature":"17","num_nodes":"13","size_leaf_vector":"1"}},{"base_weights":[1.1180512E-2],"categories":[],"categories_nodes":[],"categories_segments":[],"categories_sizes":[],"default_left":[0],"id":72,"left_children":[-1],"loss_changes":[0E0],"parents":[2147483647],"right_children":[-1],"split_conditions":[1.1179393E-2],"split_indices":[0],"split_type":[0],"sum_hessian":[8.163E3],"tree_param":{"num_deleted":"0","num_feature":"17","num_nodes":"1","size_leaf_vector":"1"}},{"base_weights":[-9.662425E-3],"categories":[],"categories_nodes":[],"categories_segments":[],"categories_sizes":[],"default_left":[0],"id":73,"left_children":[-1],"loss_changes":[0E0],"parents":[2147483647],"right_children":[-1],"split_conditions":[-9.661458E-3],"split_indices":[0],"split_type":[0],"sum_hessian":[8.264E3],"tree_param":{"num_deleted":"0","num_feature":"17","num_nodes":"1","size_leaf_vector":"1"}},{"base_weights":[-4.78332E-3],"categories":[],"categories_nodes":[],"categories_segments":[],"categories_sizes":[],"default_left":[0],"id":74,"left_children":[-1],"loss_changes":[0E0],"parents":[2147483647],"right_children":[-1],"split_conditions":[-4.7828415E-3],"split_indices":[0],"split_type":[0],"sum_hessian":[8.156E3],"tree_param":{"num_deleted":"0","num_feature":"17","num_nodes":"1","size_leaf_vector":"1"}},{"base_weights":[-2.380476E-3],"categories":[],"categories_nodes":[],"categories_segments":[],"categories_sizes":[],"default_left":[0],"id":75,"left_children":[-1],"loss_changes":[0E0],"parents":[2147483647],"right_children":[-1],"split_conditions":[-2.380238E-3],"split_indices":[0],"split_type":[0],"sum_hessian":[8.197E3],"tree_param":{"num_deleted":"0","num_feature":"17","num_nodes":"1","size_leaf_vector":"1"}},{"base_weights":[-3.9987123E-4],"categories":[],"categories_nodes":[],"categories_segments":[],"categories_sizes":[],"default_left":[0],"id":76,"left_children":[-1],"loss_changes":[0E0],"parents":[2147483647],"right_children":[-1],"split_conditions":[-3.9983125E-4],"split_indices":[0],"split_type":[0],"sum_hessian":[8.261E3],"tree_param":{"num_deleted":"0","num_feature":"17","num_nodes":"1","size_leaf_vector":"1"}},{"base_weights":[2.3446067E-3],"categories":[],"categories_nodes":[],"categories_segments":[],"categories_sizes":[],"default_left":[0],"id":77,"left_children":[-1],"loss_changes":[0E0],"parents":[2147483647],"right_children":[-1],"split_conditions":[2.3443722E-3],"split_indices":[0],"split_type":[0],"sum_hessian":[8.24E3],"tree_param":{"num_deleted":"0","num_feature":"17","num_nodes":"1","size_leaf_vector":"1"}},{"base_weights":[-5.7088183E-3],"categories":[],"categories_nodes":[],"categories_segments":[],"categories_sizes":[],"default_left":[0],"id":78,"left_children":[-1],"loss_changes":[0E0],"parents":[2147483647],"right_children":[-1],"split_conditions":[-5.7082474E-3],"split_indices":[0],"split_type":[0],"sum_hessian":[8.156E3],"tree_param":{"num_deleted":"0","num_feature":"17","num_nodes":"1","size_leaf_vector":"1"}},{"base_weights":[2.1635704E-2],"categories":[],"categories_nodes":[],"categories_segments":[],"categories_sizes":[],"default_left":[0],"id":79,"left_children":[-1],"loss_changes":[0E0],"parents":[2147483647],"right_children":[-1],"split_conditions":[2.163354E-2],"split_indices":[0],"split_type":[0],"sum_hessian":[8.181E3],"tree_param":{"num_deleted":"0","num_feature":"17","num_nodes":"1","size_leaf_vector":"1"}},{"base_weights":[-9.47308E-3],"categories":[],"categories_nodes":[],"categories_segments":[],"categories_sizes":[],"default_left":[0],"id":80,"left_children":[-1],"loss_changes":[0E0],"parents":[2147483647],"right_children":[-1],"split_conditions":[-9.472133E-3],"split_indices":[0],"split_type":[0],"sum_hessian":[8.182E3],"tree_param":{"num_deleted":"0","num_feature":"17","num_nodes":"1","size_leaf_vector":"1"}},{"base_weights":[-8.625917E-3],"categories":[],"categories_nodes":[],"categories_segments":[],"categories_sizes":[],"default_left":[0],"id":81,"left_children":[-1],"loss_changes":[0E0],"parents":[2147483647],"right_children":[-1],"split_conditions":[-8.625055E-3],"split_indices":[0],"split_type":[0],"sum_hessian":[8.294E3],"tree_param":{"num_deleted":"0","num_feature":"17","num_nodes":"1","size_leaf_vector":"1"}},{"base_weights":[-1.204179E-3],"categories":[],"categories_nodes":[],"categories_segments":[],"categories_sizes":[],"default_left":[0],"id":82,"left_children":[-1],"loss_changes":[0E0],"parents":[2147483647],"right_children":[-1],"split_conditions":[-1.2040585E-3],"split_indices":[0],"split_type":[0],"sum_hessian":[8.122E3],"tree_param":{"num_deleted":"0","num_feature":"17","num_nodes":"1","size_leaf_vector":"1"}},{"base_weights":[2.6820246E-3],"categories":[],"categories_nodes":[],"categories_segments":[],"categories_sizes":[],"default_left":[0],"id":83,"left_children":[-1],"loss_changes":[0E0],"parents":[2147483647],"right_children":[-1],"split_conditions":[2.6817564E-3],"split_indices":[0],"split_type":[0],"sum_hessian":[8.173E3],"tree_param":{"num_deleted":"0","num_feature":"17","num_nodes":"1","size_leaf_vector":"1"}},{"base_weights":[-1.1576319E-3],"categories":[],"categories_nodes":[],"categories_segments":[],"categories_sizes":[],"default_left":[0],"id":84,"left_children":[-1],"loss_changes":[0E0],"parents":[2147483647],"right_children":[-1],"split_conditions":[-1.157516E-3],"split_indices":[0],"split_type":[0],"sum_hessian":[8.272E3],"tree_param":{"num_deleted":"0","num_feature":"17","num_nodes":"1","size_leaf_vector":"1"}},{"base_weights":[1.6059514E-2],"categories":[],"categories_nodes":[],"categories_segments":[],"categories_sizes":[],"default_left":[0],"id":85,"left_children":[-1],"loss_changes":[0E0],"parents":[2147483647],"right_children":[-1],"split_conditions":[1.6057909E-2],"split_indices":[0],"split_type":[0],"sum_hessian":[8.186E3],"tree_param":{"num_deleted":"0","num_feature":"17","num_nodes":"1","size_leaf_vector":"1"}},{"base_weights":[-9.423871E-3],"categories":[],"categories_nodes":[],"categories_segments":[],"categories_sizes":[],"default_left":[0],"id":86,"left_children":[-1],"loss_changes":[0E0],"parents":[2147483647],"right_children":[-1],"split_conditions":[-9.422928E-3],"split_indices":[0],"split_type":[0],"sum_hessian":[8.197E3],"tree_param":{"num_deleted":"0","num_feature":"17","num_nodes":"1","size_leaf_vector":"1"}},{"base_weights":[1.23107815E-2],"categories":[],"categories_nodes":[],"categories_segments":[],"categories_sizes":[],"default_left":[0],"id":87,"left_children":[-1],"loss_changes":[0E0],"parents":[2147483647],"right_children":[-1],"split_conditions":[1.230955E-2],"split_indices":[0],"split_type":[0],"sum_hessian":[8.126E3],"tree_param":{"num_deleted":"0","num_feature":"17","num_nodes":"1","size_leaf_vector":"1"}},{"base_weights":[-1.6459716E-2],"categories":[],"categories_nodes":[],"categories_segments":[],"categories_sizes":[],"default_left":[0],"id":88,"left_children":[-1],"loss_changes":[0E0],"parents":[2147483647],"right_children":[-1],"split_conditions":[-1.645807E-2],"split_indices":[0],"split_type":[0],"sum_hessian":[8.195E3],"tree_param":{"num_deleted":"0","num_feature":"17","num_nodes":"1","size_leaf_vector":"1"}},{"base_weights":[-2.0592117E-3],"categories":[],"categories_nodes":[],"categories_segments":[],"categories_sizes":[],"default_left":[0],"id":89,"left_children":[-1],"loss_changes":[0E0],"parents":[2147483647],"right_children":[-1],"split_conditions":[-2.0590057E-3],"split_indices":[0],"split_type":[0],"sum_hessian":[8.219E3],"tree_param":{"num_deleted":"0","num_feature":"17","num_nodes":"1","size_leaf_vector":"1"}},{"base_weights":[1.3436925E-2],"categories":[],"categories_nodes":[],"categories_segments":[],"categories_sizes":[],"default_left":[0],"id":90,"left_children":[-1],"loss_changes":[0E0],"parents":[2147483647],"right_children":[-1],"split_conditions":[1.3435581E-2],"split_indices":[0],"split_type":[0],"sum_hessian":[8.259E3],"tree_param":{"num_deleted":"0","num_feature":"17","num_nodes":"1","size_leaf_vector":"1"}},{"base_weights":[-1.6963632E-3],"categories":[],"categories_nodes":[],"categories_segments":[],"categories_sizes":[],"default_left":[0],"id":91,"left_children":[-1],"loss_changes":[0E0],"parents":[2147483647],"right_children":[-1],"split_conditions":[-1.6961936E-3],"split_indices":[0],"split_type":[0],"sum_hessian":[8.134E3],"tree_param":{"num_deleted":"0","num_feature":"17","num_nodes":"1","size_leaf_vector":"1"}},{"base_weights":[3.9794485E-4],"categories":[],"categories_nodes":[],"categories_segments":[],"categories_sizes":[],"default_left":[0],"id":92,"left_children":[-1],"loss_changes":[0E0],"parents":[2147483647],"right_children":[-1],"split_conditions":[3.9790504E-4],"split_indices":[0],"split_type":[0],"sum_hessian":[8.263E3],"tree_param":{"num_deleted":"0","num_feature":"17","num_nodes":"1","size_leaf_vector":"1"}},{"base_weights":[-1.1062591E-3,1.0303889E-1,-1.179655E-2,-1.785506E-1,1.4617671E-1],"categories":[],"categories_nodes":[],"categories_segments":[],"categories_sizes":[],"default_left":[0,0,0,0,0],"id":93,"left_children":[1,3,-1,-1,-1],"loss_changes":[9.193114E0,1.0341821E1,0E0,0E0,0E0],"parents":[2147483647,0,0,1,1],"right_children":[2,4,-1,-1,-1],"split_conditions":[-5.968139E-2,-4.3339968E-2,-1.179655E-2,-1.785506E-1,1.4617671E-1],"split_indices":[1,0,0,0,0],"split_type":[0,0,0,0,0],"sum_hessian":[8.215E3,7.29E2,7.486E3,7.9E1,6.5E2],"tree_param":{"num_deleted":"0","num_feature":"17","num_nodes":"5","size_leaf_vector":"1"}},{"base_weights":[-1.0205853E-2,-1.4388917E-1,5.374361E-3],"categories":[],"categories_nodes":[],"categories_segments":[],"categories_sizes":[],"default_left":[0,0,0],"id":94,"left_children":[1,-1,-1],"loss_changes":[1.7212164E1,0E0,0E0],"parents":[2147483647,0,0],"right_children":[2,-1,-1],"split_conditions":[-5.6834504E-2,-1.4388917E-1,5.374361E-3],"split_indices":[1,0,0],"split_type":[0,0,0],"sum_hessian":[8.176E3,8.23E2,7.353E3],"tree_param":{"num_deleted":"0","num_feature":"17","num_nodes":"3","size_leaf_vector":"1"}},{"base_weights":[1.4533493E-2,1.1769303E-1,2.7823641E-3],"categories":[],"categories_nodes":[],"categories_segments":[],"categories_sizes":[],"default_left":[0,0,0],"id":95,"left_children":[1,-1,-1],"loss_changes":[9.963458E0,0E0,0E0],"parents":[2147483647,0,0],"right_children":[2,-1,-1],"split_conditions":[-5.7764553E-2,1.1769303E-1,2.7823641E-3],"split_indices":[1,0,0],"split_type":[0,0,0],"sum_hessian":[8.239E3,8.02E2,7.437E3],"tree_param":{"num_deleted":"0","num_feature":"17","num_nodes":"3","size_leaf_vector":"1"}},{"base_weights":[-1.2252161E-2],"categories":[],"categories_nodes":[],"categories_segments":[],"categories_sizes":[],"default_left":[0],"id":96,"left_children":[-1],"loss_changes":[0E0],"parents":[2147483647],"right_children":[-1],"split_conditions":[-1.2250936E-2],"split_indices":[0],"split_type":[0],"sum_hessian":[8.156E3],"tree_param":{"num_deleted":"0","num_feature":"17","num_nodes":"1","size_leaf_vector":"1"}},{"base_weights":[1.0111604E-2,1.3101846E-1,-1.4644279E-3,2.6679447E-1,2.3137862E-3],"categories":[],"categories_nodes":[],"categories_segments":[],"categories_sizes":[],"default_left":[0,0,0,0,0],"id":97,"left_children":[1,3,-1,-1,-1],"loss_changes":[1.1572878E1,1.2464912E1,0E0,0E0,0E0],"parents":[2147483647,0,0,1,1],"right_children":[2,4,-1,-1,-1],"split_conditions":[-5.503919E-1,-2.8157981E-2,-1.4644279E-3,2.6679447E-1,2.3137862E-3],"split_indices":[16,12,0,0,0],"split_type":[0,0,0,0,0],"sum_hessian":[8.178E3,6.83E2,7.495E3,3.1E2,3.73E2],"tree_param":{"num_deleted":"0","num_feature":"17","num_nodes":"5","size_leaf_vector":"1"}},{"base_weights":[-1.7436609E-2],"categories":[],"categories_nodes":[],"categories_segments":[],"categories_sizes":[],"default_left":[0],"id":98,"left_children":[-1],"loss_changes":[0E0],"parents":[2147483647],"right_children":[-1],"split_conditions":[-1.7434865E-2],"split_indices":[0],"split_type":[0],"sum_hessian":[8.189E3],"tree_param":{"num_deleted":"0","num_feature":"17","num_nodes":"1","size_leaf_vector":"1"}},{"base_weights":[2.531094E-3,-1.597706E-2,6.5354034E-2],"categories":[],"categories_nodes":[],"categories_segments":[],"categories_sizes":[],"default_left":[0,0,0],"id":99,"left_children":[1,-1,-1],"loss_changes":[9.480939E0,0E0,0E0],"parents":[2147483647,0,0],"right_children":[2,-1,-1],"split_conditions":[-1.7743215E-2,-1.597706E-2,6.5354034E-2],"split_indices":[12,0,0],"split_type":[0,0,0],"sum_hessian":[8.057E3,6.24E3,1.817E3],"tree_param":{"num_deleted":"0","num_feature":"17","num_nodes":"3","size_leaf_vector":"1"}},{"base_weights":[2.3131238E-3],"categories":[],"categories_nodes":[],"categories_segments":[],"categories_sizes":[],"default_left":[0],"id":100,"left_children":[-1],"loss_changes":[0E0],"parents":[2147483647],"right_children":[-1],"split_conditions":[2.3128923E-3],"split_indices":[0],"split_type":[0],"sum_hessian":[8.258E3],"tree_param":{"num_deleted":"0","num_feature":"17","num_nodes":"1","size_leaf_vector":"1"}},{"base_weights":[1.3400982E-2,2.13241E-2,-1.230968E-1],"categories":[],"categories_nodes":[],"categories_segments":[],"categories_sizes":[],"default_left":[0,0,0],"id":101,"left_children":[1,-1,-1],"loss_changes":[9.020259E0,0E0,0E0],"parents":[2147483647,0,0],"right_children":[2,-1,-1],"split_conditions":[1.9543008E0,2.13241E-2,-1.230968E-1],"split_indices":[15,0,0],"split_type":[0,0,0],"sum_hessian":[8.25E3,7.832E3,4.18E2],"tree_param":{"num_deleted":"0","num_feature":"17","num_nodes":"3","size_leaf_vector":"1"}},{"base_weights":[-1.7182559E-2,-1.0359121E-1,-2.7728246E-3],"categories":[],"categories_nodes":[],"categories_segments":[],"categories_sizes":[],"default_left":[0,0,0],"id":102,"left_children":[1,-1,-1],"loss_changes":[1.0193336E1,0E0,0E0],"parents":[2147483647,0,0],"right_children":[2,-1,-1],"split_conditions":[-1.5386267E-1,-1.0359121E-1,-2.7728246E-3],"split_indices":[16,0,0],"split_type":[0,0,0],"sum_hessian":[8.198E3,1.132E3,7.066E3],"tree_param":{"num_deleted":"0","num_feature":"17","num_nodes":"3","size_leaf_vector":"1"}},{"base_weights":[5.7763895E-3,-2.8672947E-2,5.4217994E-2,4.1504513E-2,3.250936E-1,6.700565E-2,-4.9268346E-2],"categories":[],"categories_nodes":[],"categories_segments":[],"categories_sizes":[],"default_left":[0,0,0,0,0,0,0],"id":103,"left_children":[1,5,3,-1,-1,-1,-1],"loss_changes":[1.3764573E1,9.610051E0,1.1096212E1,0E0,0E0,0E0,0E0],"parents":[2147483647,0,0,2,2,1,1],"right_children":[2,6,4,-1,-1,-1,-1],"split_conditions":[7.7561656E-4,8.953704E-2,3.0824308E0,4.1504513E-2,3.250936E-1,6.700565E-2,-4.9268346E-2],"split_indices":[10,6,16,0,0,0,0],"split_type":[0,0,0,0,0,0,0],"sum_hessian":[8.165E3,4.775E3,3.39E3,3.283E3,1.07E2,8.26E2,3.949E3],"tree_param":{"num_deleted":"0","num_feature":"17","num_nodes":"7","size_leaf_vector":"1"}},{"base_weights":[8.810614E-3],"categories":[],"categories_nodes":[],"categories_segments":[],"categories_sizes":[],"default_left":[0],"id":104,"left_children":[-1],"loss_changes":[0E0],"parents":[2147483647],"right_children":[-1],"split_conditions":[8.809733E-3],"split_indices":[0],"split_type":[0],"sum_hessian":[8.163E3],"tree_param":{"num_deleted":"0","num_feature":"17","num_nodes":"1","size_leaf_vector":"1"}},{"base_weights":[-7.5581516E-3],"categories":[],"categories_nodes":[],"categories_segments":[],"categories_sizes":[],"default_left":[0],"id":105,"left_children":[-1],"loss_changes":[0E0],"parents":[2147483647],"right_children":[-1],"split_conditions":[-7.557396E-3],"split_indices":[0],"split_type":[0],"sum_hessian":[8.306E3],"tree_param":{"num_deleted":"0","num_feature":"17","num_nodes":"1","size_leaf_vector":"1"}},{"base_weights":[1.9701072E-3,2.0129573E-2,-6.905743E-2,-1.5971608E-1,2.3852004E-2],"categories":[],"categories_nodes":[],"categories_segments":[],"categories_sizes":[],"default_left":[0,0,0,0,0],"id":106,"left_children":[1,-1,3,-1,-1],"loss_changes":[1.0716512E1,0E0,1.4456067E1,0E0,0E0],"parents":[2147483647,0,0,2,2],"right_children":[2,-1,4,-1,-1],"split_conditions":[1.1280762E-2,2.0129573E-2,-7.988425E-3,-1.5971608E-1,2.3852004E-2],"split_indices":[7,0,0,0,0],"split_type":[0,0,0,0,0],"sum_hessian":[8.245E3,6.594E3,1.651E3,8.24E2,8.27E2],"tree_param":{"num_deleted":"0","num_feature":"17","num_nodes":"5","size_leaf_vector":"1"}},{"base_weights":[-9.090747E-4],"categories":[],"categories_nodes":[],"categories_segments":[],"categories_sizes":[],"default_left":[0],"id":107,"left_children":[-1],"loss_changes":[0E0],"parents":[2147483647],"right_children":[-1],"split_conditions":[-9.0898375E-4],"split_indices":[0],"split_type":[0],"sum_hessian":[8.162E3],"tree_param":{"num_deleted":"0","num_feature":"17","num_nodes":"1","size_leaf_vector":"1"}},{"base_weights":[1.9062564E-2],"categories":[],"categories_nodes":[],"categories_segments":[],"categories_sizes":[],"default_left":[0],"id":108,"left_children":[-1],"loss_changes":[0E0],"parents":[2147483647],"right_children":[-1],"split_conditions":[1.9060656E-2],"split_indices":[0],"split_type":[0],"sum_hessian":[8.176E3],"tree_param":{"num_deleted":"0","num_feature":"17","num_nodes":"1","size_leaf_vector":"1"}},{"base_weights":[-2.0089384E-2,1.942594E-2,-4.8848655E-2,-1.2725277E-1,3.8698196E-2],"categories":[],"categories_nodes":[],"categories_segments":[],"categories_sizes":[],"default_left":[0,0,0,0,0],"id":109,"left_children":[1,3,-1,-1,-1],"loss_changes":[9.474614E0,1.0083089E1,0E0,0E0,0E0],"parents":[2147483647,0,0,1,1],"right_children":[2,4,-1,-1,-1],"split_conditions":[8.410102E-1,-2.8058186E-2,-4.8848655E-2,-1.2725277E-1,3.8698196E-2],"split_indices":[16,11,0,0,0],"split_type":[0,0,0,0,0],"sum_hessian":[8.251E3,3.474E3,4.777E3,3.75E2,3.099E3],"tree_param":{"num_deleted":"0","num_feature":"17","num_nodes":"5","size_leaf_vector":"1"}},{"base_weights":[1.7424027E-3],"categories":[],"categories_nodes":[],"categories_segments":[],"categories_sizes":[],"default_left":[0],"id":110,"left_children":[-1],"loss_changes":[0E0],"parents":[2147483647],"right_children":[-1],"split_conditions":[1.7422284E-3],"split_indices":[0],"split_type":[0],"sum_hessian":[8.177E3],"tree_param":{"num_deleted":"0","num_feature":"17","num_nodes":"1","size_leaf_vector":"1"}},{"base_weights":[-1.9070267E-3],"categories":[],"categories_nodes":[],"categories_segments":[],"categories_sizes":[],"default_left":[0],"id":111,"left_children":[-1],"loss_changes":[0E0],"parents":[2147483647],"right_children":[-1],"split_conditions":[-1.906836E-3],"split_indices":[0],"split_type":[0],"sum_hessian":[8.28E3],"tree_param":{"num_deleted":"0","num_feature":"17","num_nodes":"1","size_leaf_vector":"1"}},{"base_weights":[7.791476E-3,8.691566E-4,1.7184572E-1,-1.9322243E-2,4.28008E-1,2.1011741E-1,-1.7610824E-1],"categories":[],"categories_nodes":[],"categories_segments":[],"categories_sizes":[],"default_left":[0,0,0,0,0,0,0],"id":112,"left_children":[1,-1,3,5,-1,-1,-1],"loss_changes":[9.144688E0,0E0,1.6502705E1,9.463523E0,0E0,0E0,0E0],"parents":[2147483647,0,0,2,2,3,3],"right_children":[2,-1,4,6,-1,-1,-1],"split_conditions":[2.073368E0,8.691566E-4,7.298459E-3,-1.1323274E-2,4.28008E-1,2.1011741E-1,-1.7610824E-1],"split_indices":[15,0,7,10,0,0,0],"split_type":[0,0,0,0,0,0,0],"sum_hessian":[8.094E3,7.807E3,2.87E2,1.84E2,1.03E2,6.8E1,1.16E2],"tree_param":{"num_deleted":"0","num_feature":"17","num_nodes":"7","size_leaf_vector":"1"}},{"base_weights":[-8.412295E-3],"categories":[],"categories_nodes":[],"categories_segments":[],"categories_sizes":[],"default_left":[0],"id":113,"left_children":[-1],"loss_changes":[0E0],"parents":[2147483647],"right_children":[-1],"split_conditions":[-8.411454E-3],"split_indices":[0],"split_type":[0],"sum_hessian":[8.221E3],"tree_param":{"num_deleted":"0","num_feature":"17","num_nodes":"1","size_leaf_vector":"1"}},{"base_weights":[1.0343229E-2,-4.6820037E-2,3.2049544E-2],"categories":[],"categories_nodes":[],"categories_segments":[],"categories_sizes":[],"default_left":[0,0,0],"id":114,"left_children":[1,-1,-1],"loss_changes":[1.0123146E1,0E0,0E0],"parents":[2147483647,0,0],"right_children":[2,-1,-1],"split_conditions":[8.23112E-2,-4.6820037E-2,3.2049544E-2],"split_indices":[15,0,0],"split_type":[0,0,0],"sum_hessian":[8.076E3,2.204E3,5.872E3],"tree_param":{"num_deleted":"0","num_feature":"17","num_nodes":"3","size_leaf_vector":"1"}},{"base_weights":[-2.0660859E-2,1.6725324E-2,-5.080864E-2],"categories":[],"categories_nodes":[],"categories_segments":[],"categories_sizes":[],"default_left":[0,0,0],"id":115,"left_children":[1,-1,-1],"loss_changes":[9.322881E0,0E0,0E0],"parents":[2147483647,0,0],"right_children":[2,-1,-1],"split_conditions":[-3.8880423E-2,1.6725324E-2,-5.080864E-2],"split_indices":[4,0,0],"split_type":[0,0,0],"sum_hessian":[8.186E3,3.655E3,4.531E3],"tree_param":{"num_deleted":"0","num_feature":"17","num_nodes":"3","size_leaf_vector":"1"}},{"base_weights":[1.5601968E-2],"categories":[],"categories_nodes":[],"categories_segments":[],"categories_sizes":[],"default_left":[0],"id":116,"left_children":[-1],"loss_changes":[0E0],"parents":[2147483647],"right_children":[-1],"split_conditions":[1.56004075E-2],"split_indices":[0],"split_type":[0],"sum_hessian":[8.229E3],"tree_param":{"num_deleted":"0","num_feature":"17","num_nodes":"1","size_leaf_vector":"1"}},{"base_weights":[8.057555E-4],"categories":[],"categories_nodes":[],"categories_segments":[],"categories_sizes":[],"default_left":[0],"id":117,"left_children":[-1],"loss_changes":[0E0],"parents":[2147483647],"right_children":[-1],"split_conditions":[8.056749E-4],"split_indices":[0],"split_type":[0],"sum_hessian":[8.178E3],"tree_param":{"num_deleted":"0","num_feature":"17","num_nodes":"1","size_leaf_vector":"1"}},{"base_weights":[-6.6670156E-3,-3.8027022E-2,3.7310183E-2],"categories":[],"categories_nodes":[],"categories_segments":[],"categories_sizes":[],"default_left":[0,0,0],"id":118,"left_children":[1,-1,-1],"loss_changes":[1.13922E1,0E0,0E0],"parents":[2147483647,0,0],"right_children":[2,-1,-1],"split_conditions":[1.2673877E-1,-3.8027022E-2,3.7310183E-2],"split_indices":[6,0,0],"split_type":[0,0,0],"sum_hessian":[8.179E3,4.784E3,3.395E3],"tree_param":{"num_deleted":"0","num_feature":"17","num_nodes":"3","size_leaf_vector":"1"}},{"base_weights":[-5.289118E-3],"categories":[],"categories_nodes":[],"categories_segments":[],"categories_sizes":[],"default_left":[0],"id":119,"left_children":[-1],"loss_changes":[0E0],"parents":[2147483647],"right_children":[-1],"split_conditions":[-5.288589E-3],"split_indices":[0],"split_type":[0],"sum_hessian":[8.118E3],"tree_param":{"num_deleted":"0","num_feature":"17","num_nodes":"1","size_leaf_vector":"1"}},{"base_weights":[2.268242E-3,-1.0266275E-1,1.2763355E-2,1.936785E-2,-1.7259422E-1,-2.4007216E-2,-2.6102695E-1],"categories":[],"categories_nodes":[],"categories_segments":[],"categories_sizes":[],"default_left":[0,0,0,0,0,0,0],"id":120,"left_children":[1,5,3,-1,-1,-1,-1],"loss_changes":[9.1408205E0,9.0085335E0,9.336962E0,0E0,0E0,0E0,0E0],"parents":[2147483647,0,0,2,2,1,1],"right_children":[2,6,4,-1,-1,-1,-1],"split_conditions":[-6.0788233E-2,-4.1603246E-3,3.3857353E-2,1.936785E-2,-1.7259422E-1,-2.4007216E-2,-2.6102695E-1],"split_indices":[1,2,0,0,0,0,0],"split_type":[0,0,0,0,0,0,0],"sum_hessian":[8.255E3,7.15E2,7.54E3,7.317E3,2.23E2,5.1E2,2.05E2],"tree_param":{"num_deleted":"0","num_feature":"17","num_nodes":"7","size_leaf_vector":"1"}},{"base_weights":[-5.085492E-4],"categories":[],"categories_nodes":[],"categories_segments":[],"categories_sizes":[],"default_left":[0],"id":121,"left_children":[-1],"loss_changes":[0E0],"parents":[2147483647],"right_children":[-1],"split_conditions":[-5.0849834E-4],"split_indices":[0],"split_type":[0],"sum_hessian":[8.22E3],"tree_param":{"num_deleted":"0","num_feature":"17","num_nodes":"1","size_leaf_vector":"1"}},{"base_weights":[-4.028757E-3],"categories":[],"categories_nodes":[],"categories_segments":[],"categories_sizes":[],"default_left":[0],"id":122,"left_children":[-1],"loss_changes":[0E0],"parents":[2147483647],"right_children":[-1],"split_conditions":[-4.0283543E-3],"split_indices":[0],"split_type":[0],"sum_hessian":[8.208E3],"tree_param":{"num_deleted":"0","num_feature":"17","num_nodes":"1","size_leaf_vector":"1"}},{"base_weights":[1.4386463E-2,3.1333168E-3,1.2909329E-1],"categories":[],"categories_nodes":[],"categories_segments":[],"categories_sizes":[],"default_left":[0,0,0],"id":123,"left_children":[1,-1,-1],"loss_changes":[1.0614077E1,0E0,0E0],"parents":[2147483647,0,0],"right_children":[2,-1,-1],"split_conditions":[2.2869745E-2,3.1333168E-3,1.2909329E-1],"split_indices":[0,0,0],"split_type":[0,0,0],"sum_hessian":[8.246E3,7.55E3,6.96E2],"tree_param":{"num_deleted":"0","num_feature":"17","num_nodes":"3","size_leaf_vector":"1"}},{"base_weights":[7.069043E-3],"categories":[],"categories_nodes":[],"categories_segments":[],"categories_sizes":[],"default_left":[0],"id":124,"left_children":[-1],"loss_changes":[0E0],"parents":[2147483647],"right_children":[-1],"split_conditions":[7.068336E-3],"split_indices":[0],"split_type":[0],"sum_hessian":[8.162E3],"tree_param":{"num_deleted":"0","num_feature":"17","num_nodes":"1","size_leaf_vector":"1"}},